62 128
Jet -0.036956 0.033343 -0.041377 -0.381547 0.113595 0.114147 -0.052162 0.012850 -0.007257 0.276673 0.014322 0.082025 0.063792 -0.087663 -0.041160 -0.200671 -0.035738 0.037265 0.151281 0.093466 0.004652 -0.077280 0.037097 -0.099815 -0.158007 0.101988 -0.115967 -0.114205 0.025687 0.072931 -0.180297 0.098782 0.095979 -0.018849 0.028282 -0.105062 -0.025579 0.134609 -0.053627 0.162586 -0.112402 -0.087306 -0.101689 0.174191 0.050400 -0.064195 0.004412 -0.052377 -0.259544 -0.071706 -0.004434 -0.038382 -0.068707 0.032324 0.005295 0.068277 -0.165692 0.032707 0.097249 0.050150 -0.149383 0.113941 -0.143619 0.051619 0.008568 -0.094952 0.039632 -0.202295 0.045348 -0.072180 0.077659 -0.030091 0.083887 -0.021348 0.071943 -0.097790 0.071991 0.041468 0.154164 0.036496 0.031875 0.035313 -0.001882 0.144152 0.113308 0.010945 -0.034165 -0.017054 0.055524 -0.122552 -0.035719 -0.083729 0.156562 0.008172 -0.006056 -0.039190 0.001944 0.013276 -0.096400 0.066167 -0.139374 0.063113 -0.048676 -0.270764 0.017515 0.215042 -0.130129 -0.003592 0.029080 -0.056753 0.009277 0.003675 0.042159 0.097843 -0.118312 -0.178004 -0.054009 -0.085355 0.009365 -0.040847 -0.112289 0.095299 0.064386 0.038264 -0.011399 0.002395 0.002234 0.043212
Patchback -0.033216 0.021274 -0.029883 -0.282967 0.086065 0.085213 -0.032373 0.008772 -0.009690 0.207166 0.007082 0.059131 0.047557 -0.063151 -0.028982 -0.142846 -0.022233 0.028540 0.108138 0.071998 0.006898 -0.054274 0.029886 -0.074156 -0.121423 0.074361 -0.078699 -0.083125 0.026013 0.050477 -0.132396 0.072007 0.071523 -0.014179 0.019270 -0.085027 -0.022523 0.103323 -0.042418 0.124464 -0.081236 -0.065485 -0.075610 0.132853 0.040002 -0.045806 -0.004653 -0.042365 -0.190309 -0.054360 -0.003554 -0.026102 -0.053034 0.027517 0.001519 0.054180 -0.129288 0.029521 0.073766 0.040005 -0.110968 0.082952 -0.105228 0.043765 0.005946 -0.070147 0.033589 -0.148395 0.028929 -0.050351 0.055970 -0.023085 0.063009 -0.014974 0.049193 -0.077040 0.050749 0.038242 0.110819 0.029975 0.023681 0.026195 -0.005781 0.108224 0.087097 0.006583 -0.024361 -0.011439 0.039424 -0.089872 -0.028730 -0.064882 0.117078 0.006883 -0.001218 -0.026793 -0.005343 0.015465 -0.071166 0.048360 -0.103514 0.039979 -0.034778 -0.203732 0.011853 0.158615 -0.094433 -0.003584 0.020106 -0.045652 0.006455 0.001746 0.031677 0.069833 -0.087900 -0.135647 -0.041291 -0.064833 0.009691 -0.025397 -0.079034 0.070557 0.053253 0.026232 -0.010761 -0.004456 0.007579 0.035377
Web -0.037791 0.028996 -0.035649 -0.322885 0.093561 0.101575 -0.045278 0.004810 -0.007795 0.230912 0.012746 0.072930 0.053926 -0.075548 -0.036560 -0.173557 -0.026220 0.038073 0.122629 0.082034 0.002238 -0.065728 0.036367 -0.082192 -0.137644 0.086400 -0.102233 -0.095652 0.024510 0.062106 -0.149902 0.084574 0.084491 -0.019137 0.020207 -0.090636 -0.029325 0.117558 -0.045554 0.138365 -0.093368 -0.072177 -0.089976 0.151824 0.046557 -0.051222 0.000379 -0.042087 -0.216143 -0.056017 -0.001437 -0.032825 -0.058332 0.036366 -0.001801 0.058984 -0.148716 0.036287 0.088566 0.040750 -0.126918 0.093171 -0.117156 0.046986 0.003222 -0.082641 0.028663 -0.171059 0.032401 -0.059649 0.068015 -0.026929 0.067966 -0.025139 0.057694 -0.082410 0.056022 0.037891 0.133367 0.030978 0.022609 0.032586 0.001019 0.127608 0.103157 0.007099 -0.025552 -0.006747 0.049816 -0.103161 -0.035209 -0.069025 0.136831 0.008070 -0.005654 -0.030069 -0.003739 0.007174 -0.083712 0.058593 -0.123252 0.051618 -0.035549 -0.229343 0.012639 0.182621 -0.109810 -0.004662 0.020192 -0.051730 0.015558 0.005697 0.032308 0.080163 -0.100112 -0.152782 -0.045445 -0.078812 0.009258 -0.031907 -0.099046 0.083357 0.059163 0.032312 -0.012032 0.002888 0.005472 0.038436
Grin -0.034874 0.019293 -0.036962 -0.302468 0.087978 0.091731 -0.036170 0.009452 -0.006547 0.216044 0.011050 0.063978 0.047529 -0.064946 -0.024923 -0.151851 -0.025243 0.034351 0.121453 0.070489 0.007696 -0.056520 0.026738 -0.079815 -0.125839 0.074910 -0.087213 -0.094476 0.026826 0.054335 -0.140069 0.075681 0.072707 -0.016665 0.022268 -0.091025 -0.020972 0.110432 -0.050110 0.126119 -0.083869 -0.065362 -0.078785 0.144057 0.038923 -0.051261 -0.003817 -0.042107 -0.205120 -0.057338 -0.003329 -0.027123 -0.058507 0.030484 0.004745 0.050692 -0.133683 0.032221 0.082661 0.042346 -0.115291 0.084243 -0.111015 0.040146 0.000968 -0.073971 0.033626 -0.152967 0.035405 -0.056536 0.058306 -0.026038 0.060347 -0.023023 0.050998 -0.082292 0.051869 0.037763 0.121565 0.029905 0.030463 0.027700 -0.005517 0.112513 0.093541 0.002021 -0.029388 -0.011274 0.042220 -0.093412 -0.029344 -0.062734 0.120669 0.005144 -0.000640 -0.036746 -0.004988 0.011232 -0.073375 0.052147 -0.111681 0.046679 -0.035900 -0.211701 0.015472 0.169436 -0.097952 -0.001847 0.020984 -0.046305 0.012464 0.002859 0.027112 0.073247 -0.091512 -0.143558 -0.037437 -0.066619 0.011212 -0.034121 -0.086459 0.073730 0.051164 0.023991 -0.006211 0.001682 0.004080 0.037030
Scabs -0.035183 0.025271 -0.039414 -0.340614 0.096486 0.109669 -0.040291 0.010960 -0.005436 0.248267 0.013387 0.071337 0.057224 -0.075323 -0.032689 -0.176828 -0.030367 0.036368 0.133985 0.080795 0.009301 -0.066846 0.029969 -0.092916 -0.148306 0.089916 -0.093387 -0.101831 0.037356 0.058615 -0.153977 0.081749 0.081924 -0.021007 0.018484 -0.101550 -0.024857 0.120024 -0.054844 0.144990 -0.097681 -0.074320 -0.090419 0.162475 0.044199 -0.060953 -0.002598 -0.053067 -0.230382 -0.062618 -0.010651 -0.030784 -0.059275 0.038315 0.005467 0.059990 -0.153866 0.032867 0.095795 0.041468 -0.129126 0.095297 -0.118799 0.043475 0.002635 -0.079158 0.034159 -0.174505 0.035679 -0.059846 0.065850 -0.028983 0.072836 -0.021519 0.060257 -0.085888 0.056950 0.040578 0.130796 0.032743 0.035564 0.029832 -0.000159 0.126538 0.104265 0.004568 -0.030222 -0.012224 0.049007 -0.107017 -0.040751 -0.077821 0.140936 0.002400 0.004844 -0.039611 -0.001747 0.010215 -0.083478 0.056961 -0.123860 0.052266 -0.039924 -0.245485 0.013059 0.189002 -0.116806 -0.004323 0.020746 -0.054396 0.011722 0.000912 0.033658 0.086500 -0.106982 -0.162272 -0.045288 -0.075256 0.017493 -0.034113 -0.098463 0.080865 0.061137 0.025982 -0.009524 0.001659 0.006556 0.043231
Topless -0.033040 0.019921 -0.034422 -0.280019 0.084371 0.091127 -0.033030 0.006791 -0.003415 0.203213 0.010846 0.060432 0.042924 -0.057708 -0.026074 -0.142692 -0.024025 0.028453 0.113512 0.070511 0.004168 -0.051875 0.025562 -0.074090 -0.122205 0.067522 -0.079240 -0.081869 0.023629 0.047606 -0.129929 0.066874 0.070150 -0.013845 0.021557 -0.083583 -0.020843 0.103057 -0.045835 0.116396 -0.076874 -0.057217 -0.074172 0.129550 0.037048 -0.045992 -0.003137 -0.043914 -0.189454 -0.055096 -0.008252 -0.026646 -0.052573 0.031555 0.003964 0.050870 -0.125295 0.030683 0.075626 0.035360 -0.107126 0.080766 -0.104847 0.040304 0.007619 -0.065972 0.031613 -0.142616 0.033256 -0.054288 0.053889 -0.018384 0.057817 -0.015451 0.047241 -0.077469 0.049425 0.035167 0.110168 0.031721 0.025998 0.025651 -0.007018 0.109613 0.086010 0.002717 -0.029453 -0.005507 0.041073 -0.085421 -0.030951 -0.058564 0.110119 0.007667 0.000551 -0.029139 -0.000929 0.015269 -0.074243 0.049171 -0.099530 0.041134 -0.032986 -0.201150 0.013585 0.157130 -0.094814 -0.005496 0.018296 -0.038924 0.010963 0.002650 0.028551 0.068944 -0.083716 -0.133532 -0.040351 -0.064611 0.012578 -0.025685 -0.079591 0.065441 0.047278 0.021745 -0.012328 -0.002570 0.001507 0.032201
Trigger -0.036440 0.019963 -0.036247 -0.296732 0.089823 0.091332 -0.031600 0.010442 -0.009859 0.212804 0.011725 0.066103 0.047925 -0.068106 -0.033792 -0.148822 -0.025742 0.028940 0.117883 0.068591 0.008199 -0.051527 0.025298 -0.075538 -0.129868 0.075779 -0.085490 -0.091191 0.027904 0.057336 -0.136025 0.070315 0.072162 -0.019276 0.018877 -0.085528 -0.019532 0.108680 -0.048944 0.129517 -0.087909 -0.066518 -0.082738 0.134925 0.038413 -0.052112 0.001361 -0.042695 -0.204238 -0.050451 -0.007736 -0.027918 -0.051251 0.031512 0.001552 0.054764 -0.130964 0.028160 0.081573 0.035694 -0.110177 0.081774 -0.105917 0.041095 0.005889 -0.070424 0.034967 -0.157172 0.034515 -0.057288 0.054382 -0.024878 0.066415 -0.021463 0.051977 -0.083586 0.055403 0.039759 0.115380 0.030957 0.027799 0.026809 -0.008088 0.114761 0.089173 0.001611 -0.030956 -0.010980 0.039747 -0.090077 -0.030471 -0.066761 0.121204 0.009927 -0.002343 -0.034154 -0.001343 0.009657 -0.073039 0.051256 -0.109178 0.046185 -0.038907 -0.215105 0.013950 0.164833 -0.100532 -0.001332 0.017532 -0.047023 0.006798 0.005963 0.030299 0.069113 -0.085603 -0.144980 -0.040557 -0.067447 0.009947 -0.031260 -0.089590 0.071138 0.047954 0.028411 -0.014298 -0.000546 0.005945 0.032232
SN4 -0.032116 0.022819 -0.034708 -0.291461 0.086718 0.087373 -0.030796 0.010033 -0.001351 0.207886 0.010828 0.062377 0.048309 -0.060579 -0.031216 -0.151519 -0.022559 0.036914 0.115867 0.072339 0.003301 -0.053637 0.028551 -0.074012 -0.123277 0.070043 -0.084874 -0.087557 0.032209 0.049714 -0.129048 0.068993 0.074354 -0.020684 0.020161 -0.081476 -0.021397 0.104751 -0.049838 0.121122 -0.085237 -0.061204 -0.075068 0.138346 0.043189 -0.044723 -0.000110 -0.042701 -0.191048 -0.053390 -0.008869 -0.022476 -0.053952 0.033682 -0.000118 0.056127 -0.130068 0.034064 0.081382 0.040989 -0.113433 0.082214 -0.102389 0.038366 0.001557 -0.069790 0.026497 -0.152836 0.031097 -0.049667 0.056048 -0.022471 0.059536 -0.019045 0.053344 -0.080624 0.053913 0.038564 0.113072 0.029401 0.029534 0.030641 -0.004763 0.108343 0.086807 0.008128 -0.024271 -0.011438 0.041327 -0.094422 -0.027211 -0.065145 0.112718 0.004685 0.002960 -0.030968 -0.001631 0.013279 -0.074862 0.051552 -0.109525 0.042614 -0.034354 -0.207890 0.011622 0.162357 -0.092778 0.000422 0.020977 -0.040100 0.005467 0.001162 0.030492 0.075439 -0.088985 -0.140620 -0.035746 -0.063182 0.008614 -0.032842 -0.080030 0.069497 0.051877 0.024940 -0.008565 0.003803 0.005198 0.035887
SN63 -0.028910 0.015570 -0.026880 -0.262274 0.079975 0.088348 -0.035907 0.005785 -0.006878 0.192346 0.009977 0.053888 0.042163 -0.057854 -0.023284 -0.139115 -0.025456 0.032160 0.105533 0.062169 0.004708 -0.052177 0.028135 -0.067381 -0.110382 0.065837 -0.071952 -0.081294 0.028199 0.051017 -0.121423 0.067528 0.067245 -0.012096 0.014824 -0.080728 -0.016823 0.091895 -0.045756 0.116478 -0.073488 -0.059100 -0.073415 0.121012 0.036487 -0.042804 -0.002028 -0.042253 -0.178368 -0.051601 -0.007219 -0.020854 -0.048313 0.027499 0.002852 0.050769 -0.116498 0.030693 0.073710 0.038602 -0.103857 0.075082 -0.097196 0.034971 0.000134 -0.066218 0.029842 -0.135314 0.025213 -0.043925 0.050585 -0.017203 0.053890 -0.015081 0.044087 -0.066903 0.043582 0.030151 0.105382 0.027528 0.026408 0.025463 -0.006021 0.100123 0.078855 0.004461 -0.028785 -0.008414 0.039260 -0.081334 -0.030960 -0.059554 0.110179 0.000522 -0.000388 -0.031692 -0.003884 0.007734 -0.068283 0.049226 -0.100761 0.037540 -0.033207 -0.188170 0.015227 0.144539 -0.086330 -0.000555 0.011943 -0.036527 0.010118 0.001545 0.027152 0.067338 -0.080209 -0.124628 -0.039487 -0.057137 0.010067 -0.024607 -0.073988 0.064526 0.046735 0.017861 -0.010621 0.002989 0.006271 0.031705
Feather -0.029771 0.027779 -0.028396 -0.286682 0.087417 0.088154 -0.039921 0.008632 -0.009275 0.203264 0.015292 0.060633 0.042938 -0.064999 -0.031332 -0.150035 -0.025654 0.031876 0.109230 0.070495 0.001029 -0.057808 0.026873 -0.073787 -0.124039 0.075251 -0.085047 -0.084317 0.025585 0.047594 -0.135409 0.072265 0.073409 -0.014818 0.018955 -0.086759 -0.023719 0.104137 -0.046607 0.124117 -0.088201 -0.060008 -0.077147 0.129162 0.044426 -0.052018 -0.003429 -0.035878 -0.194536 -0.048455 -0.002817 -0.023240 -0.051932 0.026618 -0.002886 0.055003 -0.131487 0.031360 0.077152 0.035964 -0.113557 0.085070 -0.102646 0.038821 0.004287 -0.066644 0.024408 -0.148513 0.028140 -0.050824 0.057706 -0.020079 0.059118 -0.015013 0.052527 -0.071474 0.048574 0.036243 0.111698 0.030070 0.020721 0.030297 0.000338 0.109383 0.090193 0.011087 -0.021576 -0.010164 0.039054 -0.086283 -0.028176 -0.059031 0.119878 0.009327 0.002214 -0.027422 0.001564 0.012361 -0.072692 0.048024 -0.101978 0.046533 -0.034277 -0.206909 0.012572 0.156933 -0.097013 -0.003888 0.014930 -0.038969 0.014309 0.007402 0.029892 0.070720 -0.087662 -0.138757 -0.041799 -0.070023 0.009918 -0.032509 -0.084902 0.068251 0.054343 0.028698 -0.011258 0.002022 0.003460 0.035344
Gallatin -0.031587 0.021464 -0.030664 -0.266560 0.080808 0.082762 -0.037319 0.008497 -0.006959 0.193725 0.014886 0.059783 0.046563 -0.063205 -0.026272 -0.142391 -0.022142 0.025015 0.104812 0.068924 -0.001581 -0.050931 0.031177 -0.069781 -0.114985 0.067171 -0.084472 -0.076649 0.021319 0.047957 -0.126632 0.070196 0.070708 -0.011198 0.016763 -0.077483 -0.020866 0.094104 -0.037918 0.114235 -0.078536 -0.059555 -0.073315 0.124437 0.036524 -0.043415 -0.000874 -0.035993 -0.182711 -0.048490 -0.004364 -0.023519 -0.047729 0.025251 -0.001346 0.047798 -0.119028 0.028738 0.067851 0.032497 -0.105352 0.073839 -0.096623 0.040904 0.000935 -0.065186 0.021292 -0.139349 0.025177 -0.054009 0.054075 -0.023983 0.053006 -0.018008 0.049305 -0.069448 0.045007 0.028424 0.107551 0.029906 0.019018 0.028553 -0.005339 0.100574 0.082828 0.011563 -0.022872 -0.008070 0.036106 -0.081646 -0.031685 -0.054558 0.106084 0.003394 0.002039 -0.022969 -0.000036 0.005171 -0.069906 0.046625 -0.097018 0.040079 -0.031031 -0.188995 0.008138 0.150227 -0.091179 -0.001064 0.020132 -0.035000 0.014354 0.000313 0.031022 0.067499 -0.083000 -0.130251 -0.035684 -0.057984 0.011802 -0.026387 -0.077796 0.068080 0.051588 0.021602 -0.012038 0.001527 0.004726 0.031421
Kringel -0.028813 0.017474 -0.032738 -0.272673 0.077336 0.086161 -0.036056 0.006919 -0.001889 0.193950 0.008839 0.058596 0.042737 -0.055454 -0.027227 -0.142890 -0.026235 0.029871 0.109664 0.061319 0.003744 -0.047999 0.029299 -0.068025 -0.120530 0.071165 -0.080118 -0.078880 0.028032 0.049599 -0.124000 0.062912 0.068305 -0.014231 0.015153 -0.082952 -0.017835 0.101447 -0.043323 0.115178 -0.075636 -0.059534 -0.068883 0.122650 0.039150 -0.048077 0.003413 -0.035744 -0.186332 -0.051406 -0.007238 -0.025141 -0.053786 0.029297 0.003953 0.049275 -0.121379 0.024267 0.075725 0.034128 -0.107722 0.077645 -0.100319 0.037714 0.007697 -0.068574 0.029245 -0.142986 0.026302 -0.047235 0.055242 -0.016703 0.055249 -0.020716 0.053375 -0.069045 0.051836 0.034930 0.109230 0.029122 0.026484 0.025449 -0.004412 0.099135 0.080982 0.007938 -0.020815 -0.005237 0.041309 -0.084132 -0.028940 -0.057148 0.107442 0.003840 -0.001045 -0.027555 -0.001031 0.012301 -0.068259 0.048034 -0.101413 0.035956 -0.029201 -0.195204 0.009032 0.148218 -0.090028 -0.002736 0.018056 -0.040565 0.011065 0.008102 0.030477 0.068339 -0.078722 -0.133345 -0.036758 -0.065790 0.015126 -0.029168 -0.079942 0.063429 0.045734 0.026564 -0.011542 -0.004575 -0.000152 0.035119
Beescratch -0.031474 0.022605 -0.033072 -0.261045 0.079215 0.084546 -0.029485 0.008309 -0.003896 0.189920 0.012746 0.051032 0.045747 -0.053303 -0.022722 -0.139267 -0.019483 0.027215 0.098228 0.061435 0.001651 -0.052234 0.029186 -0.063960 -0.114992 0.067061 -0.072449 -0.080288 0.019401 0.044011 -0.119881 0.062746 0.063279 -0.011977 0.020010 -0.077406 -0.019628 0.092935 -0.040631 0.114444 -0.078367 -0.055972 -0.070673 0.122740 0.040388 -0.045354 0.002961 -0.040956 -0.178424 -0.049566 -0.006731 -0.021892 -0.048769 0.024455 -0.001219 0.043672 -0.116247 0.024671 0.071458 0.031888 -0.102320 0.075647 -0.094291 0.034795 0.002188 -0.066561 0.030350 -0.132223 0.028710 -0.048763 0.055522 -0.023145 0.059777 -0.019797 0.048911 -0.070117 0.049236 0.028719 0.101303 0.026722 0.019149 0.023323 -0.002801 0.103571 0.083188 0.003672 -0.021301 -0.006165 0.035346 -0.080215 -0.030969 -0.054811 0.107958 0.003062 -0.002683 -0.024722 -0.001693 0.011749 -0.064135 0.045557 -0.095682 0.042364 -0.034560 -0.188542 0.011377 0.144654 -0.084604 0.000265 0.018648 -0.040946 0.005985 0.006202 0.023515 0.066111 -0.076290 -0.126017 -0.040296 -0.060385 0.006891 -0.025573 -0.071736 0.063382 0.046284 0.023097 -0.004981 0.000056 0.002283 0.030654
Upbang -0.028507 0.029373 -0.029582 -0.292623 0.090307 0.089686 -0.035829 0.006061 -0.006142 0.215819 0.014672 0.062461 0.051185 -0.064005 -0.032395 -0.156417 -0.023221 0.027894 0.118000 0.073864 0.003947 -0.057827 0.026724 -0.079743 -0.127626 0.079816 -0.092521 -0.090741 0.023224 0.056723 -0.138349 0.078054 0.078916 -0.015474 0.019618 -0.087891 -0.024155 0.102234 -0.044061 0.131424 -0.087794 -0.068492 -0.080025 0.137675 0.040219 -0.049008 0.003802 -0.040890 -0.203194 -0.049285 -0.008109 -0.031100 -0.058678 0.031784 0.003907 0.048262 -0.134529 0.025615 0.079147 0.038348 -0.115587 0.086937 -0.107613 0.043728 0.002311 -0.072814 0.031538 -0.155073 0.031610 -0.059687 0.056278 -0.023842 0.060166 -0.019447 0.054956 -0.078789 0.050816 0.034223 0.117634 0.026715 0.021057 0.025851 -0.001200 0.115197 0.092998 0.009001 -0.026009 -0.011105 0.045791 -0.091563 -0.034082 -0.067843 0.123841 0.005679 -0.005746 -0.033061 -0.002335 0.006554 -0.079981 0.053285 -0.111823 0.047243 -0.032125 -0.216537 0.017025 0.161808 -0.100523 -0.000319 0.021540 -0.047937 0.010571 0.008765 0.035165 0.069434 -0.092917 -0.145773 -0.045933 -0.070286 0.008580 -0.027428 -0.087176 0.069350 0.055229 0.026745 -0.012332 0.004833 0.006402 0.037717
Stripes -0.033014 0.025385 -0.037557 -0.311900 0.089867 0.100584 -0.037103 0.008746 -0.009133 0.225890 0.008432 0.068267 0.047981 -0.069835 -0.026700 -0.161285 -0.027887 0.038471 0.122355 0.073434 0.009003 -0.054816 0.024841 -0.082522 -0.130496 0.081960 -0.088768 -0.097012 0.034523 0.059274 -0.138869 0.077743 0.075460 -0.018351 0.016266 -0.090407 -0.022011 0.109097 -0.047370 0.133897 -0.084233 -0.063722 -0.082665 0.143303 0.040714 -0.051208 -0.001300 -0.045104 -0.206816 -0.061314 -0.004367 -0.028446 -0.059840 0.034780 0.004118 0.054286 -0.136093 0.030609 0.084812 0.039463 -0.116749 0.088767 -0.113399 0.042500 0.004214 -0.075075 0.031508 -0.159030 0.030022 -0.053470 0.061898 -0.024314 0.068244 -0.023370 0.058468 -0.078001 0.051492 0.039195 0.121548 0.033905 0.032498 0.028682 -0.003923 0.122026 0.095948 0.005540 -0.027978 -0.008146 0.040433 -0.098805 -0.033034 -0.068350 0.121080 0.000141 0.000118 -0.034985 0.002798 0.009272 -0.074463 0.055922 -0.117159 0.042680 -0.038759 -0.221542 0.015478 0.172247 -0.106876 0.000197 0.020847 -0.050337 0.011012 0.000947 0.031795 0.078994 -0.091446 -0.146658 -0.043910 -0.066119 0.008777 -0.031454 -0.088997 0.073039 0.051383 0.025239 -0.006997 -0.001126 0.007763 0.039190
SN100 -0.038764 0.024432 -0.037685 -0.319813 0.094737 0.103783 -0.035787 0.009684 -0.003421 0.231698 0.008527 0.064210 0.046520 -0.069247 -0.033222 -0.166011 -0.025017 0.033192 0.126255 0.074724 0.002602 -0.063133 0.030313 -0.085894 -0.139204 0.083988 -0.092379 -0.100477 0.034368 0.059279 -0.150146 0.079157 0.080961 -0.016326 0.023984 -0.094439 -0.027347 0.112109 -0.050567 0.136465 -0.093136 -0.067855 -0.088071 0.150285 0.043752 -0.052867 -0.001575 -0.044063 -0.214541 -0.059727 -0.007746 -0.031725 -0.060627 0.033596 -0.002244 0.059037 -0.144803 0.037516 0.086882 0.038456 -0.119948 0.093107 -0.118810 0.048654 0.007922 -0.076623 0.036405 -0.160636 0.036643 -0.053983 0.064755 -0.021698 0.070619 -0.022070 0.061805 -0.083030 0.059606 0.038103 0.124573 0.034268 0.030634 0.031457 -0.001409 0.118338 0.096432 0.001675 -0.027138 -0.008448 0.049049 -0.101591 -0.035261 -0.064740 0.125525 0.008473 0.001983 -0.036428 -0.003978 0.012312 -0.085069 0.053126 -0.113515 0.041825 -0.034232 -0.229711 0.014652 0.173468 -0.108236 -0.002030 0.019426 -0.048134 0.005904 0.005849 0.030849 0.079017 -0.092261 -0.154332 -0.044529 -0.074859 0.017370 -0.034988 -0.091574 0.081272 0.058241 0.029632 -0.006530 -0.001262 0.000696 0.037871
DN21 -0.030738 0.023951 -0.030510 -0.254351 0.078026 0.078226 -0.032373 0.007211 -0.008327 0.185458 0.008156 0.055196 0.038928 -0.054517 -0.028595 -0.136155 -0.019177 0.026468 0.099504 0.063765 0.005701 -0.049320 0.030229 -0.065981 -0.110498 0.067338 -0.081825 -0.074893 0.021016 0.047317 -0.123113 0.062179 0.069310 -0.016790 0.019531 -0.075589 -0.020166 0.090550 -0.036502 0.113094 -0.078713 -0.053792 -0.067714 0.118054 0.033611 -0.042910 -0.001126 -0.037448 -0.176791 -0.042270 -0.002623 -0.026044 -0.045499 0.030105 -0.001691 0.044667 -0.112751 0.023697 0.069957 0.036594 -0.097790 0.077852 -0.097007 0.039233 0.007153 -0.064615 0.021144 -0.135009 0.028087 -0.049727 0.048023 -0.024346 0.057452 -0.014673 0.047277 -0.065180 0.049101 0.027364 0.106410 0.027895 0.018250 0.028243 -0.000244 0.101706 0.078896 0.009836 -0.020559 -0.012047 0.033716 -0.084552 -0.026991 -0.057487 0.108397 0.008291 0.000216 -0.028179 -0.002286 0.005453 -0.063396 0.047351 -0.097717 0.037695 -0.032801 -0.188559 0.010841 0.146412 -0.091005 -0.003633 0.019757 -0.039563 0.006143 0.001800 0.030048 0.067933 -0.081059 -0.127328 -0.036775 -0.063872 0.009814 -0.030370 -0.078637 0.065767 0.046176 0.024666 -0.013434 0.000013 0.007434 0.035934
SN9 -0.031288 0.016100 -0.027967 -0.255311 0.075189 0.079463 -0.033710 0.009776 -0.004865 0.187149 0.011635 0.055957 0.036694 -0.054858 -0.022294 -0.134869 -0.020105 0.031180 0.100616 0.063259 0.005085 -0.048161 0.023945 -0.069675 -0.106057 0.067887 -0.073387 -0.075872 0.021044 0.044911 -0.117071 0.059301 0.061484 -0.013893 0.012546 -0.074021 -0.015970 0.095175 -0.041154 0.106909 -0.076137 -0.056550 -0.068396 0.122366 0.036675 -0.043898 -0.003299 -0.035879 -0.167329 -0.043096 -0.003891 -0.026200 -0.045824 0.023605 0.004005 0.047231 -0.109329 0.030495 0.066991 0.033171 -0.097241 0.076312 -0.089657 0.037966 0.005870 -0.062166 0.029312 -0.127137 0.027504 -0.042679 0.047473 -0.017787 0.055339 -0.013341 0.046670 -0.070122 0.047356 0.027856 0.099173 0.025062 0.019837 0.024373 -0.001551 0.098489 0.074473 0.001464 -0.020448 -0.006678 0.039472 -0.075740 -0.028666 -0.053415 0.098953 0.005390 -0.003102 -0.025141 -0.000208 0.012518 -0.068185 0.044745 -0.094080 0.035391 -0.030393 -0.177507 0.012108 0.142280 -0.087011 0.000352 0.012463 -0.039420 0.004962 0.005963 0.028740 0.065193 -0.073747 -0.123126 -0.033482 -0.053729 0.009398 -0.023342 -0.073083 0.060113 0.048050 0.022982 -0.008652 0.003420 0.007785 0.032906
DN16 -0.023334 0.018395 -0.027903 -0.232844 0.068405 0.068411 -0.033542 0.008971 -0.004117 0.170134 0.010266 0.050458 0.038899 -0.051460 -0.026366 -0.123906 -0.017802 0.021039 0.085954 0.057816 -0.000672 -0.041721 0.023408 -0.063438 -0.098715 0.059113 -0.069340 -0.067843 0.017503 0.042254 -0.110963 0.062034 0.063982 -0.015106 0.015217 -0.069203 -0.019491 0.082314 -0.032632 0.101082 -0.071466 -0.055214 -0.062452 0.105489 0.031925 -0.040398 0.001071 -0.033543 -0.159996 -0.039641 -0.001158 -0.025022 -0.042103 0.024447 0.001964 0.042699 -0.105418 0.022487 0.058032 0.027925 -0.087223 0.070129 -0.086645 0.031180 0.001425 -0.052847 0.023601 -0.122919 0.027804 -0.046160 0.044746 -0.019555 0.051292 -0.011871 0.042284 -0.057126 0.040412 0.029447 0.090283 0.023086 0.014765 0.025563 -0.001567 0.093264 0.072740 0.009192 -0.019300 -0.008961 0.034090 -0.073497 -0.023649 -0.053575 0.092682 0.007640 -0.001818 -0.020212 -0.000356 0.004527 -0.062581 0.043743 -0.085332 0.036377 -0.030814 -0.165902 0.010180 0.128427 -0.081715 -0.005198 0.015861 -0.035311 0.012503 0.000880 0.025347 0.061359 -0.075097 -0.112532 -0.034471 -0.050916 0.012915 -0.027114 -0.070909 0.052802 0.039629 0.020890 -0.011604 0.000386 0.002668 0.032124
MN105 -0.031813 0.015972 -0.027421 -0.257006 0.075766 0.082836 -0.028595 0.005401 -0.007284 0.186672 0.007249 0.054322 0.042249 -0.057709 -0.023828 -0.135348 -0.019713 0.026110 0.102843 0.060666 0.001512 -0.048678 0.027984 -0.069959 -0.108751 0.064570 -0.072870 -0.076601 0.022231 0.044324 -0.119944 0.065624 0.068230 -0.018046 0.017900 -0.073319 -0.014588 0.088998 -0.037624 0.107217 -0.071219 -0.058540 -0.069090 0.117121 0.033467 -0.040244 0.001905 -0.033239 -0.176460 -0.047560 -0.008110 -0.026520 -0.049865 0.028328 -0.000637 0.045222 -0.116713 0.030730 0.069163 0.031940 -0.098626 0.075250 -0.096954 0.037639 0.005398 -0.058882 0.026707 -0.133896 0.025033 -0.047989 0.053121 -0.017084 0.050805 -0.015164 0.044317 -0.072033 0.042184 0.035252 0.098197 0.024370 0.026515 0.027382 -0.001402 0.101358 0.078429 0.007803 -0.023878 -0.009960 0.036337 -0.083324 -0.029274 -0.055762 0.107389 0.003124 0.002356 -0.028265 -0.000523 0.013239 -0.064369 0.045833 -0.097239 0.041912 -0.029965 -0.187379 0.015398 0.139024 -0.082817 -0.003704 0.013554 -0.036195 0.005177 0.004972 0.030453 0.065294 -0.073981 -0.127845 -0.033903 -0.058795 0.009958 -0.028769 -0.077954 0.063205 0.042308 0.022159 -0.010037 -0.002427 0.006010 0.030315
Thumper -0.026063 0.012117 -0.021085 -0.217852 0.060552 0.065690 -0.027922 0.003574 -0.006943 0.156988 0.006445 0.042458 0.030918 -0.047217 -0.019593 -0.112552 -0.018102 0.027733 0.087772 0.053356 0.001000 -0.039044 0.020491 -0.059000 -0.093391 0.051664 -0.058664 -0.063486 0.023974 0.036333 -0.100446 0.056046 0.055029 -0.012404 0.009737 -0.060496 -0.019795 0.078537 -0.039544 0.096749 -0.061415 -0.046287 -0.058031 0.105258 0.033074 -0.032807 0.003127 -0.033460 -0.148097 -0.040876 -0.004213 -0.018773 -0.040501 0.017769 0.004690 0.041480 -0.099802 0.022638 0.058502 0.030623 -0.086934 0.060417 -0.080439 0.034361 0.005912 -0.054528 0.021187 -0.116958 0.024599 -0.039148 0.043069 -0.018588 0.045529 -0.013951 0.043835 -0.059031 0.038096 0.027222 0.088915 0.018901 0.022766 0.021909 -0.003566 0.085815 0.067919 0.004329 -0.019637 -0.004334 0.034896 -0.071845 -0.027250 -0.046216 0.092757 0.000527 0.001028 -0.023815 -0.002356 0.006143 -0.059123 0.038487 -0.082757 0.034669 -0.022995 -0.158616 0.007866 0.119302 -0.069171 -0.005950 0.012308 -0.030275 0.010381 0.000382 0.022642 0.056356 -0.069880 -0.103896 -0.033221 -0.052603 0.007391 -0.024746 -0.067506 0.054776 0.040004 0.019368 -0.007034 -0.000065 0.000983 0.027973
SN96 -0.027835 0.019906 -0.028994 -0.235129 0.062972 0.071057 -0.028048 0.005903 -0.006141 0.162964 0.005703 0.050703 0.034235 -0.045590 -0.024831 -0.119955 -0.018486 0.025112 0.090377 0.057303 0.007829 -0.041621 0.024816 -0.056980 -0.098234 0.055890 -0.063083 -0.068533 0.023474 0.042986 -0.108629 0.058484 0.061131 -0.014464 0.015138 -0.070369 -0.016738 0.087258 -0.038579 0.102552 -0.070355 -0.053671 -0.062723 0.108774 0.033080 -0.037932 -0.002303 -0.037172 -0.159643 -0.041259 -0.001366 -0.022142 -0.040741 0.023972 -0.000564 0.043600 -0.100171 0.022882 0.060839 0.032011 -0.087701 0.068867 -0.081144 0.031411 0.007106 -0.058104 0.023620 -0.120200 0.022474 -0.043385 0.046132 -0.021422 0.044445 -0.018897 0.047285 -0.065803 0.043123 0.027085 0.091820 0.018713 0.016286 0.017280 -0.003369 0.089550 0.072567 0.000719 -0.024257 -0.006243 0.037457 -0.073961 -0.023396 -0.053273 0.097130 0.001516 0.000975 -0.026453 0.000690 0.012529 -0.056502 0.039786 -0.080681 0.034383 -0.023011 -0.162107 0.013108 0.124928 -0.077991 -0.005737 0.015560 -0.039166 0.002584 0.006452 0.025458 0.057376 -0.068555 -0.113259 -0.029777 -0.054590 0.014143 -0.023328 -0.066761 0.057614 0.039928 0.022126 -0.009123 -0.004192 0.004211 0.024370
Jonah -0.026450 0.020493 -0.025407 -0.249128 0.077308 0.080112 -0.027449 0.005978 -0.007413 0.184470 0.010026 0.048839 0.036517 -0.051116 -0.027583 -0.132722 -0.021093 0.028458 0.102599 0.063209 0.001966 -0.043088 0.021428 -0.067805 -0.110855 0.061408 -0.070973 -0.077280 0.022232 0.048629 -0.115732 0.062660 0.062003 -0.016444 0.014144 -0.074812 -0.017258 0.087665 -0.037147 0.107970 -0.074528 -0.054152 -0.069589 0.116452 0.038981 -0.043547 0.001888 -0.034498 -0.173826 -0.048015 -0.009072 -0.022324 -0.044881 0.025635 0.001122 0.046707 -0.109506 0.023362 0.066804 0.034510 -0.099877 0.074786 -0.095529 0.034545 0.001521 -0.057732 0.025449 -0.130816 0.031225 -0.046484 0.046230 -0.022438 0.052427 -0.017227 0.046790 -0.064386 0.042761 0.032912 0.098518 0.022936 0.022101 0.022012 -0.000181 0.099966 0.073438 0.001607 -0.023358 -0.005972 0.037443 -0.079815 -0.028667 -0.056908 0.104095 0.001029 0.002497 -0.030661 0.001901 0.013664 -0.061791 0.039986 -0.091123 0.040479 -0.028574 -0.176149 0.010648 0.141074 -0.086069 -0.003129 0.018272 -0.035354 0.011233 0.006867 0.029485 0.058314 -0.072710 -0.117739 -0.032500 -0.054280 0.011004 -0.027626 -0.072950 0.060257 0.045688 0.021073 -0.005319 -0.001204 0.007304 0.025736
Hook -0.022094 0.012139 -0.018083 -0.176386 0.055591 0.058938 -0.022280 0.001084 -0.000007 0.132527 0.004889 0.038486 0.026320 -0.038287 -0.017898 -0.094491 -0.016812 0.023455 0.072935 0.040657 0.006948 -0.033886 0.014776 -0.048069 -0.074081 0.046546 -0.054239 -0.050934 0.020834 0.029846 -0.079779 0.041600 0.042496 -0.014213 0.011433 -0.056253 -0.015704 0.069140 -0.031430 0.074703 -0.053693 -0.035331 -0.048745 0.084711 0.028170 -0.031667 0.001587 -0.030028 -0.124675 -0.035331 -0.005248 -0.015372 -0.034340 0.018408 -0.002368 0.036867 -0.077197 0.017375 0.048667 0.019646 -0.071961 0.047996 -0.065759 0.027560 0.000023 -0.048056 0.018119 -0.090570 0.021388 -0.028285 0.031465 -0.010159 0.033667 -0.015461 0.032771 -0.051086 0.030745 0.018226 0.070734 0.016772 0.018021 0.017200 -0.000406 0.066002 0.058122 0.003668 -0.014467 -0.006711 0.022142 -0.058331 -0.020426 -0.037724 0.071446 0.005659 -0.001761 -0.022434 0.000097 0.007477 -0.045695 0.029628 -0.070368 0.023868 -0.018739 -0.132004 0.011937 0.101521 -0.056663 -0.004493 0.010695 -0.030095 0.003517 0.001719 0.018505 0.043096 -0.050896 -0.088948 -0.022020 -0.042940 0.006679 -0.017659 -0.051547 0.045809 0.035138 0.012123 -0.002469 -0.003630 -0.000386 0.024357
PL -0.027750 0.017683 -0.030215 -0.266673 0.077434 0.086429 -0.036396 0.008519 -0.003265 0.188130 0.012178 0.054503 0.043120 -0.059098 -0.024857 -0.139628 -0.024585 0.028973 0.101718 0.061599 0.005329 -0.049751 0.025844 -0.069323 -0.116869 0.072525 -0.080190 -0.084267 0.020865 0.044333 -0.127196 0.068171 0.070748 -0.013836 0.018364 -0.081228 -0.016865 0.096394 -0.041862 0.117921 -0.075145 -0.056263 -0.073211 0.121421 0.033391 -0.045894 -0.004342 -0.040050 -0.178895 -0.047253 -0.002520 -0.023592 -0.046052 0.027957 -0.002041 0.045876 -0.118670 0.029664 0.070432 0.037439 -0.100599 0.076687 -0.097935 0.040711 0.003766 -0.068311 0.029604 -0.138552 0.028501 -0.051215 0.056010 -0.022538 0.058280 -0.018746 0.050954 -0.069172 0.046070 0.028948 0.103952 0.024559 0.026865 0.021499 -0.001702 0.104120 0.082024 0.005521 -0.025619 -0.007255 0.039377 -0.082387 -0.024921 -0.056154 0.106897 0.002604 -0.000452 -0.031696 0.002345 0.009483 -0.063734 0.049556 -0.093138 0.035441 -0.031635 -0.194246 0.013640 0.149811 -0.091575 -0.000049 0.013500 -0.043365 0.008363 0.008974 0.030535 0.061035 -0.080949 -0.126993 -0.036786 -0.063729 0.011028 -0.026166 -0.076502 0.068834 0.045102 0.024861 -0.007044 0.000881 -0.000000 0.029302
Bumper -0.024947 0.016406 -0.027963 -0.235782 0.064946 0.070545 -0.032653 0.006698 -0.007387 0.169531 0.005725 0.049169 0.039651 -0.047367 -0.023319 -0.117259 -0.019778 0.029798 0.093369 0.058280 0.001992 -0.046790 0.019703 -0.063544 -0.103669 0.061821 -0.066131 -0.072554 0.022055 0.042881 -0.105807 0.057609 0.063592 -0.016274 0.012599 -0.066526 -0.015263 0.086430 -0.039144 0.096766 -0.067199 -0.053020 -0.065141 0.108390 0.030205 -0.038959 0.002060 -0.029345 -0.155943 -0.045185 -0.001791 -0.024553 -0.046486 0.019160 0.003104 0.037208 -0.106402 0.021160 0.059603 0.026901 -0.087190 0.065917 -0.083212 0.028919 0.000788 -0.052970 0.025308 -0.124416 0.023087 -0.043736 0.047448 -0.017453 0.047800 -0.014968 0.046041 -0.061407 0.037740 0.029577 0.095996 0.019244 0.017679 0.019890 -0.005678 0.092894 0.075625 0.001984 -0.024031 -0.005149 0.037805 -0.072356 -0.020936 -0.050320 0.095267 0.000878 0.001009 -0.027302 -0.002883 0.012452 -0.054772 0.039934 -0.084990 0.035038 -0.027738 -0.168620 0.005977 0.129892 -0.081291 -0.002067 0.017025 -0.034934 0.003380 0.006327 0.024178 0.054485 -0.074728 -0.114170 -0.032196 -0.054685 0.013506 -0.018955 -0.064694 0.053736 0.043577 0.022814 -0.004282 0.004175 0.007399 0.031051
Number1 -0.024749 0.024743 -0.032243 -0.265815 0.077983 0.082635 -0.035337 0.007278 -0.004428 0.190080 0.009180 0.053735 0.046962 -0.057283 -0.022639 -0.141226 -0.024255 0.026922 0.107597 0.063788 0.007179 -0.054567 0.028027 -0.071930 -0.117848 0.068583 -0.076147 -0.083943 0.023920 0.051197 -0.126330 0.064964 0.061651 -0.018057 0.021982 -0.080001 -0.014993 0.091364 -0.042401 0.118846 -0.075583 -0.053607 -0.065954 0.123578 0.038798 -0.041083 0.000152 -0.041085 -0.181627 -0.049074 -0.007720 -0.028320 -0.047676 0.023330 0.000809 0.045326 -0.119863 0.023612 0.068721 0.031456 -0.101653 0.073573 -0.097213 0.035766 0.004905 -0.064498 0.028362 -0.141066 0.032994 -0.046814 0.057768 -0.022424 0.060198 -0.017355 0.044742 -0.073447 0.051242 0.028165 0.105880 0.025897 0.018466 0.022323 -0.004394 0.105555 0.079724 0.002867 -0.027783 -0.011762 0.037283 -0.086103 -0.030390 -0.060250 0.110721 0.006623 0.001768 -0.026823 -0.001856 0.010816 -0.069223 0.040721 -0.099602 0.044811 -0.033233 -0.187667 0.013890 0.150774 -0.094809 0.000572 0.016906 -0.042447 0.008660 0.005122 0.025454 0.063255 -0.083041 -0.123472 -0.037690 -0.065385 0.007411 -0.025790 -0.079427 0.067210 0.048218 0.025392 -0.005906 -0.003800 0.000991 0.030020
Double -0.031724 0.023434 -0.033721 -0.257975 0.075045 0.084251 -0.028959 0.003689 -0.002999 0.191902 0.007157 0.054783 0.041399 -0.059269 -0.023578 -0.138760 -0.025410 0.026960 0.104781 0.063579 0.003790 -0.052301 0.024982 -0.071474 -0.116244 0.070474 -0.077951 -0.080891 0.024003 0.049978 -0.125129 0.066493 0.063905 -0.015410 0.015599 -0.081340 -0.022371 0.098395 -0.039488 0.111352 -0.078938 -0.058943 -0.065814 0.123067 0.033325 -0.047254 -0.001165 -0.035281 -0.179821 -0.044188 -0.004369 -0.021488 -0.048273 0.024529 -0.001945 0.046396 -0.112776 0.028221 0.074115 0.034987 -0.103146 0.075370 -0.093422 0.039379 0.001646 -0.062941 0.026423 -0.133006 0.030789 -0.048769 0.052199 -0.020135 0.054159 -0.014997 0.045046 -0.074352 0.045540 0.030683 0.101886 0.026948 0.024411 0.026922 -0.007271 0.103237 0.083203 0.000744 -0.020724 -0.007986 0.040505 -0.080981 -0.028800 -0.055743 0.103554 0.003754 0.002835 -0.026085 -0.004277 0.009201 -0.070616 0.046946 -0.092197 0.034647 -0.032371 -0.184995 0.013174 0.147022 -0.089555 -0.003642 0.018567 -0.035711 0.006782 0.002603 0.023411 0.066273 -0.081570 -0.125715 -0.035418 -0.059339 0.014365 -0.023165 -0.075993 0.068178 0.050598 0.024325 -0.004890 -0.004555 0.006884 0.033982
Shmuddel -0.030343 0.017562 -0.032452 -0.290151 0.087243 0.094365 -0.037057 0.003873 -0.005613 0.214700 0.006852 0.058083 0.048574 -0.060177 -0.024371 -0.148749 -0.022330 0.034550 0.120077 0.067636 0.007089 -0.054046 0.023584 -0.076449 -0.123716 0.072921 -0.085278 -0.090105 0.030301 0.053228 -0.136485 0.071125 0.077800 -0.018388 0.016059 -0.089657 -0.024823 0.102882 -0.050168 0.126773 -0.080563 -0.061224 -0.081192 0.136268 0.037637 -0.050428 0.002742 -0.043231 -0.196523 -0.058074 -0.008712 -0.027803 -0.058458 0.028059 0.000537 0.049518 -0.129395 0.034429 0.082588 0.041101 -0.109469 0.079687 -0.104125 0.042163 0.008743 -0.074090 0.030257 -0.148893 0.028863 -0.049059 0.054490 -0.024881 0.060497 -0.018355 0.052732 -0.079315 0.052697 0.032719 0.114518 0.031289 0.030702 0.030646 -0.000559 0.114300 0.091262 0.004304 -0.031015 -0.012533 0.044718 -0.092442 -0.034061 -0.063414 0.116336 0.006485 0.004736 -0.033977 0.002818 0.010320 -0.073481 0.052773 -0.111618 0.041712 -0.038327 -0.211675 0.010936 0.157518 -0.102386 -0.006485 0.017552 -0.049359 0.005792 0.002027 0.034693 0.070986 -0.087096 -0.138518 -0.039530 -0.066700 0.010535 -0.025896 -0.088857 0.072774 0.055982 0.025283 -0.011445 0.000717 0.006135 0.040789
Haecksel -0.026848 0.019764 -0.023594 -0.222259 0.062739 0.071067 -0.026112 0.005732 -0.003454 0.155927 0.007132 0.047644 0.037881 -0.049561 -0.018420 -0.109528 -0.017080 0.027018 0.088512 0.056091 0.005427 -0.040019 0.022341 -0.054204 -0.098890 0.056845 -0.062061 -0.070538 0.024791 0.043528 -0.104274 0.058401 0.051374 -0.015819 0.015424 -0.062607 -0.017571 0.080978 -0.038975 0.090854 -0.063885 -0.044594 -0.058271 0.105276 0.033728 -0.040211 0.000924 -0.032681 -0.146335 -0.039052 -0.001336 -0.021536 -0.042042 0.021026 0.001290 0.040704 -0.100809 0.024599 0.056007 0.027398 -0.086068 0.064092 -0.078449 0.032150 0.001954 -0.056783 0.019806 -0.110769 0.024257 -0.040021 0.046401 -0.019429 0.044119 -0.017523 0.040007 -0.063020 0.038014 0.027071 0.088272 0.023936 0.018718 0.022851 -0.004018 0.083002 0.063816 0.003318 -0.022196 -0.008290 0.034527 -0.069714 -0.026884 -0.051047 0.092936 0.000673 0.002830 -0.023063 -0.000424 0.008414 -0.060112 0.036375 -0.077816 0.029408 -0.024565 -0.159566 0.013036 0.120160 -0.076952 -0.001030 0.012358 -0.031154 0.009452 0.007508 0.021832 0.054633 -0.067995 -0.109515 -0.027890 -0.051748 0.008124 -0.025281 -0.065216 0.056665 0.041886 0.014691 -0.009112 0.003291 0.002198 0.023308
TR99 -0.020767 0.013558 -0.026632 -0.216286 0.063020 0.071439 -0.023297 0.003584 -0.000728 0.151190 0.009229 0.047822 0.033745 -0.044695 -0.017165 -0.107806 -0.016615 0.023067 0.084460 0.054439 0.003187 -0.038997 0.017591 -0.053001 -0.092688 0.053462 -0.063070 -0.062371 0.017624 0.042203 -0.101027 0.050216 0.055601 -0.013697 0.013591 -0.067238 -0.012448 0.079534 -0.036024 0.093009 -0.061360 -0.047075 -0.054236 0.097762 0.027817 -0.036777 -0.003063 -0.027251 -0.148049 -0.040009 -0.003300 -0.021001 -0.040292 0.021124 -0.002315 0.040140 -0.097191 0.018722 0.055005 0.031034 -0.085696 0.061463 -0.082297 0.028672 0.002379 -0.051952 0.021974 -0.110721 0.020132 -0.041827 0.044498 -0.016485 0.043122 -0.013583 0.041922 -0.059130 0.034980 0.029382 0.088267 0.021386 0.018706 0.021814 -0.000307 0.080796 0.067942 0.000049 -0.020049 -0.003728 0.027172 -0.066363 -0.024592 -0.042907 0.086674 0.000110 0.000085 -0.022253 0.002430 0.008705 -0.053156 0.040943 -0.075358 0.028683 -0.024276 -0.157220 0.008167 0.116040 -0.074604 0.000198 0.013180 -0.028763 0.008974 0.007224 0.022420 0.049488 -0.061219 -0.105853 -0.028618 -0.045960 0.010158 -0.022700 -0.058479 0.053917 0.034867 0.015559 -0.008102 -0.004453 0.006546 0.025026
MN83 -0.021485 0.016324 -0.018759 -0.182219 0.050761 0.057553 -0.022980 0.002293 -0.003181 0.138396 0.008790 0.041171 0.029200 -0.036250 -0.021259 -0.097750 -0.018189 0.020673 0.076878 0.047607 0.005382 -0.032677 0.014616 -0.051302 -0.083768 0.046465 -0.054516 -0.059538 0.019886 0.032652 -0.089869 0.048271 0.050970 -0.006820 0.010725 -0.051489 -0.010708 0.067141 -0.031386 0.080557 -0.056177 -0.038271 -0.053349 0.086548 0.030548 -0.029642 -0.003113 -0.025704 -0.129575 -0.034860 -0.002220 -0.013543 -0.032218 0.021763 -0.000458 0.031702 -0.087111 0.022375 0.046968 0.022489 -0.068209 0.057400 -0.070507 0.030415 0.004385 -0.047620 0.022836 -0.095830 0.023851 -0.036505 0.038021 -0.017810 0.036430 -0.011455 0.031872 -0.053011 0.036268 0.021535 0.073149 0.022266 0.015873 0.014937 -0.005463 0.074357 0.055579 0.001631 -0.014570 -0.009169 0.026983 -0.054571 -0.020273 -0.038515 0.078894 0.006472 -0.001739 -0.024203 -0.002260 0.010405 -0.049150 0.030452 -0.069994 0.026772 -0.023446 -0.131873 0.007854 0.103382 -0.063779 -0.000226 0.012096 -0.028313 0.008666 0.002146 0.017309 0.046170 -0.056026 -0.093029 -0.028436 -0.040713 0.009551 -0.016618 -0.050289 0.049323 0.031437 0.013176 -0.006598 -0.003796 0.002890 0.020247
Zap -0.032932 0.017228 -0.030797 -0.254791 0.071285 0.084364 -0.027461 0.006383 -0.001173 0.186932 0.004508 0.052096 0.035542 -0.050850 -0.022775 -0.130317 -0.025984 0.031576 0.104398 0.061804 0.002914 -0.046986 0.022474 -0.066203 -0.111550 0.063237 -0.078523 -0.079676 0.023409 0.041927 -0.116902 0.065280 0.062578 -0.015538 0.014418 -0.075216 -0.023681 0.092924 -0.039762 0.110287 -0.077339 -0.051130 -0.065901 0.123189 0.035176 -0.047265 0.003824 -0.033988 -0.174184 -0.043859 -0.008501 -0.020164 -0.045004 0.030487 0.003281 0.048531 -0.116503 0.027920 0.069841 0.033444 -0.100104 0.072335 -0.093429 0.034071 0.001838 -0.059374 0.029705 -0.129612 0.025149 -0.049438 0.046409 -0.017341 0.055474 -0.017183 0.044647 -0.065638 0.048811 0.034497 0.105447 0.027189 0.024326 0.027007 -0.007603 0.100506 0.078694 0.002208 -0.022802 -0.011312 0.038163 -0.084140 -0.026918 -0.052505 0.101027 0.001737 -0.003357 -0.029838 0.001206 0.011651 -0.066223 0.040522 -0.090795 0.033541 -0.028460 -0.178548 0.012410 0.145483 -0.088045 -0.003661 0.014479 -0.034154 0.006370 0.000229 0.023859 0.061326 -0.074632 -0.125484 -0.036232 -0.062400 0.009348 -0.024448 -0.077237 0.061934 0.048815 0.021044 -0.010923 -0.000090 0.005180 0.027487
SN90 -0.013014 0.015542 -0.014738 -0.150549 0.046473 0.050304 -0.023957 0.003656 -0.004077 0.114359 0.004205 0.032989 0.025842 -0.034621 -0.017847 -0.080070 -0.011626 0.012663 0.058246 0.039034 -0.002476 -0.031889 0.018058 -0.037635 -0.068431 0.043472 -0.049612 -0.048052 0.012848 0.029712 -0.072221 0.041010 0.043347 -0.005490 0.012387 -0.043456 -0.012612 0.057999 -0.021366 0.067649 -0.044176 -0.034073 -0.043408 0.068164 0.020655 -0.024397 -0.000406 -0.024583 -0.103241 -0.025295 -0.005186 -0.012775 -0.030396 0.019540 0.001749 0.029462 -0.070038 0.012632 0.037369 0.018120 -0.060431 0.045473 -0.052562 0.020900 0.002586 -0.033925 0.011604 -0.078860 0.014249 -0.032971 0.033573 -0.013881 0.036054 -0.010885 0.030838 -0.042205 0.030993 0.018794 0.062473 0.018899 0.011560 0.016086 0.002400 0.063413 0.046135 0.006757 -0.014616 -0.004466 0.020264 -0.050851 -0.016590 -0.037457 0.062504 0.005055 0.000423 -0.013515 -0.000499 0.008500 -0.040918 0.028881 -0.058350 0.025373 -0.014748 -0.111297 0.008153 0.089616 -0.055577 -0.000910 0.008829 -0.020437 0.008786 0.003769 0.016289 0.034952 -0.049626 -0.072072 -0.025468 -0.033195 0.007237 -0.014308 -0.048897 0.039841 0.030874 0.014987 -0.004608 0.002620 -0.001433 0.022546
Knit -0.027027 0.024989 -0.026115 -0.246457 0.072062 0.078871 -0.028849 0.007012 -0.004731 0.174145 0.008270 0.052988 0.040218 -0.056183 -0.027392 -0.128927 -0.016917 0.022378 0.090720 0.058356 0.003480 -0.047894 0.024973 -0.060643 -0.109081 0.066353 -0.072488 -0.079126 0.025716 0.043575 -0.115045 0.060891 0.064748 -0.011440 0.017395 -0.074030 -0.019534 0.088507 -0.039025 0.102643 -0.073280 -0.053266 -0.064759 0.116648 0.038202 -0.043277 -0.005101 -0.035162 -0.169100 -0.043126 -0.005867 -0.023087 -0.047531 0.028705 -0.003468 0.044936 -0.111520 0.024993 0.061669 0.030323 -0.089376 0.074145 -0.090922 0.036187 0.007621 -0.062900 0.027201 -0.128309 0.023490 -0.044482 0.049995 -0.014733 0.050094 -0.019561 0.044238 -0.063672 0.044761 0.024535 0.094447 0.025599 0.019368 0.025342 -0.002913 0.093773 0.077094 0.003458 -0.025892 -0.006776 0.033521 -0.077271 -0.024313 -0.055058 0.103364 0.003898 -0.003944 -0.024779 -0.002847 0.008187 -0.063645 0.044923 -0.086586 0.033811 -0.029539 -0.175552 0.009196 0.132448 -0.082610 0.001974 0.011361 -0.042114 0.005065 0.004721 0.021665 0.062619 -0.073748 -0.116225 -0.031517 -0.060347 0.010858 -0.024561 -0.075412 0.060012 0.045181 0.017745 -0.008840 0.003361 0.005977 0.030703
TSN103 -0.022713 0.013249 -0.024697 -0.211837 0.059595 0.070374 -0.022690 0.006372 -0.001643 0.154127 0.004616 0.044023 0.036558 -0.043100 -0.017860 -0.107737 -0.017681 0.022667 0.083346 0.049027 0.006050 -0.042911 0.024123 -0.055582 -0.091981 0.052938 -0.057898 -0.063117 0.019277 0.041580 -0.098553 0.053656 0.056621 -0.015657 0.013777 -0.063481 -0.019553 0.078345 -0.032676 0.087284 -0.058842 -0.045257 -0.053490 0.098768 0.031346 -0.031754 -0.002478 -0.030050 -0.143701 -0.040887 -0.005596 -0.016345 -0.037144 0.022593 0.003595 0.035513 -0.097865 0.020745 0.057015 0.029737 -0.080991 0.061765 -0.080134 0.033365 0.006981 -0.051785 0.022578 -0.106789 0.022852 -0.039294 0.038468 -0.013361 0.047840 -0.014310 0.040849 -0.054467 0.039253 0.026472 0.085506 0.020421 0.017438 0.021094 -0.005129 0.078847 0.065822 0.002722 -0.023866 -0.004315 0.031133 -0.065626 -0.021989 -0.044443 0.089590 0.002515 -0.002831 -0.027347 0.000950 0.010953 -0.056593 0.034547 -0.074304 0.029395 -0.027871 -0.152699 0.006821 0.120794 -0.070690 -0.005771 0.011433 -0.035173 0.004322 0.004604 0.018500 0.054764 -0.068277 -0.099289 -0.028578 -0.045396 0.004708 -0.021247 -0.064889 0.050381 0.040504 0.014470 -0.006544 -0.001403 0.006022 0.029162
Oscar -0.025361 0.022396 -0.026565 -0.259315 0.073286 0.084258 -0.034173 0.009429 -0.004459 0.188453 0.011949 0.050060 0.044194 -0.057733 -0.026549 -0.134481 -0.022477 0.025078 0.098619 0.062655 0.004324 -0.048199 0.024842 -0.069399 -0.114949 0.063947 -0.077100 -0.076571 0.026289 0.045282 -0.121286 0.066421 0.062239 -0.016558 0.012177 -0.074381 -0.019797 0.094979 -0.043375 0.107907 -0.072908 -0.058436 -0.072512 0.122275 0.032141 -0.047052 0.003534 -0.039086 -0.172624 -0.049834 -0.001934 -0.025565 -0.050746 0.023819 -0.001449 0.042399 -0.114288 0.025733 0.069478 0.034577 -0.096914 0.072025 -0.096664 0.036413 0.007743 -0.066297 0.030477 -0.133750 0.027561 -0.051178 0.049797 -0.018994 0.050558 -0.019366 0.051038 -0.070503 0.043410 0.030311 0.104232 0.023665 0.025422 0.022737 -0.000045 0.099646 0.079978 0.004177 -0.022522 -0.010160 0.033439 -0.082489 -0.027316 -0.055319 0.103619 0.006445 -0.001732 -0.025209 0.000909 0.010970 -0.069416 0.044803 -0.094409 0.033080 -0.030372 -0.186025 0.015632 0.143724 -0.085994 -0.003819 0.014971 -0.042951 0.004790 0.008780 0.024615 0.065530 -0.075910 -0.127635 -0.039344 -0.058007 0.014239 -0.023771 -0.077684 0.063343 0.048495 0.023351 -0.005571 -0.003941 0.005307 0.030962
Fish -0.022748 0.016510 -0.029220 -0.234173 0.063733 0.073866 -0.028028 0.002483 -0.000999 0.163564 0.009566 0.044406 0.035845 -0.047113 -0.024099 -0.123202 -0.016302 0.028310 0.090250 0.058174 0.007333 -0.042874 0.022884 -0.057293 -0.104444 0.058564 -0.066010 -0.071476 0.024294 0.037259 -0.110882 0.056763 0.058173 -0.017532 0.017153 -0.065587 -0.016987 0.084854 -0.040705 0.102575 -0.065640 -0.048878 -0.063388 0.106886 0.033012 -0.035848 -0.003179 -0.036365 -0.154020 -0.039376 -0.001289 -0.024031 -0.045957 0.021006 0.001596 0.037535 -0.099731 0.023331 0.062462 0.028944 -0.084338 0.067128 -0.087580 0.037471 0.006257 -0.055653 0.026528 -0.123666 0.025537 -0.045135 0.049545 -0.017161 0.046062 -0.013917 0.043808 -0.066364 0.042655 0.029115 0.088713 0.021491 0.019004 0.018527 -0.001769 0.085551 0.070798 0.001296 -0.022926 -0.007202 0.034352 -0.069402 -0.022077 -0.051379 0.094830 -0.000121 0.001843 -0.021136 -0.003391 0.007953 -0.057729 0.040323 -0.081703 0.036346 -0.029380 -0.165051 0.011511 0.124457 -0.075818 -0.003163 0.016807 -0.034605 0.004820 0.008552 0.023302 0.055411 -0.068579 -0.115113 -0.033093 -0.055299 0.012499 -0.025315 -0.070771 0.054801 0.037901 0.016899 -0.006832 0.002967 0.006829 0.025432
DN63 -0.026653 0.024664 -0.026536 -0.250282 0.071074 0.079649 -0.034418 0.003111 -0.003636 0.184974 0.013395 0.056718 0.044512 -0.057865 -0.027370 -0.134426 -0.022895 0.027473 0.095167 0.060455 0.005062 -0.048437 0.027589 -0.067966 -0.110221 0.068549 -0.072716 -0.080423 0.019393 0.045810 -0.121229 0.060341 0.063485 -0.017235 0.014043 -0.078103 -0.022255 0.095200 -0.041125 0.113096 -0.077652 -0.056326 -0.070620 0.114984 0.035740 -0.043461 0.000150 -0.040010 -0.175178 -0.049690 -0.006514 -0.023342 -0.048981 0.024445 -0.003462 0.047607 -0.115392 0.021731 0.068000 0.030545 -0.094922 0.077281 -0.093699 0.036555 0.006343 -0.061181 0.028034 -0.132056 0.024787 -0.043844 0.050563 -0.017526 0.055481 -0.014407 0.048963 -0.071729 0.043753 0.033234 0.103612 0.022276 0.022868 0.024072 -0.004008 0.102054 0.081039 0.007742 -0.024375 -0.009539 0.032837 -0.078885 -0.025385 -0.051876 0.103718 0.000813 -0.002131 -0.027838 -0.000103 0.013259 -0.062887 0.041406 -0.093910 0.037443 -0.028655 -0.181932 0.014619 0.141191 -0.082678 -0.002877 0.015313 -0.042247 0.010865 0.008296 0.028963 0.063747 -0.081566 -0.118933 -0.036139 -0.062213 0.008543 -0.025929 -0.077874 0.060912 0.043289 0.020364 -0.012122 -0.001213 0.000289 0.034319
Mus -0.018356 0.015261 -0.023726 -0.217176 0.063637 0.069277 -0.023384 0.008598 -0.007245 0.150884 0.009797 0.041618 0.035756 -0.046885 -0.022459 -0.115228 -0.021839 0.024159 0.084367 0.049926 -0.001294 -0.041541 0.022569 -0.055117 -0.090422 0.056209 -0.061736 -0.066653 0.013172 0.039393 -0.097233 0.055429 0.053547 -0.011291 0.011279 -0.059589 -0.013487 0.075261 -0.034074 0.094888 -0.062777 -0.044428 -0.054170 0.097105 0.031934 -0.039524 0.001749 -0.028910 -0.142815 -0.036972 -0.003979 -0.018388 -0.035675 0.017206 -0.000621 0.036665 -0.099015 0.018175 0.052317 0.024252 -0.083653 0.064506 -0.082898 0.030467 0.000779 -0.052178 0.021227 -0.114814 0.025402 -0.041103 0.046885 -0.015836 0.047562 -0.016413 0.035511 -0.058253 0.037726 0.023543 0.086438 0.020162 0.015800 0.023838 -0.002893 0.081133 0.069396 0.002949 -0.018202 -0.006185 0.030289 -0.063497 -0.022762 -0.050401 0.090153 0.006042 -0.002853 -0.025279 0.002440 0.007266 -0.053288 0.033443 -0.081743 0.031185 -0.024765 -0.154150 0.012158 0.119363 -0.076702 -0.001085 0.011522 -0.028702 0.009018 0.001230 0.025240 0.054644 -0.062404 -0.100556 -0.031791 -0.048555 0.005018 -0.024810 -0.060031 0.053631 0.035567 0.019410 -0.004977 0.002594 0.004920 0.024211
TR77 -0.020982 0.012792 -0.023507 -0.215306 0.065614 0.070187 -0.025690 0.003234 -0.002689 0.156491 0.008619 0.043012 0.031569 -0.042365 -0.020528 -0.111012 -0.021517 0.025414 0.087093 0.053999 0.007328 -0.039684 0.024635 -0.057113 -0.093646 0.055047 -0.060852 -0.069096 0.022166 0.034800 -0.102579 0.054836 0.052370 -0.015106 0.010847 -0.062898 -0.015723 0.080125 -0.033181 0.095105 -0.060566 -0.048071 -0.058007 0.104111 0.032495 -0.038241 0.003142 -0.028902 -0.146349 -0.036897 -0.007009 -0.019197 -0.043610 0.022341 0.003162 0.039256 -0.092488 0.021081 0.060577 0.029505 -0.081921 0.059218 -0.080872 0.030283 0.004362 -0.051664 0.023830 -0.112603 0.020036 -0.041001 0.045558 -0.018234 0.045482 -0.013500 0.044243 -0.056761 0.038869 0.025073 0.084106 0.021570 0.016103 0.016364 -0.004632 0.085918 0.062498 0.001151 -0.018366 -0.010281 0.032708 -0.065593 -0.024520 -0.044117 0.090528 0.005422 0.001553 -0.027014 0.001766 0.012220 -0.056230 0.039120 -0.075492 0.033633 -0.025966 -0.158210 0.009908 0.117306 -0.070672 -0.001899 0.013705 -0.035490 0.007705 0.005302 0.021322 0.049508 -0.063183 -0.104646 -0.032807 -0.051114 0.007311 -0.022550 -0.060898 0.049470 0.038569 0.018499 -0.007006 -0.001449 0.000489 0.023193
Beak -0.023430 0.019280 -0.021873 -0.221854 0.061569 0.065544 -0.029005 0.002489 -0.003340 0.160126 0.006944 0.047099 0.033986 -0.050153 -0.020032 -0.113871 -0.018023 0.025808 0.082745 0.050602 0.002317 -0.044162 0.023831 -0.059728 -0.095141 0.059345 -0.066292 -0.063657 0.024430 0.035563 -0.099451 0.056415 0.058668 -0.012436 0.016996 -0.063370 -0.019078 0.080602 -0.035680 0.096706 -0.066687 -0.044620 -0.059222 0.105243 0.033141 -0.034680 0.000012 -0.031164 -0.151582 -0.039778 -0.001832 -0.021838 -0.044019 0.025567 -0.001687 0.039861 -0.100413 0.026614 0.063013 0.027229 -0.083858 0.062489 -0.079278 0.032095 0.001155 -0.049264 0.021046 -0.110392 0.021016 -0.037164 0.039750 -0.013289 0.045941 -0.014602 0.039652 -0.063115 0.038174 0.026544 0.088897 0.024208 0.016188 0.023246 -0.004477 0.085195 0.065979 0.003793 -0.018531 -0.007412 0.033091 -0.065772 -0.026791 -0.047329 0.088824 -0.000782 0.004337 -0.024824 -0.002428 0.009900 -0.055350 0.040432 -0.076785 0.032704 -0.022672 -0.156571 0.009255 0.124501 -0.069862 0.001523 0.010613 -0.033538 0.004643 0.004924 0.018251 0.053394 -0.068339 -0.108547 -0.028114 -0.047897 0.011745 -0.025042 -0.067342 0.056029 0.039629 0.017854 -0.009645 -0.003320 -0.000583 0.027654
Ripplefluke -0.027850 0.024782 -0.030771 -0.265487 0.081179 0.084963 -0.033872 0.003314 -0.008597 0.187237 0.013348 0.054165 0.045022 -0.055687 -0.022724 -0.138509 -0.021511 0.029543 0.102771 0.068018 0.001815 -0.046625 0.029129 -0.065881 -0.111767 0.071103 -0.079061 -0.082789 0.018121 0.044193 -0.124893 0.068460 0.068172 -0.018734 0.016871 -0.076062 -0.020167 0.091200 -0.037832 0.115042 -0.078797 -0.060980 -0.074088 0.124772 0.041536 -0.040775 0.001478 -0.036759 -0.174094 -0.045200 -0.005281 -0.021554 -0.046778 0.026402 -0.002928 0.047718 -0.116479 0.022887 0.069193 0.034825 -0.101411 0.079909 -0.098349 0.036018 0.003178 -0.064740 0.021662 -0.141291 0.031877 -0.051629 0.054147 -0.019832 0.057497 -0.019178 0.053130 -0.071056 0.046867 0.034117 0.104975 0.027426 0.016393 0.029662 -0.000784 0.101612 0.076827 0.007615 -0.021388 -0.007327 0.036406 -0.079722 -0.025127 -0.054430 0.108204 0.008671 -0.004015 -0.023187 0.002138 0.011579 -0.068421 0.048267 -0.092288 0.037511 -0.032689 -0.187180 0.008716 0.151188 -0.093817 -0.005910 0.017076 -0.035728 0.012558 0.004191 0.032798 0.068795 -0.085077 -0.126540 -0.039828 -0.064450 0.012901 -0.025539 -0.074390 0.065384 0.050418 0.027574 -0.007097 -0.003346 -0.000054 0.033155
Zipfel -0.024721 0.015703 -0.025925 -0.245855 0.074565 0.074262 -0.026993 0.006783 -0.000738 0.177387 0.005838 0.052158 0.037426 -0.048194 -0.019407 -0.128814 -0.018221 0.026590 0.098674 0.059481 0.008780 -0.041044 0.022280 -0.060386 -0.104581 0.060002 -0.073432 -0.076901 0.028383 0.046391 -0.106913 0.059950 0.061154 -0.019395 0.014560 -0.074475 -0.015656 0.088173 -0.043405 0.103182 -0.066666 -0.050710 -0.066796 0.117673 0.034059 -0.036222 -0.004583 -0.035012 -0.166997 -0.045196 -0.002104 -0.019748 -0.045156 0.020543 0.005017 0.046390 -0.108709 0.028244 0.069789 0.030105 -0.091349 0.064842 -0.085088 0.034319 0.007010 -0.059286 0.025551 -0.128061 0.022556 -0.042636 0.051405 -0.019963 0.048673 -0.014984 0.042448 -0.067608 0.040930 0.028868 0.096109 0.025694 0.022592 0.022960 -0.003405 0.093068 0.074520 0.003250 -0.026922 -0.004836 0.032927 -0.075238 -0.028933 -0.053736 0.101014 -0.000421 -0.000223 -0.028805 0.002605 0.008005 -0.064131 0.037764 -0.094198 0.036178 -0.029208 -0.177467 0.011481 0.130412 -0.079889 0.001846 0.016233 -0.037494 0.005784 0.002125 0.022469 0.063532 -0.077834 -0.119603 -0.037035 -0.056123 0.008678 -0.027868 -0.070605 0.063728 0.046408 0.017463 -0.010314 0.000454 0.000822 0.026755
TR88 -0.022662 0.017780 -0.021722 -0.224211 0.068944 0.073253 -0.026749 0.004499 -0.003459 0.165400 0.007829 0.051327 0.038440 -0.051035 -0.023063 -0.117764 -0.020017 0.022143 0.087409 0.059588 -0.000278 -0.043538 0.018355 -0.055841 -0.094174 0.062711 -0.064644 -0.073157 0.024156 0.042686 -0.103388 0.055376 0.060992 -0.012796 0.017212 -0.066674 -0.016243 0.081496 -0.036462 0.093388 -0.063622 -0.048511 -0.058451 0.106533 0.029312 -0.040811 0.001035 -0.031899 -0.153242 -0.037334 -0.005628 -0.021430 -0.041282 0.020205 0.003303 0.036010 -0.097867 0.025910 0.063999 0.031832 -0.083870 0.063997 -0.078129 0.033561 0.008639 -0.054511 0.027951 -0.112803 0.025213 -0.037313 0.044345 -0.013793 0.050686 -0.018045 0.039130 -0.058792 0.036255 0.024304 0.089494 0.023940 0.018291 0.023461 -0.004374 0.083424 0.068793 0.006963 -0.024662 -0.011251 0.030045 -0.071267 -0.024817 -0.051455 0.087425 0.003357 -0.000431 -0.022679 0.000882 0.005778 -0.058450 0.038306 -0.087254 0.037533 -0.025869 -0.163289 0.012757 0.120813 -0.077076 -0.005777 0.017083 -0.040052 0.004840 0.006881 0.028760 0.059522 -0.073984 -0.110168 -0.033396 -0.050588 0.011735 -0.018337 -0.069979 0.049270 0.044592 0.021796 -0.009127 -0.002599 0.009585 0.028771
MN60 -0.020374 0.019456 -0.026126 -0.198058 0.058951 0.060498 -0.024530 0.006082 -0.007049 0.148232 0.008791 0.044178 0.028462 -0.044555 -0.020881 -0.102422 -0.016161 0.020657 0.078768 0.048848 0.000209 -0.039209 0.022720 -0.053356 -0.088681 0.049444 -0.054283 -0.065383 0.020543 0.037816 -0.093584 0.049935 0.052078 -0.008873 0.014788 -0.059594 -0.015853 0.075666 -0.028587 0.085402 -0.059653 -0.045119 -0.056845 0.092580 0.029884 -0.031226 -0.003166 -0.029910 -0.140580 -0.038216 -0.004421 -0.019215 -0.032293 0.022400 0.000703 0.038692 -0.090414 0.020282 0.055289 0.028559 -0.076656 0.061027 -0.074644 0.027301 0.000005 -0.048906 0.020264 -0.103377 0.024911 -0.037338 0.037164 -0.016537 0.043197 -0.014433 0.036778 -0.057607 0.038718 0.021403 0.076206 0.022395 0.022187 0.018972 -0.001807 0.081015 0.065595 0.000272 -0.023066 -0.009596 0.026879 -0.062528 -0.022785 -0.043052 0.078651 0.002835 -0.002881 -0.017964 0.001467 0.008081 -0.053442 0.030714 -0.071968 0.025666 -0.025596 -0.141197 0.010782 0.109888 -0.064121 -0.002375 0.013141 -0.025823 0.009227 0.007558 0.022685 0.049268 -0.057387 -0.098503 -0.030694 -0.046729 0.012135 -0.019038 -0.057368 0.052846 0.034877 0.014676 -0.003167 0.000597 0.000050 0.020295
CCL -0.028315 0.019487 -0.029823 -0.232893 0.068546 0.073415 -0.023307 0.007625 -0.001119 0.164239 0.004880 0.048180 0.034154 -0.049236 -0.023250 -0.116281 -0.018784 0.025969 0.088178 0.055420 0.000131 -0.047615 0.025981 -0.058530 -0.100302 0.057702 -0.069911 -0.073995 0.024518 0.037576 -0.105366 0.060452 0.057887 -0.010653 0.019123 -0.071129 -0.017668 0.083388 -0.035358 0.094054 -0.063642 -0.045745 -0.060173 0.107702 0.033460 -0.039438 0.000422 -0.031288 -0.154231 -0.042652 -0.007791 -0.024309 -0.038764 0.025122 0.000250 0.040082 -0.098665 0.022659 0.058499 0.027607 -0.084627 0.064137 -0.086911 0.036046 0.007251 -0.059546 0.023302 -0.118441 0.020708 -0.043171 0.045125 -0.020484 0.051072 -0.016336 0.043526 -0.063304 0.037268 0.023792 0.093434 0.023525 0.016383 0.021491 0.000464 0.083138 0.073089 0.001082 -0.023063 -0.011925 0.033299 -0.075639 -0.020556 -0.051051 0.093285 0.007285 -0.000690 -0.023567 -0.003732 0.007995 -0.062579 0.041833 -0.085162 0.032650 -0.031358 -0.166552 0.010501 0.122446 -0.080661 0.001880 0.010563 -0.029952 0.006145 0.003066 0.026095 0.052926 -0.071129 -0.105790 -0.033278 -0.055451 0.012230 -0.021159 -0.068332 0.051990 0.039634 0.023426 -0.007662 -0.000016 0.002681 0.024511
TR120 -0.030280 0.024188 -0.024389 -0.264450 0.079621 0.079049 -0.036669 0.002016 -0.009731 0.194459 0.007845 0.058492 0.045800 -0.054853 -0.023140 -0.138145 -0.024261 0.023958 0.108514 0.062855 0.005977 -0.053214 0.027440 -0.068777 -0.112446 0.070018 -0.077480 -0.084941 0.023082 0.051259 -0.126618 0.067651 0.070483 -0.010799 0.012901 -0.081988 -0.015276 0.091315 -0.043002 0.112528 -0.074987 -0.059071 -0.072180 0.124038 0.038246 -0.047075 0.002610 -0.036627 -0.172980 -0.047982 -0.003335 -0.026505 -0.050862 0.025324 -0.001766 0.042273 -0.114352 0.028182 0.076130 0.031999 -0.104355 0.078869 -0.094776 0.034775 0.009616 -0.059495 0.031508 -0.133627 0.033574 -0.045404 0.048024 -0.021028 0.059866 -0.015169 0.052035 -0.065925 0.046630 0.032479 0.107098 0.029924 0.020291 0.027172 -0.008093 0.106946 0.085412 0.008278 -0.022491 -0.011224 0.040435 -0.087894 -0.026871 -0.060801 0.105022 0.003588 0.004493 -0.027815 0.002144 0.010742 -0.070608 0.044564 -0.101870 0.044998 -0.031802 -0.192057 0.016843 0.143094 -0.091904 -0.006238 0.015911 -0.045450 0.007638 0.002990 0.032776 0.066300 -0.082926 -0.124402 -0.035597 -0.061546 0.012599 -0.020513 -0.075015 0.061024 0.045774 0.019121 -0.007739 -0.004238 0.010174 0.037994
Quasi -0.023804 0.021284 -0.021051 -0.225969 0.066539 0.067117 -0.030370 0.002552 -0.004466 0.163616 0.010368 0.045273 0.032881 -0.052291 -0.020927 -0.118238 -0.020442 0.024353 0.085275 0.055714 0.003801 -0.045543 0.020748 -0.062524 -0.098164 0.061575 -0.071425 -0.063944 0.016464 0.039406 -0.106026 0.052115 0.050878 -0.012880 0.016006 -0.063062 -0.015930 0.075262 -0.035867 0.098275 -0.067423 -0.051893 -0.055681 0.101716 0.033662 -0.037276 -0.000145 -0.028358 -0.154855 -0.037546 -0.000756 -0.024387 -0.041287 0.020440 0.004439 0.040752 -0.103432 0.021544 0.054643 0.025692 -0.085605 0.066317 -0.083053 0.029906 0.002724 -0.056558 0.018407 -0.118970 0.020898 -0.039462 0.046019 -0.021712 0.051052 -0.013040 0.036937 -0.056075 0.043632 0.028951 0.089124 0.019187 0.014047 0.019569 -0.005467 0.089343 0.068790 0.007066 -0.019886 -0.010534 0.032268 -0.069028 -0.021264 -0.046807 0.089582 0.002528 -0.001643 -0.018108 -0.004095 0.012114 -0.053339 0.034985 -0.085799 0.038114 -0.028868 -0.160952 0.014034 0.126642 -0.079516 -0.000433 0.019110 -0.031008 0.007080 -0.000542 0.026879 0.058716 -0.066795 -0.100670 -0.034310 -0.051006 0.002837 -0.020340 -0.064137 0.051539 0.039485 0.018313 -0.008485 -0.004066 0.000847 0.028232
Wave -0.014070 0.013261 -0.011602 -0.144581 0.041160 0.046424 -0.020187 0.003367 -0.004658 0.101745 0.006694 0.030054 0.024161 -0.034950 -0.017686 -0.075637 -0.012599 0.017191 0.056874 0.034344 -0.000840 -0.025411 0.011127 -0.038885 -0.061043 0.036193 -0.047298 -0.040862 0.010343 0.023863 -0.069421 0.039951 0.036334 -0.008126 0.011028 -0.037527 -0.012050 0.052961 -0.019441 0.063188 -0.044338 -0.032274 -0.036595 0.065622 0.023191 -0.023686 -0.000490 -0.019710 -0.095855 -0.023863 0.000085 -0.012229 -0.029979 0.015774 -0.002017 0.022945 -0.062743 0.012918 0.041555 0.014635 -0.054948 0.039661 -0.050146 0.023045 0.001173 -0.034868 0.012267 -0.075391 0.014488 -0.027970 0.032301 -0.013022 0.030489 -0.012776 0.024491 -0.036960 0.024787 0.019125 0.056234 0.015382 0.009258 0.011846 -0.004324 0.056170 0.040895 0.003755 -0.013101 -0.002778 0.019103 -0.041475 -0.016127 -0.033154 0.057317 -0.000315 0.003115 -0.017573 -0.001645 0.003211 -0.039288 0.029154 -0.053826 0.023993 -0.018341 -0.104373 0.008969 0.080087 -0.052109 0.000366 0.006506 -0.017970 0.009178 0.002820 0.013848 0.034865 -0.045071 -0.072133 -0.018586 -0.034878 0.004915 -0.016886 -0.043304 0.036577 0.025181 0.011660 -0.008099 0.004420 0.001662 0.015219
Notch -0.018480 0.018202 -0.022464 -0.211259 0.063496 0.060925 -0.024582 0.007546 -0.000967 0.153562 0.011711 0.044347 0.036142 -0.050033 -0.021326 -0.110771 -0.016642 0.018435 0.082252 0.050371 -0.000369 -0.038513 0.021918 -0.051263 -0.086920 0.055746 -0.058357 -0.066514 0.012655 0.041399 -0.099896 0.050157 0.049121 -0.011776 0.015275 -0.061227 -0.016722 0.077654 -0.032668 0.093870 -0.061754 -0.046015 -0.052828 0.097397 0.030684 -0.036666 -0.002929 -0.031588 -0.143495 -0.041470 -0.001889 -0.024427 -0.033747 0.018948 0.004140 0.039883 -0.096381 0.023316 0.052387 0.027621 -0.080408 0.064446 -0.080074 0.032196 0.006621 -0.053836 0.017611 -0.110362 0.026947 -0.043017 0.042904 -0.016472 0.048384 -0.013285 0.039317 -0.056259 0.037276 0.026854 0.081794 0.018799 0.019182 0.021204 -0.003400 0.084550 0.065957 0.004525 -0.021003 -0.006867 0.032518 -0.067859 -0.026136 -0.045752 0.087716 0.001215 -0.002044 -0.019242 -0.002466 0.010817 -0.052360 0.037409 -0.076318 0.033598 -0.028220 -0.148688 0.007053 0.120084 -0.074082 -0.004381 0.009470 -0.035975 0.008602 -0.000037 0.020536 0.050792 -0.067650 -0.100506 -0.030970 -0.047173 0.003045 -0.022530 -0.060699 0.049393 0.034354 0.022046 -0.005602 0.000133 -0.001301 0.021821
TSN83 -0.025494 0.012442 -0.025724 -0.209761 0.064278 0.063603 -0.021762 0.001936 -0.006832 0.149370 0.004082 0.046459 0.036107 -0.045900 -0.023610 -0.107305 -0.019771 0.023594 0.081145 0.049807 -0.000268 -0.038183 0.021742 -0.053972 -0.093878 0.055767 -0.063370 -0.060468 0.022572 0.039867 -0.093938 0.055934 0.056941 -0.012432 0.010645 -0.059718 -0.019886 0.076561 -0.032497 0.088492 -0.063923 -0.048839 -0.055509 0.096538 0.031511 -0.031955 -0.003956 -0.031272 -0.139145 -0.035742 -0.005168 -0.022446 -0.039432 0.021757 0.002267 0.036092 -0.092426 0.020767 0.058985 0.028477 -0.080322 0.058158 -0.079649 0.026708 0.005003 -0.047883 0.020910 -0.113431 0.024055 -0.039570 0.037719 -0.019625 0.047101 -0.018251 0.039756 -0.054379 0.037825 0.028904 0.079947 0.017855 0.017589 0.018343 -0.006847 0.080304 0.065502 0.005024 -0.018235 -0.006572 0.034183 -0.070507 -0.020511 -0.048369 0.085176 -0.000822 -0.002540 -0.022488 0.003246 0.007951 -0.057220 0.036539 -0.080003 0.031463 -0.021507 -0.151696 0.005753 0.117342 -0.070828 -0.003398 0.014261 -0.030842 0.008755 0.002401 0.026378 0.055575 -0.068455 -0.101458 -0.030926 -0.045856 0.009195 -0.018189 -0.059133 0.051597 0.041281 0.020061 -0.010091 -0.000400 0.005824 0.029697
SN89 -0.012236 0.012669 -0.014499 -0.132002 0.035204 0.042998 -0.015609 -0.000697 -0.006372 0.098238 0.002035 0.029625 0.016936 -0.026585 -0.016872 -0.069702 -0.008676 0.010720 0.050392 0.031207 -0.000734 -0.028789 0.011321 -0.036646 -0.057015 0.035486 -0.039452 -0.041283 0.008058 0.020609 -0.062430 0.032747 0.036741 -0.004148 0.009576 -0.035846 -0.007899 0.048087 -0.016527 0.057868 -0.042119 -0.025819 -0.035570 0.061097 0.016485 -0.025483 0.002311 -0.019269 -0.087183 -0.026072 -0.003439 -0.016339 -0.025465 0.011761 -0.003294 0.022256 -0.056005 0.017273 0.035419 0.018945 -0.050979 0.041338 -0.046140 0.016147 -0.001065 -0.032814 0.012894 -0.070553 0.010902 -0.021776 0.022487 -0.009635 0.027249 -0.005416 0.020872 -0.038595 0.024183 0.018075 0.053414 0.010792 0.012909 0.012685 -0.002261 0.055641 0.044672 0.005805 -0.015102 -0.004741 0.016764 -0.038597 -0.017170 -0.032140 0.057757 0.001310 -0.002175 -0.011305 -0.003585 0.008586 -0.036675 0.024107 -0.046851 0.017678 -0.014381 -0.099255 0.006383 0.072045 -0.045826 0.002263 0.005471 -0.016408 0.003331 0.000442 0.012279 0.032212 -0.042125 -0.064294 -0.022117 -0.032695 0.007736 -0.016193 -0.040900 0.029524 0.027068 0.010752 -0.007033 -0.001248 0.001264 0.016143
SMN5 -0.015386 0.012174 -0.009995 -0.120730 0.034909 0.036886 -0.011305 -0.000520 -0.003692 0.090621 0.004419 0.025757 0.015084 -0.029092 -0.011847 -0.057615 -0.011781 0.008540 0.050753 0.025884 0.005044 -0.021896 0.012840 -0.031460 -0.053590 0.032400 -0.036186 -0.040082 0.014829 0.025410 -0.053825 0.033425 0.027054 -0.006542 0.005814 -0.037816 -0.008325 0.039319 -0.019008 0.053826 -0.031505 -0.026855 -0.029162 0.058162 0.020678 -0.017055 -0.001108 -0.021287 -0.077384 -0.023583 0.001437 -0.007768 -0.025195 0.014416 0.002349 0.022008 -0.056159 0.016540 0.028587 0.016063 -0.045772 0.033877 -0.047713 0.021099 0.004505 -0.032933 0.013497 -0.063937 0.014572 -0.022495 0.021348 -0.013082 0.027294 -0.010584 0.025822 -0.031237 0.023144 0.016048 0.045846 0.015646 0.007203 0.013460 -0.001788 0.050186 0.039508 0.003336 -0.008093 -0.001426 0.021182 -0.040383 -0.009322 -0.024668 0.048633 0.005664 0.001291 -0.016915 0.001759 0.007897 -0.034394 0.017253 -0.042575 0.019738 -0.013746 -0.083213 0.004527 0.068596 -0.041919 -0.000588 0.009906 -0.018435 -0.000539 0.000995 0.013781 0.029447 -0.032767 -0.055963 -0.018570 -0.029502 0.005483 -0.012935 -0.031087 0.028802 0.021591 0.007041 -0.000546 0.003289 0.006331 0.010551
Vau -0.020034 0.015160 -0.023790 -0.208190 0.062096 0.063066 -0.026618 0.002766 -0.005978 0.151647 0.004389 0.041977 0.029856 -0.041063 -0.018830 -0.109990 -0.019584 0.023187 0.081127 0.046127 -0.000568 -0.041495 0.018435 -0.058174 -0.091126 0.055978 -0.058749 -0.065447 0.022299 0.036772 -0.099587 0.051771 0.052561 -0.009315 0.010985 -0.059514 -0.013421 0.073773 -0.033672 0.089135 -0.057517 -0.042715 -0.059674 0.098674 0.033472 -0.037671 0.002054 -0.028442 -0.137838 -0.038479 -0.004198 -0.018441 -0.034444 0.018378 -0.002541 0.037778 -0.089374 0.025858 0.055111 0.027514 -0.083681 0.063658 -0.077985 0.028257 0.001593 -0.047305 0.025689 -0.104457 0.026571 -0.035352 0.038227 -0.014822 0.042402 -0.010318 0.041284 -0.058531 0.035263 0.022965 0.085309 0.018347 0.021135 0.015731 0.001047 0.078874 0.062794 0.001208 -0.023073 -0.009057 0.031468 -0.063044 -0.025798 -0.040961 0.087938 0.007797 -0.002796 -0.023008 -0.000478 0.006749 -0.052066 0.032243 -0.078742 0.031417 -0.021334 -0.149113 0.006945 0.113105 -0.074193 -0.005948 0.014725 -0.029328 0.003979 0.006188 0.025071 0.048938 -0.062659 -0.098784 -0.027879 -0.046817 0.011644 -0.024672 -0.062444 0.050289 0.033688 0.016773 -0.003277 0.002698 0.007260 0.023163
Whitetip -0.022332 0.007642 -0.020623 -0.163712 0.050642 0.053962 -0.023845 0.000890 -0.002494 0.117265 0.006554 0.030817 0.029682 -0.032927 -0.017353 -0.084105 -0.013794 0.019367 0.062712 0.039335 0.007088 -0.030859 0.013835 -0.041661 -0.069551 0.038640 -0.044980 -0.052527 0.015054 0.031865 -0.077348 0.036816 0.042249 -0.010091 0.008418 -0.051267 -0.012186 0.059946 -0.030333 0.073948 -0.044178 -0.036403 -0.045117 0.080447 0.024678 -0.029375 -0.000088 -0.024159 -0.111892 -0.035257 -0.002759 -0.014617 -0.027792 0.016647 0.001936 0.032108 -0.073411 0.015841 0.048784 0.022620 -0.064662 0.045336 -0.062582 0.019453 0.003741 -0.037920 0.013844 -0.087463 0.017400 -0.028418 0.033634 -0.008988 0.032025 -0.013918 0.027177 -0.039454 0.027848 0.019541 0.068117 0.016942 0.016041 0.016056 -0.004101 0.060056 0.054157 -0.001319 -0.018709 -0.006658 0.021313 -0.055475 -0.014912 -0.035278 0.067638 0.004339 -0.002782 -0.022101 -0.004972 0.005257 -0.040542 0.025081 -0.063897 0.019872 -0.019212 -0.121127 0.009619 0.093556 -0.051589 -0.004730 0.011733 -0.027891 0.002795 0.000903 0.019407 0.036949 -0.047405 -0.080081 -0.020915 -0.037004 0.009839 -0.017895 -0.049748 0.042554 0.029188 0.016718 -0.007030 0.001413 0.006044 0.016879
MN23 -0.019671 0.013665 -0.016653 -0.157395 0.048953 0.045661 -0.019265 0.002570 -0.004100 0.107942 0.008021 0.034313 0.028256 -0.037307 -0.014797 -0.081351 -0.012797 0.019209 0.063880 0.034980 0.000568 -0.028696 0.015833 -0.043104 -0.066702 0.042715 -0.048492 -0.044067 0.010473 0.028373 -0.075357 0.042246 0.036013 -0.004713 0.010351 -0.046853 -0.009348 0.053989 -0.021387 0.066181 -0.049442 -0.033335 -0.043442 0.068949 0.025844 -0.022607 -0.001483 -0.024675 -0.105818 -0.025049 -0.001134 -0.013443 -0.031313 0.016587 0.001002 0.025779 -0.069703 0.011608 0.043660 0.020377 -0.061381 0.047561 -0.058814 0.021104 0.005095 -0.034847 0.015734 -0.081693 0.017891 -0.027088 0.033899 -0.008795 0.031321 -0.008653 0.027085 -0.037694 0.025960 0.014140 0.062538 0.018545 0.008036 0.018225 -0.000571 0.059313 0.049283 0.002878 -0.016325 -0.002959 0.024647 -0.051333 -0.012683 -0.034787 0.063093 0.001253 -0.003390 -0.014702 0.000483 0.009458 -0.038924 0.028218 -0.057363 0.020229 -0.020161 -0.108687 0.004660 0.084080 -0.056516 -0.004907 0.012586 -0.022586 0.002960 0.002988 0.012590 0.034665 -0.048629 -0.069955 -0.021730 -0.037284 0.002718 -0.015180 -0.044673 0.036253 0.027516 0.010339 -0.005278 -0.001406 0.005201 0.019344
Cross -0.019075 0.014796 -0.015164 -0.148138 0.047325 0.049015 -0.022072 0.002951 -0.005536 0.112421 0.005428 0.031290 0.021600 -0.030673 -0.019597 -0.076657 -0.014112 0.012259 0.061374 0.035790 0.005648 -0.024285 0.015203 -0.042030 -0.065904 0.039363 -0.042938 -0.043755 0.018335 0.025706 -0.074055 0.035628 0.042129 -0.011120 0.005904 -0.047886 -0.007378 0.055802 -0.027329 0.067185 -0.046380 -0.037316 -0.043310 0.071492 0.024442 -0.024733 -0.004330 -0.018291 -0.105259 -0.031952 -0.006746 -0.012442 -0.023910 0.016402 0.001680 0.029042 -0.071049 0.015878 0.042627 0.021889 -0.062061 0.043216 -0.057459 0.020595 -0.000941 -0.039391 0.013490 -0.076511 0.014601 -0.027777 0.029201 -0.008457 0.032901 -0.008170 0.031079 -0.043753 0.031317 0.022210 0.061152 0.014445 0.016907 0.010071 -0.001500 0.055452 0.045018 0.000422 -0.018479 -0.004940 0.020471 -0.047740 -0.012664 -0.031414 0.065835 0.003360 0.001638 -0.013791 -0.004245 0.004734 -0.041873 0.024122 -0.058520 0.021364 -0.017131 -0.106557 0.004955 0.087160 -0.048028 0.001970 0.013892 -0.021628 0.004569 0.005919 0.015342 0.038412 -0.049980 -0.070205 -0.018219 -0.033376 0.005625 -0.019084 -0.046064 0.038992 0.029502 0.012008 -0.006969 -0.001280 0.002358 0.017070
Five -0.017618 0.013533 -0.014565 -0.156763 0.045786 0.053949 -0.020903 0.005348 -0.006787 0.113463 0.005394 0.035985 0.025592 -0.038705 -0.019604 -0.082495 -0.014668 0.015548 0.060085 0.037919 0.003435 -0.029171 0.019200 -0.046319 -0.073101 0.037426 -0.049112 -0.045773 0.016396 0.032617 -0.078245 0.039705 0.043325 -0.007074 0.008154 -0.050806 -0.010150 0.058455 -0.028678 0.070077 -0.045256 -0.033090 -0.045591 0.073970 0.023526 -0.028305 -0.003621 -0.022973 -0.109447 -0.028721 -0.006191 -0.017881 -0.025756 0.020854 0.002123 0.025904 -0.072372 0.018129 0.043133 0.019023 -0.063689 0.049125 -0.055129 0.026804 0.004147 -0.037533 0.014883 -0.086364 0.020519 -0.033257 0.031450 -0.008742 0.031421 -0.008472 0.025345 -0.047789 0.028927 0.017069 0.062324 0.015863 0.017280 0.013519 -0.002426 0.064919 0.051495 -0.000722 -0.015373 -0.003172 0.022279 -0.047003 -0.012908 -0.033301 0.062026 0.007471 0.003510 -0.016650 -0.003717 0.007680 -0.038263 0.025461 -0.060052 0.023353 -0.019480 -0.118936 0.011043 0.087143 -0.055678 -0.004746 0.008636 -0.021861 0.008624 0.003920 0.017413 0.035485 -0.048349 -0.076398 -0.020285 -0.034050 0.006432 -0.018531 -0.047934 0.043142 0.029926 0.010751 -0.009190 0.000352 0.005599 0.022169
Zig -0.022898 0.019273 -0.023258 -0.199017 0.056991 0.065059 -0.026917 0.002533 -0.003709 0.141146 0.007361 0.045994 0.031021 -0.043008 -0.020031 -0.106645 -0.020014 0.020154 0.075843 0.051231 -0.000996 -0.041284 0.019610 -0.054490 -0.088515 0.049847 -0.059442 -0.057548 0.014114 0.032913 -0.090604 0.054194 0.047263 -0.009665 0.008824 -0.060570 -0.019510 0.071146 -0.029957 0.088435 -0.061466 -0.041984 -0.053865 0.091649 0.032440 -0.037756 -0.004239 -0.024641 -0.132815 -0.037621 -0.001609 -0.018176 -0.039933 0.023542 -0.001083 0.038213 -0.089048 0.019273 0.054914 0.021343 -0.081227 0.057479 -0.073799 0.030322 0.005309 -0.050079 0.016204 -0.107932 0.018365 -0.036108 0.039022 -0.014913 0.044622 -0.014270 0.038111 -0.054660 0.037320 0.027860 0.077758 0.021982 0.015833 0.023494 -0.003614 0.075508 0.060461 0.008251 -0.018971 -0.008381 0.026030 -0.066350 -0.022579 -0.046844 0.078541 0.001462 0.003532 -0.021336 -0.001254 0.005318 -0.047262 0.037133 -0.069381 0.028592 -0.021130 -0.146240 0.008081 0.115207 -0.071417 -0.002887 0.010248 -0.028464 0.011371 0.001489 0.022835 0.047885 -0.060315 -0.099064 -0.026573 -0.045432 0.003851 -0.018553 -0.057699 0.047759 0.039133 0.022112 -0.007193 -0.004037 0.002154 0.026789
TR82 -0.015989 0.012220 -0.020052 -0.148991 0.044576 0.046931 -0.019830 0.002091 -0.001218 0.104829 0.006187 0.033934 0.024387 -0.035396 -0.015362 -0.077914 -0.010656 0.019833 0.057458 0.038313 -0.001370 -0.028920 0.016948 -0.039000 -0.066779 0.038217 -0.048725 -0.045960 0.008462 0.030059 -0.071223 0.037781 0.037759 -0.007885 0.010325 -0.044345 -0.010305 0.055172 -0.024512 0.064194 -0.044129 -0.035513 -0.043962 0.067666 0.016654 -0.023336 0.003727 -0.024907 -0.100482 -0.027085 -0.000811 -0.018996 -0.028320 0.012701 0.002016 0.024216 -0.069386 0.012794 0.043207 0.020997 -0.055434 0.043108 -0.057568 0.024108 -0.001205 -0.034031 0.013082 -0.074363 0.018433 -0.026391 0.029816 -0.009933 0.032605 -0.007352 0.030604 -0.041320 0.023202 0.019949 0.059287 0.017349 0.009726 0.018267 -0.003743 0.060731 0.050262 0.002652 -0.010913 -0.004606 0.023603 -0.046612 -0.018399 -0.033534 0.059608 0.000916 -0.000811 -0.014229 0.000372 0.005775 -0.042910 0.025694 -0.058709 0.026222 -0.017911 -0.109123 0.005366 0.085865 -0.050642 -0.003143 0.006930 -0.024122 0.002818 0.004354 0.020243 0.034957 -0.043721 -0.074879 -0.022430 -0.033681 0.008276 -0.018807 -0.046511 0.037462 0.029991 0.014261 -0.005151 0.000763 0.002261 0.020827
Fork -0.017059 0.014785 -0.018930 -0.170922 0.050029 0.054129 -0.023721 0.002178 -0.006961 0.126532 0.004154 0.031545 0.026334 -0.039918 -0.019507 -0.083837 -0.012304 0.019747 0.068061 0.040950 -0.000315 -0.029234 0.012540 -0.048412 -0.076037 0.044951 -0.044972 -0.049609 0.020406 0.034149 -0.077120 0.040884 0.038127 -0.012284 0.006257 -0.047563 -0.015389 0.056582 -0.030565 0.071789 -0.051032 -0.034544 -0.046836 0.081985 0.026923 -0.031779 -0.003014 -0.028299 -0.115159 -0.034003 -0.003183 -0.016892 -0.032883 0.021351 0.004900 0.033885 -0.077398 0.018439 0.046646 0.025193 -0.061956 0.044354 -0.063037 0.027142 0.002903 -0.045253 0.018158 -0.086235 0.017421 -0.033703 0.030305 -0.009793 0.037592 -0.012949 0.027715 -0.040691 0.031467 0.023403 0.068105 0.016599 0.019127 0.014857 -0.000378 0.068378 0.048997 0.000369 -0.018795 -0.009418 0.023284 -0.050588 -0.015136 -0.035730 0.071964 0.002964 0.002685 -0.020031 -0.002391 0.010993 -0.041881 0.032871 -0.064667 0.020821 -0.023574 -0.119734 0.005343 0.091015 -0.054344 0.001745 0.006507 -0.023322 0.005883 -0.000883 0.014067 0.041980 -0.052070 -0.082220 -0.024385 -0.034125 0.006155 -0.015989 -0.047115 0.041246 0.026459 0.010055 -0.004812 0.000669 0.000136 0.019798
