34 128
34 -0.072886 -0.152917 0.112517 0.034823 0.100847 -0.036800 0.220647 -0.089444 -0.158197 0.039769 -0.160194 0.062883 0.012435 -0.071929 -0.094879 -0.189020 0.059034 -0.126420 0.042983 0.087125 0.217054 0.062990 0.131551 0.038276 -0.051717 -0.060057 -0.038875 0.061382 -0.086565 0.105119 -0.070973 0.047606 -0.073126 0.042785 -0.155479 -0.053865 0.308191 0.036130 0.056563 -0.140545 -0.316257 0.183995 0.073475 0.148856 0.068608 0.126252 0.034689 -0.118470 -0.107835 0.113579 0.115907 0.168860 0.104412 0.161634 -0.269983 -0.135683 -0.116804 -0.037684 -0.079946 -0.022551 0.075953 -0.136150 -0.158819 0.075860 0.072930 -0.204858 -0.050947 -0.048051 -0.017225 -0.090977 -0.004683 -0.046905 -0.008331 -0.023712 -0.036529 -0.120782 0.090648 0.033670 -0.064086 0.149417 -0.073258 -0.288611 0.020468 -0.185624 -0.061914 0.376535 -0.075499 0.010675 -0.078498 -0.082926 -0.053274 0.109071 0.043836 -0.033499 -0.132922 0.289598 -0.178980 0.040171 0.006833 -0.211100 -0.185464 0.077796 -0.065622 -0.147286 -0.017612 0.052091 0.289538 -0.004998 -0.105301 0.051776 -0.017659 -0.119330 -0.044264 0.033092 -0.036585 0.111692 -0.029823 0.269833 -0.095460 0.119745 -0.121890 -0.190104 -0.054652 -0.273160 0.064966 0.210795 0.006537 0.071609
1 -0.092894 -0.288560 0.113839 0.016122 0.057005 -0.137185 0.171511 0.036764 0.082602 0.046435 -0.083272 0.149067 0.038310 -0.170251 0.065851 -0.189334 -0.000239 -0.187184 0.078017 -0.035564 0.264431 0.002632 0.072293 0.040585 0.038820 -0.063798 0.015293 0.047903 -0.047402 0.113582 -0.056819 0.072230 -0.050165 0.035625 -0.108195 -0.124768 0.213454 0.077319 0.030116 -0.113719 -0.193269 0.046635 0.126454 0.175636 -0.132927 0.156381 0.035897 -0.044007 0.056099 0.162817 -0.115043 0.181081 0.055836 0.145628 -0.227328 -0.164423 -0.082749 0.023115 -0.085623 -0.094671 0.188918 -0.178951 -0.059057 0.095710 -0.105978 -0.035870 -0.055451 -0.054784 0.015250 -0.203180 -0.092542 -0.070088 -0.058167 -0.013087 0.164909 -0.011811 0.066827 -0.029272 -0.045391 -0.137163 -0.131808 -0.098849 0.009667 -0.059262 -0.190425 0.056696 0.064050 -0.068428 0.074992 -0.033034 0.122216 0.016697 0.126402 0.009484 -0.150267 0.099607 -0.055551 -0.196302 0.085250 0.052217 -0.087901 0.025124 -0.138299 -0.044980 -0.074158 0.000798 0.235988 0.035032 -0.064143 -0.057880 -0.046319 -0.019794 0.012814 0.096169 -0.150858 0.092903 -0.026490 0.205745 -0.122185 -0.049688 -0.041486 -0.119762 0.117306 -0.224400 -0.124054 -0.002898 0.025722 0.110456
33 -0.075356 -0.191127 0.108198 0.031850 0.089686 -0.065934 0.205478 -0.051271 -0.090154 0.041863 -0.134601 0.089782 0.018561 -0.104311 -0.043985 -0.187829 0.036997 -0.141452 0.047036 0.052824 0.235808 0.048523 0.115088 0.037177 -0.031102 -0.061165 -0.030138 0.057879 -0.073559 0.111226 -0.069867 0.057540 -0.068243 0.047486 -0.151421 -0.080795 0.286630 0.047653 0.044050 -0.133935 -0.287517 0.150869 0.089416 0.154238 0.009285 0.143504 0.032814 -0.101838 -0.068576 0.126135 0.049857 0.179275 0.095870 0.156067 -0.267935 -0.144661 -0.112023 -0.020951 -0.079693 -0.042909 0.116722 -0.158754 -0.134878 0.086807 0.026870 -0.165312 -0.047877 -0.051513 -0.008388 -0.124130 -0.026170 -0.054245 -0.019182 -0.021253 0.017952 -0.088117 0.090841 0.014024 -0.059334 0.070536 -0.087012 -0.244561 0.015318 -0.156723 -0.101234 0.299452 -0.037673 -0.012587 -0.034294 -0.073896 0.003944 0.090421 0.068670 -0.025346 -0.139944 0.247149 -0.153583 -0.035198 0.034093 -0.144026 -0.167250 0.056897 -0.091354 -0.119382 -0.031442 0.033915 0.286023 0.007892 -0.095221 0.018282 -0.030890 -0.093692 -0.028059 0.046218 -0.070413 0.115737 -0.031915 0.256526 -0.109421 0.069036 -0.102372 -0.179470 -0.003474 -0.273761 0.017323 0.154017 0.008898 0.082617
3 -0.084630 -0.223894 0.115312 0.018795 0.072643 -0.092623 0.183700 -0.015865 -0.025242 0.041913 -0.108696 0.107902 0.020702 -0.131501 0.000460 -0.185080 0.025059 -0.154056 0.061472 0.011888 0.229599 0.032772 0.088351 0.039389 0.001621 -0.054439 -0.003468 0.061909 -0.053071 0.111482 -0.063154 0.057559 -0.060789 0.047703 -0.117732 -0.093150 0.237437 0.058872 0.042669 -0.106536 -0.223280 0.085556 0.097484 0.160512 -0.049990 0.136302 0.032688 -0.075090 -0.020707 0.135199 -0.021139 0.154793 0.069593 0.144477 -0.235919 -0.146274 -0.095259 -0.000149 -0.086616 -0.059204 0.128992 -0.151902 -0.094441 0.084658 -0.030242 -0.098930 -0.040377 -0.050428 0.003425 -0.154106 -0.053697 -0.054502 -0.036045 -0.013949 0.083170 -0.051252 0.079234 -0.003412 -0.045553 -0.023373 -0.100628 -0.165179 0.006575 -0.106145 -0.127986 0.184368 0.009602 -0.034149 0.009805 -0.055132 0.049836 0.052526 0.084748 -0.011710 -0.142568 0.164195 -0.109270 -0.093367 0.051959 -0.049403 -0.122175 0.036698 -0.110311 -0.080908 -0.045017 0.021746 0.242278 0.018596 -0.074585 -0.022426 -0.037417 -0.057823 -0.006070 0.068344 -0.096862 0.098535 -0.030056 0.220568 -0.100718 0.013842 -0.074351 -0.149709 0.041578 -0.229957 -0.044577 0.075983 0.015995 0.087804
2 -0.083779 -0.259594 0.112591 0.015411 0.067663 -0.115098 0.183527 0.009011 0.014376 0.046270 -0.105514 0.133529 0.034049 -0.155394 0.029572 -0.194931 0.011550 -0.168849 0.069325 -0.005843 0.257893 0.024350 0.088060 0.037057 0.008634 -0.061416 0.001105 0.059648 -0.051224 0.118505 -0.056315 0.065565 -0.060944 0.047477 -0.122607 -0.107140 0.240825 0.066943 0.037295 -0.115519 -0.220996 0.078402 0.115798 0.172332 -0.090777 0.153493 0.032061 -0.066642 0.010726 0.148706 -0.063183 0.171034 0.073057 0.157209 -0.250599 -0.161747 -0.090266 0.011860 -0.092078 -0.075858 0.160409 -0.169360 -0.084997 0.089314 -0.063812 -0.073113 -0.052357 -0.058567 0.005417 -0.183950 -0.078117 -0.060703 -0.042112 -0.017236 0.119366 -0.032919 0.076389 -0.012638 -0.049409 -0.071280 -0.120603 -0.150777 0.004739 -0.087829 -0.155703 0.146672 0.034187 -0.051275 0.039647 -0.049803 0.085038 0.039703 0.103209 -0.011472 -0.149465 0.139102 -0.091719 -0.143176 0.060513 -0.008866 -0.106720 0.026815 -0.120326 -0.069767 -0.058990 0.008008 0.249560 0.030133 -0.076230 -0.037424 -0.047056 -0.042371 0.003554 0.080430 -0.122435 0.094746 -0.029623 0.216465 -0.113587 -0.017377 -0.063439 -0.141648 0.074866 -0.236291 -0.073123 0.046684 0.022437 0.096974
32 -0.072178 -0.168083 0.102415 0.025756 0.089064 -0.049314 0.206317 -0.072885 -0.125763 0.041698 -0.146170 0.074135 0.015134 -0.083271 -0.068596 -0.179307 0.050671 -0.130706 0.040286 0.070309 0.218085 0.060313 0.115363 0.036555 -0.045961 -0.056217 -0.035274 0.066076 -0.076390 0.101582 -0.067646 0.049499 -0.061654 0.042881 -0.150080 -0.063163 0.284486 0.042197 0.049733 -0.134827 -0.289465 0.156365 0.070675 0.144168 0.035857 0.128737 0.031249 -0.099256 -0.086428 0.108124 0.079275 0.163002 0.091942 0.155617 -0.258538 -0.131636 -0.106958 -0.029071 -0.083404 -0.029373 0.087949 -0.139397 -0.141500 0.080568 0.042325 -0.174029 -0.050039 -0.043253 -0.015825 -0.107952 -0.021137 -0.041809 -0.010643 -0.025085 -0.010186 -0.098681 0.082145 0.024339 -0.059727 0.105395 -0.077699 -0.255101 0.018900 -0.158257 -0.075148 0.327099 -0.054145 -0.000021 -0.052973 -0.079147 -0.026677 0.092795 0.053110 -0.032286 -0.119569 0.244650 -0.155603 0.010562 0.009347 -0.176801 -0.159736 0.059678 -0.072914 -0.124026 -0.014059 0.049436 0.270719 -0.000740 -0.098197 0.037085 -0.023025 -0.105668 -0.030497 0.042061 -0.043321 0.104596 -0.031419 0.244078 -0.085362 0.086141 -0.109587 -0.178299 -0.037472 -0.250456 0.050974 0.169674 0.000635 0.071942
4 -0.090274 -0.247389 0.123708 0.015173 0.075861 -0.110853 0.184839 -0.000080 -0.005191 0.045265 -0.110024 0.125730 0.030578 -0.146209 0.014016 -0.196694 0.019547 -0.168220 0.072118 0.004642 0.253739 0.029045 0.086626 0.036859 0.005920 -0.052025 0.000430 0.070653 -0.048969 0.110445 -0.065948 0.060739 -0.059553 0.047640 -0.117377 -0.100604 0.237565 0.063593 0.045019 -0.102634 -0.222109 0.075072 0.109472 0.172771 -0.062382 0.141089 0.032186 -0.074486 -0.010767 0.140884 -0.040604 0.155852 0.074907 0.153468 -0.247866 -0.151710 -0.094539 0.005954 -0.089155 -0.070882 0.148645 -0.164888 -0.088954 0.084430 -0.040122 -0.080137 -0.046869 -0.054020 0.004157 -0.167718 -0.065073 -0.058122 -0.032667 -0.020926 0.102083 -0.043776 0.084575 -0.007078 -0.050761 -0.044038 -0.105296 -0.165639 0.003832 -0.097449 -0.141956 0.166687 0.028303 -0.046035 0.027092 -0.050423 0.061958 0.043687 0.085619 -0.013272 -0.148097 0.149726 -0.103910 -0.119435 0.054500 -0.029434 -0.114995 0.030619 -0.109002 -0.068267 -0.053771 0.015344 0.238555 0.022465 -0.078131 -0.033537 -0.040124 -0.051030 -0.000945 0.076858 -0.107069 0.099022 -0.029669 0.220379 -0.108760 -0.002338 -0.065688 -0.141647 0.051227 -0.231756 -0.060977 0.059424 0.020505 0.091879
24 -0.072814 -0.173820 0.115184 0.033857 0.095182 -0.050982 0.216200 -0.072229 -0.125705 0.043210 -0.147083 0.079222 0.018901 -0.089209 -0.072093 -0.194330 0.047722 -0.140015 0.047200 0.070431 0.231222 0.058320 0.122334 0.045188 -0.040791 -0.055617 -0.037715 0.062060 -0.082591 0.109038 -0.076555 0.052711 -0.072271 0.042095 -0.154641 -0.068730 0.305863 0.039082 0.053587 -0.144476 -0.305281 0.170623 0.079784 0.157565 0.041707 0.139115 0.030503 -0.104783 -0.089239 0.117441 0.086998 0.174554 0.097690 0.166662 -0.268904 -0.137888 -0.111787 -0.030819 -0.085810 -0.035124 0.095798 -0.149706 -0.144609 0.080321 0.045021 -0.184659 -0.054041 -0.044563 -0.018271 -0.108280 -0.017858 -0.047157 -0.015513 -0.026495 -0.008855 -0.105519 0.088320 0.019884 -0.065008 0.114237 -0.076352 -0.266151 0.019923 -0.164773 -0.084712 0.337552 -0.058502 0.002150 -0.053902 -0.078833 -0.031183 0.098224 0.055751 -0.032189 -0.132258 0.267425 -0.160586 0.009121 0.013605 -0.179930 -0.174409 0.071097 -0.071796 -0.130615 -0.023321 0.048094 0.283636 0.001351 -0.100342 0.039685 -0.020602 -0.110127 -0.036960 0.038148 -0.054074 0.109777 -0.032769 0.258282 -0.095619 0.097042 -0.111222 -0.185428 -0.034572 -0.271166 0.048891 0.182137 0.006268 0.079753
14 -0.082008 -0.216778 0.115217 0.017076 0.078820 -0.082895 0.187532 -0.028001 -0.047470 0.045694 -0.124064 0.107886 0.022108 -0.122230 -0.014140 -0.187029 0.028349 -0.150342 0.060541 0.023373 0.238507 0.040868 0.097220 0.039815 -0.012492 -0.052626 -0.008377 0.065382 -0.064224 0.111367 -0.063103 0.059612 -0.063739 0.049547 -0.127893 -0.089945 0.257202 0.054033 0.044356 -0.120731 -0.254506 0.111019 0.098056 0.163979 -0.029523 0.143140 0.033124 -0.082015 -0.034247 0.136636 -0.002683 0.165444 0.081143 0.155888 -0.252640 -0.149043 -0.103726 -0.004474 -0.089649 -0.058361 0.128814 -0.160102 -0.107348 0.080375 -0.015879 -0.116918 -0.045173 -0.054432 -0.003480 -0.147018 -0.051897 -0.052919 -0.031117 -0.015882 0.065212 -0.060866 0.086074 0.001988 -0.053506 0.004546 -0.100352 -0.196303 0.012510 -0.120069 -0.125374 0.227895 -0.005762 -0.030797 -0.001222 -0.063252 0.034727 0.063044 0.081072 -0.018913 -0.145654 0.195061 -0.125610 -0.074137 0.045353 -0.079938 -0.139750 0.043285 -0.103285 -0.092782 -0.044576 0.027094 0.262611 0.018700 -0.088766 -0.008710 -0.040330 -0.073108 -0.016242 0.063561 -0.087837 0.101772 -0.032954 0.234587 -0.108146 0.033562 -0.084451 -0.160937 0.025545 -0.250348 -0.021081 0.100691 0.011412 0.086497
6 -0.106985 -0.411522 0.112175 0.030242 0.033999 -0.206811 0.177471 0.122959 0.253668 0.054762 -0.038290 0.225888 0.053820 -0.249730 0.181810 -0.208243 -0.037424 -0.259839 0.100517 -0.116371 0.328423 -0.044565 0.047618 0.039656 0.109315 -0.098513 0.043802 0.018087 -0.043016 0.150834 -0.045906 0.089789 -0.038732 0.026241 -0.099167 -0.188716 0.217443 0.130556 -0.002769 -0.131378 -0.160579 -0.011407 0.189734 0.221388 -0.293980 0.211781 0.059901 -0.009059 0.177538 0.228901 -0.271876 0.240701 0.035876 0.153894 -0.229233 -0.230334 -0.077370 0.055843 -0.084284 -0.170517 0.297426 -0.223486 -0.004049 0.128801 -0.233927 0.054058 -0.085264 -0.069389 0.045806 -0.310731 -0.162039 -0.090161 -0.117258 -0.004812 0.325267 0.055308 0.044712 -0.065105 -0.051441 -0.331351 -0.199516 0.015741 0.016912 0.025429 -0.299268 -0.141933 0.166783 -0.127596 0.176704 -0.004089 0.255532 -0.038677 0.210442 0.051424 -0.183814 0.011159 0.022090 -0.383341 0.153107 0.220837 -0.037871 -0.000169 -0.216369 0.001310 -0.138029 -0.034141 0.256393 0.066600 -0.050098 -0.127340 -0.056890 0.042409 0.048126 0.150261 -0.249216 0.104105 -0.030810 0.205635 -0.157498 -0.158903 0.005903 -0.098873 0.269196 -0.243311 -0.276706 -0.127098 0.055018 0.161419
7 -0.091512 -0.351642 0.099094 0.025725 0.034841 -0.170979 0.169931 0.089438 0.195047 0.047592 -0.051715 0.191443 0.049011 -0.213118 0.138101 -0.187576 -0.020106 -0.225859 0.082272 -0.082114 0.294624 -0.030972 0.055540 0.042962 0.085428 -0.090109 0.024073 0.019665 -0.049344 0.131648 -0.040901 0.084251 -0.041875 0.019895 -0.105211 -0.161803 0.211595 0.105543 0.004232 -0.125421 -0.170664 0.011303 0.161090 0.201218 -0.231080 0.189181 0.052118 -0.015705 0.136106 0.198124 -0.210656 0.218689 0.042703 0.147332 -0.221253 -0.198948 -0.073565 0.039138 -0.077001 -0.135031 0.250325 -0.198454 -0.018506 0.116972 -0.185742 0.026884 -0.073585 -0.057163 0.036593 -0.264631 -0.136884 -0.074210 -0.099733 -0.007672 0.260704 0.033072 0.038844 -0.049024 -0.049116 -0.257784 -0.168542 -0.015004 0.016107 0.007631 -0.253925 -0.077541 0.121476 -0.100649 0.134322 -0.009409 0.202990 -0.021807 0.179023 0.036764 -0.160820 0.040565 0.004080 -0.306938 0.119402 0.157906 -0.052404 0.012564 -0.186029 -0.014113 -0.113266 -0.025825 0.237876 0.051618 -0.049026 -0.093440 -0.047126 0.024063 0.033913 0.122479 -0.210274 0.092367 -0.029108 0.193379 -0.139688 -0.113106 -0.009573 -0.095119 0.214448 -0.223106 -0.218746 -0.083772 0.046275 0.145307
30 -0.065124 -0.160544 0.100508 0.034314 0.084858 -0.039979 0.206982 -0.074607 -0.127434 0.041197 -0.148676 0.070450 0.011221 -0.078867 -0.076871 -0.183765 0.048662 -0.128773 0.039362 0.075938 0.213035 0.051918 0.120706 0.034509 -0.038842 -0.056694 -0.031422 0.057869 -0.082333 0.102606 -0.070378 0.043864 -0.065246 0.038599 -0.149709 -0.058478 0.288788 0.040785 0.052066 -0.138952 -0.293431 0.164546 0.075292 0.150041 0.048987 0.128664 0.033072 -0.109357 -0.091705 0.114024 0.086436 0.165992 0.099075 0.148394 -0.253392 -0.130511 -0.114087 -0.030510 -0.074173 -0.029049 0.085318 -0.140933 -0.135790 0.075177 0.058178 -0.181841 -0.049472 -0.043738 -0.015130 -0.098641 -0.010954 -0.044557 -0.010061 -0.023998 -0.017251 -0.106239 0.088248 0.028213 -0.060215 0.120108 -0.076612 -0.260884 0.014653 -0.164623 -0.071826 0.333757 -0.060743 0.004855 -0.063571 -0.076567 -0.029884 0.091835 0.049546 -0.026385 -0.125798 0.261988 -0.163685 0.017701 0.014510 -0.182085 -0.166114 0.068393 -0.072609 -0.136821 -0.021417 0.043729 0.272736 -0.000084 -0.101653 0.038309 -0.024352 -0.110120 -0.040819 0.030350 -0.041651 0.104488 -0.032949 0.249967 -0.094795 0.102047 -0.113673 -0.173663 -0.038638 -0.258476 0.051161 0.183300 0.010344 0.072544
28 -0.076706 -0.182165 0.112449 0.028918 0.088355 -0.053976 0.206603 -0.061356 -0.108268 0.040664 -0.138054 0.085537 0.017028 -0.090542 -0.058558 -0.186689 0.041790 -0.139718 0.050181 0.061661 0.222671 0.050919 0.113979 0.037821 -0.035925 -0.054449 -0.033796 0.061186 -0.072103 0.105793 -0.069851 0.054955 -0.063698 0.046468 -0.146118 -0.074450 0.287466 0.044323 0.050497 -0.132504 -0.287593 0.148016 0.083397 0.154785 0.021411 0.133466 0.028115 -0.101646 -0.078409 0.117583 0.059462 0.168546 0.096531 0.153150 -0.257148 -0.139542 -0.110636 -0.028486 -0.085132 -0.037636 0.100396 -0.147934 -0.131171 0.081408 0.035563 -0.165105 -0.050035 -0.043871 -0.015742 -0.117007 -0.025266 -0.046389 -0.018846 -0.026763 0.005699 -0.091454 0.085312 0.020852 -0.062969 0.088343 -0.081365 -0.247865 0.018301 -0.152337 -0.088551 0.307937 -0.042508 -0.004678 -0.042818 -0.072794 -0.012021 0.088170 0.056940 -0.029336 -0.129819 0.240175 -0.151077 -0.010191 0.021546 -0.156012 -0.162574 0.062782 -0.082629 -0.122212 -0.023444 0.042528 0.274736 0.007385 -0.093215 0.023399 -0.024858 -0.095230 -0.032952 0.041728 -0.058002 0.105520 -0.032812 0.246506 -0.098771 0.076034 -0.102706 -0.174934 -0.019195 -0.256657 0.026415 0.156367 0.009383 0.077883
8 -0.089485 -0.256249 0.121425 0.021593 0.072789 -0.105571 0.198172 -0.008227 -0.005500 0.050430 -0.116215 0.128629 0.025983 -0.144594 0.016624 -0.201443 0.021243 -0.172939 0.072185 0.009490 0.258641 0.028921 0.093508 0.036019 0.004947 -0.058552 -0.003874 0.063826 -0.062423 0.120655 -0.066061 0.068362 -0.061016 0.048546 -0.131441 -0.106433 0.264601 0.066424 0.045703 -0.119519 -0.247113 0.096747 0.109358 0.178147 -0.066059 0.158298 0.034320 -0.076084 -0.008756 0.153382 -0.041148 0.177912 0.082166 0.162946 -0.262543 -0.164343 -0.104182 0.000604 -0.091906 -0.076641 0.153221 -0.175194 -0.098784 0.093340 -0.044141 -0.101183 -0.049692 -0.058988 0.004890 -0.177619 -0.070109 -0.064862 -0.043562 -0.018112 0.100648 -0.047040 0.078482 -0.008205 -0.055256 -0.042015 -0.111984 -0.177089 0.008880 -0.105660 -0.155222 0.185117 0.022814 -0.043314 0.024633 -0.059780 0.067233 0.050588 0.100499 -0.010376 -0.155860 0.169600 -0.108535 -0.125148 0.055582 -0.044680 -0.123921 0.035492 -0.126370 -0.085002 -0.052990 0.013565 0.270024 0.017881 -0.085231 -0.027908 -0.045425 -0.054709 -0.002530 0.078079 -0.119887 0.111378 -0.032938 0.240130 -0.119647 0.005994 -0.076551 -0.160720 0.063493 -0.252736 -0.057616 0.069179 0.020578 0.098574
9 -0.080769 -0.223676 0.104639 0.020916 0.071025 -0.090913 0.184361 -0.012173 -0.017395 0.042347 -0.109168 0.115184 0.024637 -0.129325 0.000309 -0.185655 0.018417 -0.153169 0.058080 0.014907 0.232165 0.032273 0.094477 0.032940 -0.001880 -0.054541 -0.009933 0.052464 -0.059503 0.109236 -0.061158 0.061726 -0.061171 0.039071 -0.119555 -0.094407 0.250587 0.057406 0.036804 -0.114912 -0.238959 0.095389 0.101557 0.164319 -0.048519 0.140126 0.034476 -0.077902 -0.020960 0.132707 -0.021964 0.166799 0.073727 0.148836 -0.238482 -0.150311 -0.096506 -0.002528 -0.080359 -0.064871 0.135620 -0.155123 -0.098672 0.084089 -0.025245 -0.102132 -0.046753 -0.048446 0.000647 -0.148268 -0.052754 -0.051482 -0.030309 -0.020518 0.080053 -0.053353 0.076058 0.000327 -0.053701 -0.013150 -0.096050 -0.172408 0.006503 -0.109289 -0.130788 0.186274 0.009523 -0.033838 0.007542 -0.053520 0.049862 0.051873 0.089405 -0.007871 -0.141775 0.168606 -0.103696 -0.096071 0.047965 -0.054585 -0.126859 0.036113 -0.107979 -0.084283 -0.046493 0.017939 0.244048 0.019343 -0.082221 -0.017745 -0.033419 -0.057444 -0.007090 0.062352 -0.098055 0.096812 -0.032847 0.226471 -0.108441 0.021024 -0.075713 -0.147020 0.041581 -0.235015 -0.043089 0.084777 0.017359 0.091204
29 -0.072588 -0.165671 0.102395 0.023721 0.089291 -0.049741 0.201317 -0.070396 -0.119058 0.041926 -0.141835 0.080785 0.011888 -0.085804 -0.065758 -0.187591 0.041042 -0.135355 0.048537 0.066105 0.220395 0.053663 0.112008 0.036687 -0.042407 -0.056265 -0.033617 0.060792 -0.072591 0.104055 -0.066345 0.048903 -0.065353 0.043882 -0.151984 -0.064911 0.289825 0.040928 0.054491 -0.136911 -0.290545 0.161348 0.074422 0.146163 0.040648 0.137256 0.030078 -0.106540 -0.088540 0.116309 0.074152 0.164209 0.095421 0.159790 -0.270272 -0.132376 -0.104804 -0.026010 -0.078204 -0.029037 0.091391 -0.144827 -0.140885 0.075714 0.042490 -0.173734 -0.048697 -0.044351 -0.014267 -0.099023 -0.019918 -0.046875 -0.011669 -0.021381 -0.009054 -0.094776 0.093551 0.023013 -0.057325 0.102538 -0.077741 -0.250818 0.017242 -0.163747 -0.076613 0.321422 -0.047652 -0.005358 -0.052795 -0.082215 -0.023764 0.090582 0.051057 -0.029767 -0.129137 0.254536 -0.160586 0.004983 0.014664 -0.172349 -0.168025 0.063604 -0.074304 -0.126880 -0.018073 0.040630 0.265293 -0.002133 -0.095208 0.032980 -0.024229 -0.099325 -0.036955 0.033926 -0.054336 0.104803 -0.030714 0.245324 -0.093138 0.088132 -0.109938 -0.175621 -0.036001 -0.261133 0.044741 0.173174 0.005117 0.068597
26 -0.065801 -0.153458 0.106121 0.026537 0.092045 -0.045113 0.205050 -0.078572 -0.133794 0.037460 -0.145940 0.064326 0.018761 -0.079805 -0.077386 -0.175462 0.052574 -0.125931 0.041937 0.076760 0.216863 0.057640 0.121884 0.041784 -0.046918 -0.056402 -0.039653 0.055848 -0.081260 0.103798 -0.064723 0.047814 -0.062864 0.036156 -0.152825 -0.063704 0.284816 0.035266 0.049585 -0.135456 -0.290285 0.158026 0.066187 0.140499 0.046424 0.131564 0.024506 -0.102211 -0.090235 0.110884 0.093177 0.163648 0.093103 0.148032 -0.252252 -0.126505 -0.103658 -0.031556 -0.084804 -0.025209 0.084391 -0.138613 -0.139463 0.079239 0.053245 -0.178638 -0.047217 -0.048654 -0.017753 -0.097325 -0.012097 -0.045155 -0.012529 -0.024139 -0.014631 -0.107873 0.076722 0.025166 -0.061818 0.115751 -0.077567 -0.256338 0.020014 -0.161099 -0.068629 0.332965 -0.065483 0.002482 -0.059158 -0.078148 -0.033115 0.094859 0.051631 -0.025541 -0.117731 0.252696 -0.160813 0.021642 0.015060 -0.184016 -0.165238 0.067054 -0.065733 -0.122964 -0.014469 0.050075 0.273414 0.001733 -0.092672 0.044281 -0.023222 -0.109378 -0.035252 0.038612 -0.042301 0.103893 -0.028336 0.241799 -0.084742 0.091816 -0.109238 -0.179356 -0.044704 -0.259725 0.054898 0.184377 0.002511 0.064354
5 -0.090062 -0.306643 0.103499 0.026578 0.057216 -0.140908 0.185001 0.040663 0.106076 0.044203 -0.075100 0.164079 0.035490 -0.175567 0.080733 -0.195851 -0.005253 -0.204405 0.074409 -0.038622 0.278554 -0.000442 0.069011 0.044566 0.048156 -0.079786 0.010795 0.033294 -0.057053 0.124833 -0.057322 0.073046 -0.050906 0.033192 -0.113362 -0.138780 0.238862 0.090528 0.019311 -0.127343 -0.202001 0.052373 0.136209 0.186930 -0.156870 0.172890 0.045434 -0.043250 0.068848 0.174266 -0.129414 0.206328 0.062863 0.146317 -0.231831 -0.187043 -0.084522 0.020626 -0.079975 -0.114141 0.204704 -0.188947 -0.053545 0.106020 -0.122536 -0.033569 -0.064018 -0.058484 0.021117 -0.224007 -0.104436 -0.070968 -0.073734 -0.017661 0.185670 -0.009532 0.055606 -0.035858 -0.056737 -0.157509 -0.145159 -0.091228 0.014311 -0.046825 -0.209315 0.039299 0.077196 -0.070609 0.085995 -0.032358 0.139661 0.011687 0.143871 0.018993 -0.159554 0.103173 -0.050763 -0.222490 0.096933 0.068398 -0.090823 0.025524 -0.155644 -0.052018 -0.090425 -0.005631 0.256383 0.038103 -0.070610 -0.060891 -0.046359 -0.015698 0.016657 0.097881 -0.167443 0.103265 -0.026536 0.217461 -0.125043 -0.056942 -0.038271 -0.122053 0.143022 -0.243214 -0.146247 -0.006317 0.030087 0.127974
11 -0.094604 -0.329239 0.105126 0.023831 0.044070 -0.162211 0.162018 0.076798 0.160484 0.044221 -0.058486 0.177809 0.041849 -0.193547 0.118329 -0.189376 -0.017813 -0.209979 0.080919 -0.071069 0.281760 -0.019366 0.060239 0.039297 0.067199 -0.078087 0.023217 0.031401 -0.047419 0.121485 -0.045947 0.076781 -0.040657 0.023670 -0.096819 -0.144138 0.211417 0.099092 0.012421 -0.110392 -0.164196 0.019378 0.150498 0.189396 -0.200087 0.175612 0.048211 -0.020415 0.104682 0.184257 -0.178080 0.199014 0.045899 0.140614 -0.215127 -0.188346 -0.074599 0.039449 -0.083672 -0.123934 0.225870 -0.192280 -0.025521 0.108302 -0.160998 0.011168 -0.069458 -0.058858 0.032996 -0.243231 -0.120502 -0.072677 -0.085329 -0.012678 0.233297 0.021760 0.048611 -0.047967 -0.049738 -0.219441 -0.150490 -0.036194 0.010994 -0.013535 -0.233910 -0.037495 0.110644 -0.089128 0.118873 -0.015661 0.172580 -0.015440 0.157576 0.031519 -0.151879 0.047577 -0.011750 -0.268685 0.106716 0.131059 -0.054431 0.015638 -0.166742 -0.019208 -0.100789 -0.018611 0.231408 0.042117 -0.052771 -0.086814 -0.048310 0.012947 0.025523 0.111234 -0.186304 0.087262 -0.031728 0.193852 -0.129195 -0.099424 -0.015306 -0.102709 0.183810 -0.218508 -0.186361 -0.064484 0.034122 0.130399
25 -0.076541 -0.196287 0.102008 0.024954 0.074407 -0.070233 0.192722 -0.045701 -0.060330 0.040696 -0.126413 0.088475 0.021476 -0.100616 -0.032681 -0.183382 0.039337 -0.149112 0.053510 0.045523 0.231545 0.038794 0.107198 0.041551 -0.017411 -0.064418 -0.021146 0.051433 -0.076078 0.109153 -0.059959 0.053372 -0.057209 0.031449 -0.142356 -0.079841 0.264993 0.056136 0.039385 -0.132955 -0.266727 0.130064 0.085258 0.150992 -0.008039 0.143825 0.034336 -0.080641 -0.041437 0.127318 0.024025 0.174851 0.085736 0.152067 -0.248736 -0.143107 -0.096827 -0.021551 -0.083144 -0.045994 0.114752 -0.147398 -0.111888 0.082081 0.000633 -0.138143 -0.055150 -0.046047 -0.011666 -0.133561 -0.039175 -0.053418 -0.026737 -0.018690 0.040411 -0.081865 0.067624 0.011885 -0.057545 0.038171 -0.093768 -0.211164 0.017123 -0.129533 -0.108697 0.246362 -0.022409 -0.022955 -0.022326 -0.066460 0.010692 0.066334 0.075935 -0.018145 -0.125977 0.204974 -0.124285 -0.045727 0.034047 -0.109832 -0.141405 0.055649 -0.092377 -0.098768 -0.032193 0.032372 0.259651 0.012641 -0.082895 0.010021 -0.027218 -0.079204 -0.019111 0.052061 -0.078826 0.097680 -0.026899 0.226484 -0.094708 0.048383 -0.085668 -0.153198 0.007520 -0.245347 -0.003334 0.128852 0.009632 0.081175
31 -0.076160 -0.186675 0.114487 0.025774 0.084460 -0.067914 0.198236 -0.055258 -0.093956 0.042770 -0.132156 0.094542 0.022955 -0.105467 -0.044595 -0.192221 0.031536 -0.138988 0.054152 0.048538 0.230854 0.046686 0.106852 0.042174 -0.027029 -0.052550 -0.021424 0.066559 -0.069780 0.105115 -0.072203 0.059711 -0.071292 0.049519 -0.139037 -0.073020 0.276978 0.044166 0.054626 -0.132073 -0.277986 0.142635 0.086154 0.153921 0.011475 0.137258 0.028983 -0.100795 -0.066990 0.125470 0.041090 0.168463 0.092094 0.155778 -0.261859 -0.144631 -0.106708 -0.022684 -0.087063 -0.045712 0.113358 -0.150828 -0.132036 0.075922 0.018981 -0.154599 -0.050754 -0.051028 -0.010711 -0.122302 -0.030792 -0.055334 -0.017663 -0.022592 0.024935 -0.084866 0.097035 0.012748 -0.053823 0.065383 -0.085125 -0.238345 0.012054 -0.155110 -0.100532 0.288706 -0.035605 -0.018048 -0.031490 -0.075920 -0.001840 0.089206 0.071057 -0.028026 -0.150324 0.237659 -0.150894 -0.033161 0.028534 -0.130047 -0.164643 0.055638 -0.089929 -0.119624 -0.033528 0.034984 0.276330 0.009597 -0.092306 0.014648 -0.034946 -0.094021 -0.029515 0.046596 -0.071490 0.114817 -0.034150 0.259888 -0.111486 0.071330 -0.103074 -0.177570 -0.008162 -0.269226 0.011412 0.149006 0.006278 0.082865
20 -0.083051 -0.215902 0.115685 0.023110 0.079171 -0.084067 0.203320 -0.033591 -0.063397 0.043445 -0.131672 0.103433 0.026670 -0.120417 -0.025706 -0.196862 0.027806 -0.153597 0.059012 0.031290 0.245655 0.039852 0.106985 0.040264 -0.014886 -0.053944 -0.012966 0.063268 -0.065031 0.108809 -0.071541 0.058045 -0.064916 0.046618 -0.136569 -0.087122 0.278634 0.051374 0.046369 -0.131318 -0.273926 0.122155 0.095018 0.167947 -0.015835 0.147334 0.036656 -0.091242 -0.044596 0.133922 0.009230 0.173231 0.091074 0.158366 -0.267290 -0.153005 -0.106953 -0.016029 -0.091650 -0.053004 0.131915 -0.159172 -0.117161 0.086578 -0.003391 -0.134136 -0.049637 -0.049624 -0.007368 -0.140570 -0.047847 -0.054616 -0.028510 -0.022279 0.052293 -0.069964 0.091399 0.005449 -0.055715 0.027711 -0.097318 -0.219237 0.012202 -0.139008 -0.118904 0.255502 -0.014749 -0.025190 -0.014349 -0.066406 0.028235 0.072817 0.080397 -0.022166 -0.149389 0.212817 -0.132905 -0.067468 0.037452 -0.096785 -0.151335 0.046488 -0.106283 -0.102082 -0.040743 0.031017 0.273335 0.013441 -0.088231 0.001505 -0.038013 -0.076700 -0.018319 0.061920 -0.091545 0.108006 -0.029360 0.252831 -0.110785 0.045291 -0.092621 -0.166003 0.017783 -0.265514 -0.013044 0.121390 0.011210 0.090478
17 -0.100853 -0.376271 0.107356 0.030677 0.033497 -0.188496 0.176514 0.102474 0.219449 0.053531 -0.045851 0.209000 0.051437 -0.221483 0.149406 -0.195582 -0.026898 -0.243813 0.087708 -0.090752 0.309278 -0.037602 0.056216 0.038372 0.093875 -0.090285 0.031164 0.022010 -0.045309 0.141761 -0.045961 0.086359 -0.037566 0.022796 -0.105140 -0.175562 0.221012 0.119070 0.002386 -0.123827 -0.168851 0.000202 0.170763 0.213009 -0.254779 0.195601 0.056603 -0.011646 0.145464 0.212413 -0.233239 0.226633 0.044528 0.145399 -0.224678 -0.216194 -0.081912 0.050342 -0.079169 -0.154551 0.268683 -0.212890 -0.013635 0.118676 -0.200132 0.037064 -0.078907 -0.064871 0.040308 -0.279476 -0.147081 -0.084113 -0.101545 -0.012355 0.284642 0.041826 0.039374 -0.060291 -0.051340 -0.285909 -0.176454 -0.010212 0.018797 0.013016 -0.275604 -0.095842 0.142885 -0.111856 0.154690 -0.010563 0.216824 -0.027325 0.188293 0.046114 -0.172479 0.030790 0.010099 -0.333649 0.136120 0.182560 -0.046644 0.007956 -0.199178 -0.009544 -0.121982 -0.030858 0.252978 0.053467 -0.056272 -0.103776 -0.052773 0.027713 0.043567 0.134944 -0.224191 0.097888 -0.031344 0.209085 -0.147480 -0.135758 -0.000773 -0.096020 0.235011 -0.231817 -0.242805 -0.097848 0.046605 0.155744
13 -0.085764 -0.266933 0.113357 0.016256 0.063976 -0.120262 0.182028 0.011380 0.037930 0.049259 -0.098257 0.135267 0.032027 -0.160574 0.042684 -0.191613 0.004531 -0.177025 0.069669 -0.017865 0.260602 0.017279 0.076825 0.038544 0.016452 -0.062787 0.010187 0.055444 -0.052388 0.117555 -0.061550 0.069169 -0.057267 0.039799 -0.114198 -0.114726 0.236714 0.075673 0.033485 -0.114908 -0.209279 0.069516 0.116825 0.173881 -0.099964 0.157756 0.037383 -0.058729 0.020284 0.155483 -0.079201 0.178211 0.067590 0.150385 -0.239656 -0.164539 -0.093202 0.010659 -0.082518 -0.087485 0.170982 -0.171444 -0.078572 0.089976 -0.071668 -0.068543 -0.054701 -0.058580 0.015764 -0.189839 -0.081349 -0.064350 -0.050487 -0.016580 0.135130 -0.030802 0.071726 -0.018777 -0.051777 -0.090457 -0.121226 -0.134227 0.007408 -0.082263 -0.171383 0.116635 0.045755 -0.055847 0.045130 -0.040051 0.098876 0.029635 0.107015 -0.003272 -0.146933 0.127540 -0.080254 -0.160274 0.067874 0.007007 -0.100841 0.027749 -0.128923 -0.061863 -0.066046 0.003099 0.246075 0.025758 -0.072571 -0.047446 -0.039823 -0.037122 0.003101 0.086901 -0.132412 0.094786 -0.034211 0.217874 -0.113832 -0.024335 -0.056014 -0.133081 0.092397 -0.230785 -0.089906 0.035031 0.024185 0.104847
18 -0.088582 -0.286781 0.107010 0.015595 0.057537 -0.135946 0.167631 0.038121 0.082926 0.049991 -0.082776 0.153972 0.039076 -0.170954 0.068884 -0.191694 -0.002782 -0.184324 0.073025 -0.030608 0.266891 0.004008 0.074713 0.038897 0.040267 -0.061201 0.014688 0.047699 -0.045676 0.119182 -0.054053 0.073410 -0.050079 0.040361 -0.106553 -0.127270 0.220262 0.080544 0.028544 -0.107826 -0.194727 0.050194 0.124044 0.176923 -0.136464 0.163265 0.035261 -0.046125 0.053760 0.160925 -0.117048 0.176790 0.061767 0.149693 -0.231215 -0.166221 -0.083171 0.018266 -0.087346 -0.098825 0.189844 -0.181116 -0.057912 0.095868 -0.102377 -0.035101 -0.054590 -0.059080 0.020745 -0.202967 -0.097966 -0.066392 -0.057881 -0.017152 0.172071 -0.007328 0.068812 -0.024610 -0.046293 -0.138304 -0.135943 -0.096760 0.010414 -0.059156 -0.193440 0.062882 0.070988 -0.069260 0.070782 -0.032271 0.124945 0.012804 0.130400 0.005001 -0.156837 0.100868 -0.058656 -0.194822 0.084607 0.051399 -0.086839 0.023245 -0.142202 -0.043694 -0.075628 -0.002095 0.232643 0.031704 -0.065415 -0.064054 -0.049161 -0.020727 0.011749 0.092731 -0.149457 0.090917 -0.029111 0.201816 -0.116804 -0.053051 -0.042244 -0.125327 0.119540 -0.225334 -0.122973 -0.007498 0.023113 0.108078
22 -0.078380 -0.249485 0.100472 0.021388 0.059548 -0.112014 0.170265 0.011894 0.033104 0.041603 -0.091013 0.130666 0.031187 -0.146339 0.039261 -0.179285 0.004492 -0.166275 0.066879 -0.008846 0.243536 0.013324 0.081822 0.036661 0.017597 -0.058336 0.001537 0.040820 -0.050434 0.112555 -0.054517 0.061004 -0.056299 0.037681 -0.113361 -0.109553 0.227456 0.066439 0.027508 -0.116192 -0.204323 0.068682 0.108586 0.166759 -0.091347 0.152290 0.033865 -0.055331 0.024450 0.144288 -0.071582 0.169977 0.060905 0.139481 -0.223488 -0.155079 -0.083392 0.013193 -0.075905 -0.082518 0.162347 -0.160895 -0.072196 0.092667 -0.069279 -0.063748 -0.055546 -0.049766 0.015802 -0.170068 -0.075115 -0.056802 -0.049589 -0.015805 0.127616 -0.024337 0.064978 -0.014048 -0.044236 -0.079553 -0.117759 -0.126037 0.013328 -0.080298 -0.158889 0.110746 0.041044 -0.053824 0.045186 -0.041740 0.089880 0.030922 0.107504 -0.001789 -0.142359 0.132153 -0.076249 -0.146087 0.069516 0.000472 -0.102895 0.030856 -0.121480 -0.060019 -0.061782 0.009139 0.235079 0.027262 -0.069051 -0.035860 -0.036489 -0.034802 0.004247 0.079983 -0.124935 0.093619 -0.031565 0.209075 -0.114253 -0.017843 -0.053636 -0.131865 0.087347 -0.227467 -0.083213 0.035425 0.023580 0.100416
23 -0.073687 -0.181649 0.102362 0.026991 0.079954 -0.059774 0.193227 -0.043878 -0.076568 0.039055 -0.130117 0.090253 0.018347 -0.100810 -0.042889 -0.179889 0.033477 -0.137910 0.052244 0.049449 0.222010 0.041382 0.101503 0.040215 -0.022272 -0.055943 -0.026532 0.054064 -0.072959 0.103510 -0.067695 0.054025 -0.063534 0.041419 -0.140894 -0.077887 0.270849 0.044130 0.044301 -0.126147 -0.270639 0.136730 0.087953 0.153295 0.009406 0.132472 0.032504 -0.090035 -0.060439 0.122444 0.041051 0.164564 0.091393 0.148147 -0.251591 -0.144036 -0.106781 -0.019911 -0.077157 -0.048082 0.108757 -0.147053 -0.118557 0.077830 0.021390 -0.145768 -0.045166 -0.043113 -0.008201 -0.117282 -0.029004 -0.052187 -0.014608 -0.021257 0.020153 -0.080694 0.087412 0.011658 -0.053402 0.058158 -0.079458 -0.224059 0.017893 -0.141499 -0.101057 0.269387 -0.029918 -0.013633 -0.030121 -0.070770 0.004895 0.082015 0.064078 -0.021069 -0.143222 0.223601 -0.136893 -0.039357 0.029112 -0.120856 -0.152137 0.053252 -0.085010 -0.116296 -0.033785 0.028099 0.262179 0.004985 -0.089474 0.015374 -0.032346 -0.086961 -0.026663 0.044368 -0.072761 0.107817 -0.031062 0.247593 -0.103459 0.064220 -0.093025 -0.162505 -0.002794 -0.257550 0.008428 0.135633 0.011173 0.081491
10 -0.072136 -0.188002 0.101910 0.024052 0.079756 -0.063749 0.190872 -0.041403 -0.067332 0.037475 -0.122416 0.091306 0.017503 -0.097177 -0.035945 -0.173963 0.035503 -0.135447 0.048698 0.041605 0.221257 0.040637 0.102455 0.039767 -0.022473 -0.055745 -0.018596 0.054187 -0.066842 0.097749 -0.064657 0.048439 -0.057930 0.041621 -0.132702 -0.074234 0.257023 0.042473 0.040800 -0.123865 -0.255994 0.122740 0.087288 0.150553 0.000984 0.133211 0.035313 -0.086827 -0.046365 0.116980 0.031060 0.159766 0.085534 0.144476 -0.241315 -0.132397 -0.095204 -0.018632 -0.081431 -0.042106 0.108097 -0.141536 -0.117816 0.077040 0.010582 -0.131241 -0.048836 -0.047592 -0.011567 -0.123578 -0.031204 -0.051570 -0.017288 -0.020812 0.034440 -0.073106 0.077364 0.008375 -0.056663 0.045283 -0.088032 -0.208641 0.013504 -0.125562 -0.100163 0.247813 -0.025821 -0.018631 -0.022659 -0.064875 0.010974 0.071140 0.068409 -0.016439 -0.126615 0.205235 -0.126855 -0.043042 0.029646 -0.109338 -0.139368 0.048749 -0.082828 -0.100458 -0.033159 0.029945 0.250723 0.011908 -0.086799 0.013682 -0.024523 -0.081444 -0.019554 0.047925 -0.066467 0.096680 -0.026548 0.227456 -0.095436 0.049572 -0.087921 -0.154080 0.001463 -0.234857 0.007381 0.123435 0.008418 0.077124
27 -0.071038 -0.176566 0.106193 0.023938 0.090094 -0.049316 0.210300 -0.063756 -0.120401 0.042912 -0.147146 0.076654 0.012986 -0.082818 -0.065856 -0.190383 0.048713 -0.138759 0.046270 0.060447 0.226144 0.056042 0.117627 0.042226 -0.037245 -0.059611 -0.035040 0.066500 -0.078833 0.103615 -0.070322 0.046416 -0.067490 0.038863 -0.143085 -0.066437 0.280756 0.038650 0.050505 -0.135774 -0.292048 0.157046 0.076226 0.148836 0.040360 0.133221 0.036637 -0.104584 -0.084587 0.118678 0.078864 0.165930 0.093309 0.159382 -0.260666 -0.136886 -0.110495 -0.026783 -0.075136 -0.030595 0.089294 -0.138652 -0.140397 0.074207 0.046550 -0.171252 -0.049630 -0.041263 -0.016696 -0.105328 -0.020891 -0.045332 -0.009908 -0.028167 -0.010055 -0.102925 0.092719 0.017716 -0.061928 0.102802 -0.078568 -0.253338 0.015358 -0.155798 -0.082816 0.319565 -0.046351 -0.003228 -0.055821 -0.076654 -0.026581 0.088997 0.054001 -0.027340 -0.136575 0.254097 -0.157013 -0.003487 0.020020 -0.171473 -0.169475 0.063410 -0.071638 -0.132619 -0.020168 0.042599 0.275510 -0.002890 -0.100708 0.034745 -0.023501 -0.101194 -0.036110 0.036562 -0.050642 0.106993 -0.029896 0.253142 -0.099627 0.087848 -0.111463 -0.171427 -0.028852 -0.264728 0.036794 0.174608 0.009362 0.074944
16 -0.075309 -0.195738 0.106984 0.027291 0.077519 -0.072541 0.197330 -0.039834 -0.061147 0.041909 -0.127969 0.098805 0.020091 -0.103930 -0.026829 -0.185559 0.026853 -0.151289 0.048503 0.035879 0.230956 0.039142 0.107185 0.037358 -0.014971 -0.057845 -0.019319 0.052852 -0.071338 0.101121 -0.067768 0.057223 -0.062903 0.034249 -0.134128 -0.078956 0.270131 0.046971 0.040393 -0.131840 -0.266381 0.132021 0.093073 0.155376 -0.005838 0.136480 0.037191 -0.084460 -0.048594 0.131965 0.027876 0.171081 0.086209 0.150681 -0.246077 -0.143380 -0.102418 -0.013866 -0.076710 -0.054868 0.121609 -0.154891 -0.115815 0.077229 0.006982 -0.136640 -0.050676 -0.044837 -0.007376 -0.133641 -0.034061 -0.058049 -0.023501 -0.023482 0.043870 -0.076530 0.084739 0.004816 -0.058638 0.038880 -0.086551 -0.212707 0.016492 -0.134569 -0.109322 0.251020 -0.019554 -0.016927 -0.015466 -0.063918 0.012451 0.075042 0.070724 -0.014511 -0.138048 0.216455 -0.125448 -0.054632 0.034897 -0.110797 -0.141603 0.054796 -0.088890 -0.107635 -0.041485 0.025947 0.261512 0.009539 -0.085553 0.011180 -0.031551 -0.075113 -0.025450 0.054786 -0.077529 0.108433 -0.030312 0.245046 -0.104652 0.050529 -0.089482 -0.157952 0.009977 -0.256704 -0.003378 0.128619 0.012999 0.089432
15 -0.077163 -0.194144 0.106693 0.023491 0.079320 -0.063374 0.195116 -0.044184 -0.065320 0.039119 -0.122422 0.092708 0.018977 -0.100264 -0.030254 -0.181891 0.028776 -0.145342 0.047378 0.036431 0.227674 0.041195 0.102505 0.039591 -0.020833 -0.057208 -0.024015 0.053458 -0.068611 0.099935 -0.067569 0.055098 -0.058350 0.038514 -0.134247 -0.078129 0.262132 0.047752 0.047507 -0.125288 -0.261818 0.129486 0.086535 0.151202 -0.000563 0.137657 0.029957 -0.087091 -0.049100 0.121965 0.029888 0.165237 0.083974 0.149582 -0.246346 -0.142818 -0.104519 -0.019295 -0.074689 -0.044828 0.115872 -0.143325 -0.113765 0.075199 0.010020 -0.131769 -0.047716 -0.045878 -0.003368 -0.122119 -0.032010 -0.054105 -0.021109 -0.024738 0.031583 -0.075926 0.082560 0.007395 -0.059451 0.039516 -0.086644 -0.205898 0.015528 -0.133839 -0.108024 0.244658 -0.023154 -0.020552 -0.019663 -0.061870 0.013721 0.075341 0.072992 -0.019960 -0.138271 0.215002 -0.126325 -0.042979 0.034766 -0.107150 -0.139587 0.052656 -0.090961 -0.105316 -0.033467 0.025736 0.259157 0.009257 -0.087537 0.007412 -0.027876 -0.079224 -0.024705 0.045883 -0.077468 0.106617 -0.026622 0.239387 -0.104105 0.057796 -0.085980 -0.160302 0.011946 -0.244254 -0.004816 0.126165 0.014988 0.085196
19 -0.073897 -0.201446 0.110824 0.023362 0.078529 -0.070354 0.196117 -0.043188 -0.063838 0.042323 -0.130685 0.098106 0.019433 -0.106375 -0.032514 -0.185016 0.029301 -0.150981 0.055300 0.042645 0.233282 0.037427 0.105775 0.040366 -0.018705 -0.055863 -0.021499 0.056475 -0.071003 0.105317 -0.065152 0.056723 -0.061492 0.036324 -0.138940 -0.081191 0.266419 0.053600 0.046656 -0.128379 -0.267142 0.129662 0.090737 0.154912 -0.003889 0.141646 0.037250 -0.091464 -0.049264 0.129933 0.024412 0.170147 0.083281 0.151434 -0.249726 -0.142698 -0.106229 -0.014416 -0.076416 -0.049900 0.117587 -0.153069 -0.114064 0.083643 0.005824 -0.141112 -0.047442 -0.048346 -0.009031 -0.133572 -0.036421 -0.053121 -0.023873 -0.020030 0.036666 -0.079989 0.085336 0.011234 -0.060113 0.037204 -0.091887 -0.213054 0.015089 -0.137650 -0.111114 0.252972 -0.018112 -0.018367 -0.022892 -0.067206 0.014954 0.076162 0.077192 -0.016836 -0.139993 0.217759 -0.131609 -0.050921 0.035995 -0.113237 -0.144666 0.054946 -0.097036 -0.108805 -0.037661 0.030138 0.264842 0.010789 -0.089218 0.006747 -0.032156 -0.079651 -0.021778 0.050731 -0.076340 0.107660 -0.026346 0.244864 -0.107219 0.055734 -0.092022 -0.163190 0.008641 -0.256969 -0.007637 0.128914 0.009553 0.082614
21 -0.074432 -0.187167 0.100368 0.024946 0.072435 -0.067735 0.189088 -0.039647 -0.057737 0.042987 -0.119135 0.092768 0.020289 -0.104807 -0.029369 -0.175201 0.030998 -0.142759 0.051141 0.037913 0.223798 0.035038 0.099278 0.039542 -0.014151 -0.060578 -0.019758 0.048834 -0.067874 0.101393 -0.059180 0.050521 -0.058860 0.037493 -0.135097 -0.080500 0.259023 0.052764 0.043060 -0.125623 -0.258694 0.130605 0.085889 0.147900 -0.012198 0.135273 0.035859 -0.083316 -0.038925 0.123268 0.029028 0.169250 0.084465 0.142355 -0.239670 -0.137817 -0.098006 -0.018334 -0.076580 -0.045856 0.112708 -0.144160 -0.110184 0.082621 0.008211 -0.132094 -0.051409 -0.048009 -0.006978 -0.128713 -0.032166 -0.054346 -0.025515 -0.018432 0.039844 -0.071700 0.073436 0.004491 -0.053704 0.040476 -0.090297 -0.198412 0.015297 -0.128236 -0.107978 0.232958 -0.022000 -0.019709 -0.014533 -0.063970 0.018910 0.071983 0.070855 -0.010991 -0.132135 0.207324 -0.124987 -0.048454 0.036243 -0.105379 -0.141207 0.051748 -0.090561 -0.100632 -0.034525 0.031116 0.255643 0.006201 -0.087004 0.009104 -0.022034 -0.073168 -0.023137 0.051722 -0.079016 0.105096 -0.031401 0.232588 -0.099844 0.056175 -0.086451 -0.155714 0.014317 -0.248842 -0.004087 0.123203 0.017540 0.081016
12 -0.085785 -0.265400 0.101323 0.014988 0.053388 -0.122097 0.161243 0.024184 0.059593 0.046126 -0.076905 0.142747 0.030765 -0.154426 0.056809 -0.174474 -0.003508 -0.169372 0.069750 -0.030124 0.246038 0.011536 0.070766 0.032845 0.025674 -0.062821 0.011739 0.046058 -0.045873 0.110879 -0.050427 0.067365 -0.054521 0.038804 -0.102639 -0.111213 0.212663 0.075353 0.025899 -0.104559 -0.189461 0.053464 0.119258 0.164881 -0.118292 0.154006 0.038068 -0.050026 0.035982 0.148992 -0.098563 0.171639 0.057265 0.135369 -0.223668 -0.162320 -0.081026 0.018206 -0.077826 -0.087490 0.174690 -0.163734 -0.064385 0.091664 -0.092043 -0.043871 -0.049217 -0.053692 0.019749 -0.183663 -0.081101 -0.058268 -0.052348 -0.012042 0.148021 -0.013741 0.068201 -0.018647 -0.044372 -0.109519 -0.121536 -0.101600 0.005215 -0.062432 -0.174166 0.078679 0.055707 -0.060910 0.057843 -0.038603 0.108230 0.023552 0.113480 0.003168 -0.141806 0.103533 -0.059153 -0.178593 0.076187 0.034199 -0.092620 0.017997 -0.130140 -0.049311 -0.069309 -0.004328 0.227499 0.030063 -0.060926 -0.054819 -0.046442 -0.023806 0.009687 0.087517 -0.134394 0.093924 -0.030239 0.202266 -0.116664 -0.041823 -0.046808 -0.123043 0.107025 -0.214524 -0.107926 0.009704 0.020171 0.103153
