62 128
Trigger -0.020467 0.014662 -0.060709 -0.262306 0.098832 0.120474 -0.017421 -0.021333 0.005852 0.161700 0.007262 0.078087 0.044156 -0.037849 -0.012563 -0.129525 -0.025388 0.013064 0.074797 0.056042 0.009423 -0.019891 0.014956 -0.018347 -0.128926 0.071434 -0.083261 -0.078388 0.046069 0.050289 -0.107673 0.041761 0.058590 -0.025470 0.008522 -0.093305 -0.016223 0.113215 -0.039077 0.107360 -0.073085 -0.054396 -0.093206 0.107707 0.034201 -0.068624 0.010701 -0.037197 -0.179724 -0.028353 -0.008950 -0.011798 -0.067256 0.042407 -0.037869 0.058178 -0.070483 0.004852 0.112476 0.022061 -0.097454 0.055376 -0.086918 -0.002738 0.012575 -0.022385 0.050789 -0.116163 0.015787 -0.051346 0.045481 0.017718 0.042333 -0.044010 0.075778 -0.067551 0.035161 0.051568 0.091048 0.055502 0.020975 0.027270 -0.008390 0.091737 0.077443 -0.004252 -0.026587 0.000805 -0.017845 -0.067992 -0.040005 -0.034680 0.076881 0.001802 -0.014706 -0.007874 0.048794 0.007443 -0.050121 0.056242 -0.069847 0.020039 -0.015903 -0.210470 0.013459 0.121421 -0.080723 -0.018115 0.020061 -0.054910 0.001179 0.041520 0.020125 0.050621 -0.031409 -0.177481 -0.042995 -0.054397 0.049440 -0.025675 -0.078496 0.053488 0.032989 0.011160 -0.019303 -0.047413 0.013961 0.025470
Web -0.022314 0.024653 -0.064480 -0.299460 0.108967 0.142139 -0.031898 -0.032843 0.009028 0.185602 0.007574 0.089983 0.052157 -0.045914 -0.014431 -0.160084 -0.027715 0.020560 0.078967 0.071414 0.004895 -0.033209 0.026778 -0.022033 -0.145582 0.086221 -0.104073 -0.086029 0.048691 0.056909 -0.126929 0.056046 0.073402 -0.026484 0.009236 -0.106008 -0.026745 0.129265 -0.037098 0.120548 -0.080669 -0.062407 -0.107588 0.128031 0.044172 -0.072803 0.009764 -0.039548 -0.199588 -0.034728 -0.003253 -0.015501 -0.080623 0.050798 -0.047822 0.066003 -0.086152 0.012470 0.130058 0.027671 -0.119074 0.067917 -0.101348 0.000125 0.012681 -0.031339 0.049217 -0.132793 0.012591 -0.054787 0.061450 0.021734 0.043865 -0.051547 0.087838 -0.068845 0.035953 0.053667 0.110700 0.061592 0.017895 0.034105 -0.000052 0.108608 0.095618 0.000929 -0.022501 0.006145 -0.014760 -0.083719 -0.046750 -0.035507 0.091871 -0.000901 -0.018302 -0.000852 0.053214 0.006969 -0.061920 0.066505 -0.084049 0.023391 -0.011330 -0.237515 0.014301 0.141892 -0.091761 -0.025341 0.024600 -0.063557 0.008814 0.047573 0.022792 0.063111 -0.042790 -0.197964 -0.051080 -0.067925 0.056706 -0.026220 -0.091741 0.068303 0.046243 0.013072 -0.018152 -0.052865 0.015595 0.033264
SN4 -0.016359 0.019677 -0.058706 -0.262728 0.098304 0.118285 -0.019273 -0.022089 0.012262 0.161422 0.007337 0.075622 0.045965 -0.033703 -0.011391 -0.137035 -0.022279 0.019973 0.073539 0.060778 0.004442 -0.023588 0.020189 -0.019289 -0.125364 0.068585 -0.085961 -0.076097 0.048986 0.044240 -0.105105 0.042316 0.062916 -0.026341 0.010265 -0.092020 -0.017780 0.110943 -0.039627 0.102998 -0.072054 -0.051348 -0.087770 0.112408 0.039157 -0.061963 0.008557 -0.038769 -0.170860 -0.032076 -0.009051 -0.008848 -0.071432 0.044913 -0.040003 0.058965 -0.071941 0.010964 0.114175 0.027856 -0.102908 0.058456 -0.085852 -0.003553 0.009028 -0.023781 0.042281 -0.116141 0.013130 -0.045475 0.049139 0.019500 0.037638 -0.041730 0.077816 -0.065703 0.034368 0.050351 0.090568 0.054197 0.022588 0.031318 -0.004726 0.090729 0.079180 0.003766 -0.020414 0.000730 -0.016007 -0.074624 -0.036808 -0.035359 0.071057 -0.003212 -0.009427 -0.003448 0.048000 0.011169 -0.053433 0.058297 -0.074299 0.018232 -0.012953 -0.209525 0.013141 0.122952 -0.075863 -0.016639 0.023973 -0.050228 0.000580 0.037505 0.022182 0.058496 -0.037316 -0.175674 -0.040525 -0.052660 0.047997 -0.027330 -0.071838 0.053750 0.038279 0.008679 -0.013889 -0.043877 0.013563 0.031155
Jet -0.020253 0.029152 -0.076932 -0.361144 0.134316 0.165497 -0.037987 -0.031309 0.011120 0.226988 0.008345 0.104325 0.062512 -0.054433 -0.015945 -0.188564 -0.035999 0.018381 0.100660 0.083131 0.007352 -0.040491 0.027443 -0.028737 -0.170242 0.103444 -0.120678 -0.104241 0.056245 0.067469 -0.154987 0.067594 0.086855 -0.027981 0.016243 -0.126606 -0.024517 0.152173 -0.044491 0.144608 -0.099816 -0.076556 -0.125236 0.149824 0.048117 -0.090209 0.013896 -0.051434 -0.244363 -0.046895 -0.006172 -0.017906 -0.097492 0.051926 -0.050613 0.078533 -0.095254 0.006357 0.149846 0.037016 -0.142742 0.085138 -0.125852 -0.003058 0.018465 -0.036198 0.063186 -0.160170 0.019948 -0.067400 0.070882 0.027613 0.055297 -0.054144 0.108268 -0.082892 0.047765 0.060404 0.130292 0.074351 0.025843 0.039300 -0.001700 0.124201 0.107671 0.004531 -0.031046 -0.000179 -0.020781 -0.101102 -0.050862 -0.046469 0.107113 -0.002687 -0.020946 -0.004715 0.068870 0.011772 -0.072950 0.079092 -0.094930 0.029114 -0.019913 -0.285083 0.019034 0.169850 -0.109653 -0.027057 0.032798 -0.071580 0.002267 0.054015 0.030059 0.079237 -0.052892 -0.236166 -0.061835 -0.075125 0.067130 -0.035025 -0.106544 0.079570 0.052340 0.016103 -0.019924 -0.061835 0.015157 0.038952
Scabs -0.016995 0.018187 -0.063479 -0.285276 0.101133 0.135962 -0.023038 -0.024104 0.011263 0.179489 0.007539 0.079702 0.049468 -0.040809 -0.009203 -0.147531 -0.028525 0.016541 0.078515 0.061539 0.010430 -0.029238 0.018730 -0.026713 -0.140027 0.080878 -0.086699 -0.081463 0.055031 0.047984 -0.115638 0.046348 0.061979 -0.026518 0.006560 -0.105929 -0.020535 0.118921 -0.040660 0.114373 -0.075721 -0.057801 -0.095924 0.123141 0.037070 -0.075160 0.006778 -0.045326 -0.192406 -0.035269 -0.010847 -0.012932 -0.073390 0.048263 -0.037034 0.060280 -0.080334 0.005488 0.124182 0.023858 -0.108243 0.061565 -0.092911 -0.004619 0.010836 -0.023963 0.049041 -0.122336 0.012885 -0.050216 0.053612 0.019160 0.043408 -0.045438 0.081714 -0.063203 0.031789 0.050912 0.096792 0.056740 0.026428 0.028239 -0.000467 0.095578 0.088169 -0.001678 -0.023735 0.002031 -0.016197 -0.078494 -0.047675 -0.039387 0.085266 -0.006296 -0.009260 -0.007895 0.050962 0.007125 -0.054206 0.058939 -0.076329 0.020776 -0.013299 -0.228352 0.013604 0.132019 -0.088753 -0.023010 0.022451 -0.060539 0.004909 0.039297 0.021315 0.062040 -0.042181 -0.187979 -0.046487 -0.058834 0.059220 -0.026422 -0.082761 0.057517 0.041570 0.006454 -0.014737 -0.049804 0.015096 0.033906
Grin -0.019040 0.014416 -0.061940 -0.271782 0.099140 0.123776 -0.023588 -0.023866 0.008741 0.167507 0.006687 0.077384 0.044274 -0.037072 -0.004598 -0.135598 -0.025702 0.017781 0.078361 0.057854 0.009621 -0.025236 0.017071 -0.023081 -0.127174 0.072663 -0.087115 -0.082129 0.046163 0.048767 -0.114155 0.047615 0.059906 -0.022771 0.011801 -0.101800 -0.018317 0.116908 -0.040524 0.106869 -0.069135 -0.054325 -0.090853 0.117107 0.034417 -0.069091 0.005368 -0.038136 -0.183778 -0.035780 -0.004177 -0.012525 -0.076654 0.042296 -0.035433 0.054594 -0.073425 0.008831 0.116841 0.028811 -0.104002 0.058221 -0.093877 -0.002768 0.009110 -0.026525 0.050563 -0.114106 0.016448 -0.050920 0.050388 0.018014 0.037176 -0.046560 0.075826 -0.066182 0.031494 0.050235 0.098086 0.055581 0.024399 0.028057 -0.005763 0.091596 0.084359 -0.003121 -0.025047 0.001017 -0.016425 -0.072652 -0.039296 -0.031144 0.076673 -0.002815 -0.013149 -0.009528 0.045820 0.008292 -0.051360 0.058616 -0.074694 0.020780 -0.013053 -0.211612 0.016760 0.127008 -0.078825 -0.019687 0.023625 -0.056571 0.007370 0.039700 0.017902 0.055252 -0.037081 -0.178753 -0.041600 -0.055251 0.051874 -0.028605 -0.077932 0.056627 0.036259 0.007090 -0.012195 -0.047195 0.012384 0.031523
Topless -0.017879 0.015453 -0.055333 -0.239648 0.090504 0.115611 -0.019831 -0.022884 0.010957 0.150395 0.006505 0.070031 0.038055 -0.029378 -0.006197 -0.121079 -0.023129 0.012992 0.070239 0.057109 0.005247 -0.022074 0.015770 -0.020157 -0.118112 0.061957 -0.076738 -0.066922 0.038902 0.039744 -0.100696 0.039070 0.055724 -0.018714 0.011883 -0.088926 -0.017785 0.104574 -0.035006 0.092745 -0.060950 -0.044373 -0.081786 0.100282 0.031641 -0.059416 0.005496 -0.037565 -0.161799 -0.032903 -0.009028 -0.011583 -0.066107 0.040814 -0.032445 0.052215 -0.066417 0.008088 0.102068 0.021342 -0.092636 0.054033 -0.084120 -0.000107 0.013785 -0.020533 0.044794 -0.100985 0.014662 -0.047455 0.044613 0.021491 0.034020 -0.035242 0.067149 -0.060715 0.029147 0.044343 0.085024 0.053495 0.018365 0.025127 -0.006736 0.085787 0.073441 -0.002452 -0.024024 0.005912 -0.013226 -0.062315 -0.038256 -0.026776 0.065704 0.000817 -0.011096 -0.003437 0.044633 0.012535 -0.051634 0.052381 -0.060976 0.015944 -0.010926 -0.191406 0.013614 0.112519 -0.073762 -0.020676 0.020054 -0.044600 0.005905 0.035506 0.018413 0.049429 -0.031649 -0.158627 -0.042071 -0.051793 0.047870 -0.019238 -0.067559 0.047824 0.032769 0.005549 -0.017175 -0.045577 0.008262 0.025574
Gallatin -0.021053 0.020269 -0.060300 -0.273007 0.102709 0.128559 -0.028668 -0.025149 0.007065 0.172457 0.011197 0.081361 0.049861 -0.041563 -0.008497 -0.144147 -0.025305 0.012166 0.076396 0.066739 0.001428 -0.026651 0.026240 -0.021641 -0.134008 0.073535 -0.093710 -0.076928 0.045701 0.047869 -0.118364 0.051203 0.068273 -0.019742 0.008632 -0.099764 -0.019987 0.114411 -0.034660 0.110112 -0.074504 -0.057134 -0.096777 0.116252 0.038350 -0.066938 0.008133 -0.037680 -0.186417 -0.034637 -0.007183 -0.009957 -0.073318 0.041844 -0.042884 0.058891 -0.075187 0.009627 0.112859 0.024861 -0.108877 0.058816 -0.092170 0.001917 0.009805 -0.026202 0.042359 -0.119579 0.009145 -0.054987 0.053862 0.017782 0.036788 -0.044093 0.081935 -0.065195 0.031862 0.046323 0.098693 0.060784 0.016549 0.033105 -0.006783 0.094445 0.084575 0.006781 -0.023314 0.002673 -0.018756 -0.072990 -0.044967 -0.030583 0.077437 -0.004113 -0.009568 0.001016 0.050877 0.006192 -0.057093 0.059205 -0.071912 0.018870 -0.012641 -0.215919 0.010438 0.128786 -0.083902 -0.019735 0.025997 -0.049793 0.009022 0.038753 0.025487 0.059077 -0.039854 -0.184401 -0.044849 -0.055332 0.055853 -0.023520 -0.079331 0.060665 0.045085 0.006845 -0.018821 -0.049030 0.014727 0.030161
Feather -0.013423 0.022086 -0.045653 -0.228581 0.086661 0.105554 -0.025357 -0.021163 0.004061 0.140247 0.009673 0.065290 0.035184 -0.033635 -0.010140 -0.119115 -0.022997 0.014005 0.059876 0.052776 0.002593 -0.026177 0.016338 -0.017419 -0.112298 0.064761 -0.074518 -0.064879 0.039965 0.036697 -0.099187 0.040594 0.055157 -0.018277 0.008683 -0.086243 -0.018929 0.098578 -0.033549 0.093376 -0.066446 -0.043881 -0.079489 0.092441 0.036917 -0.060890 0.004144 -0.028052 -0.155101 -0.025388 -0.002790 -0.006708 -0.061696 0.033349 -0.038006 0.053099 -0.066701 0.009431 0.097232 0.020780 -0.092206 0.054820 -0.075917 -0.002907 0.010763 -0.018305 0.035567 -0.098862 0.008716 -0.039723 0.045083 0.019600 0.032157 -0.032334 0.067877 -0.050927 0.026398 0.043187 0.079254 0.049007 0.013155 0.027711 0.000358 0.080291 0.072444 0.005979 -0.015518 0.001181 -0.015693 -0.059021 -0.032949 -0.024547 0.069941 0.002139 -0.007830 -0.000351 0.044394 0.010644 -0.045591 0.046891 -0.057558 0.019732 -0.010936 -0.183533 0.012126 0.103710 -0.069238 -0.019310 0.016095 -0.042101 0.007973 0.038503 0.017774 0.048314 -0.032218 -0.153109 -0.040878 -0.053034 0.044025 -0.024129 -0.067848 0.047124 0.036986 0.010842 -0.014343 -0.040403 0.009980 0.026715
Kringel -0.018673 0.018206 -0.070054 -0.313338 0.112671 0.147575 -0.030708 -0.029553 0.014365 0.194748 0.006924 0.089907 0.052402 -0.039580 -0.011080 -0.163416 -0.032638 0.018188 0.090277 0.065832 0.007936 -0.026531 0.026553 -0.021830 -0.155542 0.087945 -0.101624 -0.088758 0.056808 0.057291 -0.129564 0.049469 0.072965 -0.026446 0.008398 -0.118183 -0.019989 0.137186 -0.044174 0.125971 -0.080628 -0.064573 -0.103809 0.127525 0.043935 -0.081155 0.014128 -0.043036 -0.214316 -0.041586 -0.010090 -0.014907 -0.089543 0.051007 -0.041920 0.067737 -0.086796 0.004904 0.135574 0.029280 -0.124264 0.069740 -0.108607 -0.001754 0.017349 -0.032562 0.057212 -0.137855 0.012107 -0.055824 0.061211 0.028045 0.044230 -0.052879 0.095786 -0.072203 0.042206 0.059517 0.112530 0.066507 0.026720 0.033170 -0.005924 0.105799 0.094268 0.003450 -0.023650 0.006148 -0.015981 -0.084523 -0.048806 -0.037977 0.088734 -0.004897 -0.015886 -0.004242 0.057102 0.013520 -0.062209 0.068421 -0.086420 0.017527 -0.012173 -0.249756 0.014549 0.143115 -0.092574 -0.023591 0.026332 -0.064393 0.006810 0.052616 0.027313 0.066239 -0.039056 -0.211601 -0.052617 -0.070097 0.065139 -0.030092 -0.092324 0.062905 0.042816 0.012875 -0.020633 -0.060896 0.010729 0.037453
SN63 -0.019130 0.015028 -0.062102 -0.295262 0.112394 0.144763 -0.030247 -0.029798 0.008541 0.187362 0.007448 0.082442 0.049216 -0.041376 -0.007008 -0.155328 -0.031470 0.020997 0.083951 0.064837 0.008002 -0.030071 0.024310 -0.022130 -0.140673 0.079946 -0.091052 -0.087467 0.055828 0.056544 -0.123817 0.053103 0.069704 -0.022480 0.007435 -0.112825 -0.018844 0.123691 -0.046190 0.124236 -0.076159 -0.061642 -0.104704 0.123271 0.041343 -0.073593 0.007226 -0.047866 -0.200212 -0.040782 -0.009262 -0.010993 -0.080532 0.047454 -0.040554 0.067150 -0.079309 0.011410 0.129812 0.032686 -0.117876 0.065138 -0.103037 -0.002946 0.010100 -0.030237 0.054916 -0.127351 0.011592 -0.050749 0.055129 0.025963 0.042474 -0.045749 0.083690 -0.067583 0.032818 0.052177 0.106240 0.062655 0.025904 0.031959 -0.007366 0.103043 0.090005 -0.000773 -0.030671 0.003029 -0.016310 -0.080094 -0.048875 -0.039366 0.088827 -0.007618 -0.013848 -0.008361 0.051109 0.007427 -0.060705 0.068350 -0.084963 0.018912 -0.016211 -0.236852 0.019758 0.135791 -0.087549 -0.021233 0.019777 -0.057592 0.006998 0.042713 0.023845 0.063726 -0.041068 -0.195835 -0.053544 -0.059278 0.057857 -0.025114 -0.083641 0.062507 0.042444 0.004708 -0.019098 -0.051672 0.016625 0.033735
Beescratch -0.020076 0.021751 -0.062863 -0.268295 0.101730 0.129037 -0.021241 -0.023349 0.010498 0.170670 0.009887 0.072718 0.049400 -0.032969 -0.006274 -0.143056 -0.021602 0.013883 0.069974 0.058668 0.003565 -0.028892 0.024542 -0.017036 -0.133768 0.074299 -0.082985 -0.080135 0.041648 0.045484 -0.111852 0.043612 0.061836 -0.020465 0.012656 -0.099912 -0.019430 0.114033 -0.036491 0.111027 -0.075740 -0.053928 -0.093983 0.114238 0.040827 -0.069353 0.012282 -0.042939 -0.184281 -0.036204 -0.009237 -0.010416 -0.073891 0.040657 -0.042281 0.054806 -0.074249 0.005612 0.115932 0.024525 -0.106376 0.061762 -0.090642 -0.003360 0.009713 -0.028696 0.050883 -0.112829 0.013361 -0.050500 0.054794 0.018029 0.044219 -0.045361 0.080991 -0.065729 0.036188 0.045691 0.093033 0.056382 0.017374 0.028378 -0.002972 0.099672 0.087360 -0.000448 -0.021407 0.005073 -0.018182 -0.072353 -0.045955 -0.032272 0.081124 -0.004650 -0.015407 -0.001221 0.048817 0.011843 -0.052569 0.058894 -0.072871 0.021488 -0.016680 -0.217904 0.013911 0.125480 -0.078127 -0.017322 0.024106 -0.056942 0.000863 0.044670 0.018123 0.058523 -0.034270 -0.181776 -0.050055 -0.058191 0.049869 -0.024162 -0.074735 0.057199 0.040105 0.009158 -0.011816 -0.048597 0.011294 0.030313
Patchback -0.019452 0.017933 -0.057782 -0.275324 0.103514 0.125070 -0.022898 -0.024642 0.005730 0.173833 0.003141 0.077579 0.048420 -0.039025 -0.009758 -0.138097 -0.024215 0.015707 0.072985 0.065325 0.009320 -0.026824 0.022583 -0.021599 -0.132494 0.077736 -0.085249 -0.078125 0.048226 0.048524 -0.116360 0.049327 0.064865 -0.022105 0.010311 -0.102218 -0.021299 0.118639 -0.037084 0.114429 -0.073151 -0.058726 -0.094689 0.116986 0.039193 -0.067220 0.004298 -0.041795 -0.183965 -0.036895 -0.004441 -0.012884 -0.075660 0.041444 -0.039504 0.062444 -0.078249 0.008320 0.114472 0.029601 -0.107959 0.063114 -0.095563 0.002719 0.014276 -0.027556 0.052929 -0.120673 0.011088 -0.048416 0.053086 0.020075 0.043541 -0.040686 0.078509 -0.067461 0.033873 0.053097 0.097016 0.058189 0.019178 0.028885 -0.006470 0.095775 0.084669 0.001266 -0.023274 0.000158 -0.016957 -0.076000 -0.041154 -0.037931 0.082459 -0.002255 -0.014138 -0.001813 0.046392 0.013996 -0.054137 0.058939 -0.074432 0.016587 -0.014299 -0.220075 0.013935 0.128647 -0.082857 -0.021383 0.024082 -0.059376 0.001535 0.039826 0.024309 0.057547 -0.040592 -0.182947 -0.048454 -0.058514 0.052142 -0.022018 -0.077211 0.059757 0.042942 0.010448 -0.017814 -0.053664 0.016326 0.032278
Stripes -0.014340 0.018371 -0.055074 -0.241016 0.086747 0.114370 -0.020161 -0.021423 0.004461 0.150160 0.003234 0.071667 0.038520 -0.036090 -0.005655 -0.124141 -0.023406 0.018527 0.065420 0.052788 0.009242 -0.018117 0.013027 -0.019912 -0.112815 0.068425 -0.077226 -0.072200 0.046784 0.045945 -0.095742 0.042836 0.054826 -0.021354 0.005650 -0.085531 -0.015975 0.099243 -0.030785 0.098044 -0.059119 -0.045037 -0.082038 0.098376 0.030339 -0.057942 0.006242 -0.035384 -0.158423 -0.032881 -0.003626 -0.011494 -0.067056 0.041112 -0.031913 0.049102 -0.063133 0.004969 0.102129 0.021780 -0.089049 0.053560 -0.081789 -0.001486 0.010018 -0.021826 0.040723 -0.103004 0.008037 -0.042249 0.047102 0.016974 0.038164 -0.041617 0.072133 -0.053107 0.025492 0.045042 0.083409 0.052050 0.021800 0.024838 -0.003772 0.087514 0.074994 0.000929 -0.020824 0.004572 -0.018301 -0.066768 -0.036497 -0.032095 0.065565 -0.007835 -0.011422 -0.005168 0.047402 0.004627 -0.043953 0.054764 -0.068884 0.014491 -0.013638 -0.191106 0.014355 0.111902 -0.075961 -0.014791 0.021718 -0.052060 0.005342 0.033114 0.019394 0.052872 -0.031784 -0.158005 -0.042003 -0.046146 0.043445 -0.023177 -0.069828 0.048003 0.030813 0.006778 -0.011967 -0.043681 0.015043 0.028671
Upbang -0.011633 0.022552 -0.047175 -0.227034 0.088719 0.106996 -0.019313 -0.023661 0.007922 0.147460 0.009206 0.065732 0.042299 -0.030611 -0.010317 -0.121868 -0.019555 0.008967 0.066144 0.054227 0.005142 -0.024295 0.015382 -0.020677 -0.113561 0.067196 -0.079884 -0.068912 0.037417 0.044818 -0.097952 0.043034 0.058744 -0.018739 0.008552 -0.086522 -0.018655 0.094448 -0.030103 0.097380 -0.064132 -0.050353 -0.080905 0.097661 0.031144 -0.057639 0.011331 -0.032089 -0.159638 -0.025212 -0.009948 -0.013254 -0.066866 0.038880 -0.032142 0.046095 -0.066283 0.002663 0.098699 0.022851 -0.092408 0.053789 -0.077944 0.000634 0.007878 -0.022615 0.041586 -0.100773 0.010560 -0.047265 0.041539 0.017601 0.031189 -0.036988 0.069329 -0.056570 0.027321 0.040647 0.081930 0.045611 0.014469 0.023023 -0.000360 0.081921 0.072578 0.003502 -0.019261 0.000943 -0.011649 -0.061489 -0.039128 -0.031150 0.070046 -0.001926 -0.015583 -0.005348 0.041465 0.004442 -0.050686 0.050960 -0.064073 0.017520 -0.007107 -0.188519 0.015902 0.104160 -0.069203 -0.014827 0.021561 -0.049293 0.003852 0.040688 0.022649 0.044390 -0.033201 -0.157945 -0.043255 -0.050879 0.042933 -0.018483 -0.067499 0.046792 0.037059 0.007958 -0.015264 -0.037946 0.012730 0.027950
MN105 -0.016414 0.009604 -0.041594 -0.196651 0.072610 0.094750 -0.013899 -0.020020 0.004946 0.123555 0.002430 0.055681 0.033858 -0.027885 -0.005214 -0.103670 -0.016366 0.009926 0.056279 0.042345 0.002179 -0.018805 0.017943 -0.018452 -0.094082 0.052659 -0.062253 -0.056445 0.032500 0.032669 -0.084100 0.036023 0.050421 -0.020617 0.008146 -0.069828 -0.009837 0.080322 -0.024163 0.076482 -0.049942 -0.042543 -0.068502 0.080114 0.025017 -0.046637 0.009795 -0.024210 -0.135804 -0.024609 -0.008700 -0.011792 -0.055931 0.033055 -0.031110 0.040968 -0.056083 0.009274 0.084087 0.017317 -0.076125 0.045979 -0.070906 0.000641 0.010297 -0.014245 0.035126 -0.085579 0.006706 -0.037404 0.039919 0.018204 0.025129 -0.029506 0.056450 -0.050798 0.020511 0.039860 0.066522 0.039076 0.018429 0.024034 -0.000904 0.071122 0.060195 0.003194 -0.017293 0.000218 -0.012225 -0.056071 -0.032520 -0.023785 0.060501 -0.003446 -0.007314 -0.004512 0.037126 0.010065 -0.038995 0.043219 -0.055369 0.017032 -0.008359 -0.160581 0.014504 0.086465 -0.055420 -0.016610 0.013405 -0.037213 -0.000632 0.032336 0.019835 0.042362 -0.022390 -0.135781 -0.031578 -0.042349 0.038735 -0.021567 -0.061055 0.041785 0.025135 0.006093 -0.013289 -0.038070 0.011657 0.021281
TR77 -0.013638 0.013343 -0.056058 -0.258813 0.097031 0.124034 -0.021892 -0.026905 0.011126 0.163190 0.007325 0.071037 0.039976 -0.030698 -0.007853 -0.133128 -0.027813 0.017760 0.074553 0.059950 0.011000 -0.023494 0.023818 -0.021312 -0.126033 0.070677 -0.080708 -0.079122 0.046716 0.042906 -0.111505 0.045904 0.058460 -0.026330 0.006302 -0.094527 -0.017757 0.113893 -0.034948 0.108087 -0.067461 -0.054610 -0.088992 0.112353 0.038106 -0.066550 0.012712 -0.035788 -0.176718 -0.030381 -0.009219 -0.011816 -0.075269 0.041082 -0.034893 0.056480 -0.067424 0.005731 0.112600 0.026893 -0.099708 0.055908 -0.092137 -0.001464 0.011947 -0.023149 0.048433 -0.112914 0.009434 -0.049610 0.052721 0.018878 0.037358 -0.040502 0.081665 -0.062289 0.032028 0.046617 0.090852 0.052927 0.016087 0.023329 -0.005975 0.095108 0.076211 -0.003705 -0.021019 -0.000052 -0.012648 -0.068297 -0.042321 -0.029342 0.079142 -0.002035 -0.010934 -0.009031 0.049978 0.014220 -0.053283 0.057943 -0.065544 0.020453 -0.012510 -0.209315 0.014772 0.118158 -0.075232 -0.019769 0.021712 -0.056247 0.004008 0.043298 0.018804 0.049943 -0.031988 -0.174373 -0.046764 -0.056503 0.049666 -0.025606 -0.073810 0.051073 0.036692 0.007905 -0.014658 -0.048715 0.010083 0.025369
DN21 -0.013700 0.015631 -0.039343 -0.167661 0.064909 0.078824 -0.015138 -0.015955 0.002929 0.106754 0.002514 0.049105 0.026347 -0.021024 -0.007933 -0.090456 -0.013678 0.008320 0.045994 0.039742 0.005997 -0.017594 0.017452 -0.012491 -0.083453 0.048199 -0.060558 -0.047692 0.027532 0.030733 -0.075244 0.027279 0.043926 -0.016724 0.008764 -0.062984 -0.013559 0.070571 -0.019905 0.071616 -0.049999 -0.031490 -0.057390 0.070631 0.021745 -0.042978 0.004127 -0.025624 -0.117345 -0.017279 -0.002844 -0.009092 -0.044848 0.030671 -0.028332 0.035365 -0.044579 0.002855 0.073875 0.019634 -0.065110 0.041914 -0.060763 0.001747 0.011107 -0.017823 0.025422 -0.075115 0.008463 -0.033234 0.029782 0.008997 0.028485 -0.025099 0.050480 -0.038129 0.024848 0.027483 0.064259 0.037713 0.009370 0.022026 -0.000078 0.062214 0.051889 0.004957 -0.012505 -0.001974 -0.014029 -0.049915 -0.026376 -0.022146 0.052536 0.001553 -0.007007 -0.003825 0.030347 0.002556 -0.031740 0.038666 -0.047281 0.010136 -0.009939 -0.139516 0.008115 0.082008 -0.055422 -0.014095 0.017131 -0.035032 -0.000058 0.024212 0.016190 0.039638 -0.025713 -0.117006 -0.029799 -0.040969 0.033280 -0.019025 -0.052291 0.038649 0.025913 0.007459 -0.013977 -0.031518 0.011629 0.023842
SN90 -0.008699 0.017181 -0.038558 -0.184526 0.070883 0.092131 -0.022356 -0.018854 0.005082 0.121081 0.002804 0.053788 0.032827 -0.027087 -0.009246 -0.097181 -0.016061 0.006727 0.049588 0.044626 -0.000652 -0.021513 0.017752 -0.012051 -0.094611 0.056080 -0.066375 -0.056373 0.031792 0.035424 -0.080634 0.035623 0.049774 -0.012843 0.009050 -0.067027 -0.014738 0.082688 -0.023123 0.077606 -0.050262 -0.039007 -0.068208 0.075584 0.025250 -0.045636 0.006258 -0.029874 -0.126247 -0.020902 -0.007578 -0.006490 -0.053726 0.034005 -0.027327 0.042674 -0.052996 0.001945 0.076202 0.016670 -0.074614 0.043417 -0.060770 -0.001680 0.008836 -0.014370 0.028244 -0.080812 0.005806 -0.039764 0.039669 0.012909 0.031049 -0.030888 0.059123 -0.046491 0.027212 0.034131 0.068522 0.043247 0.012418 0.022443 0.002266 0.070606 0.056883 0.004415 -0.017177 0.002325 -0.013813 -0.054337 -0.028922 -0.027078 0.055149 0.000855 -0.008121 0.000285 0.034791 0.009805 -0.040011 0.043406 -0.052025 0.014794 -0.005479 -0.152313 0.011125 0.091816 -0.060687 -0.013818 0.014698 -0.034460 0.005938 0.030940 0.015434 0.036341 -0.028418 -0.123947 -0.036596 -0.038040 0.038845 -0.015826 -0.059426 0.043107 0.032172 0.007781 -0.010276 -0.031899 0.005373 0.025512
Jonah -0.010650 0.014714 -0.039513 -0.190984 0.074539 0.091440 -0.013165 -0.018284 0.005041 0.123009 0.006251 0.050675 0.028464 -0.022145 -0.009554 -0.102478 -0.017454 0.012842 0.056656 0.046209 0.002157 -0.013383 0.011540 -0.016935 -0.096310 0.049931 -0.060906 -0.057439 0.031883 0.037117 -0.080386 0.033744 0.044655 -0.019602 0.004821 -0.071301 -0.012524 0.080309 -0.024032 0.078110 -0.054574 -0.039158 -0.069187 0.080871 0.030900 -0.049925 0.009128 -0.025597 -0.134794 -0.025480 -0.008853 -0.008003 -0.051032 0.030107 -0.029094 0.043162 -0.050611 0.002494 0.081009 0.020435 -0.078121 0.046379 -0.070200 -0.001915 0.005244 -0.014596 0.033651 -0.083967 0.013349 -0.036897 0.033943 0.011928 0.026789 -0.031605 0.058965 -0.044563 0.021222 0.037568 0.067563 0.037015 0.013760 0.018830 0.000776 0.071200 0.055923 -0.003144 -0.016527 0.004478 -0.010157 -0.052909 -0.032385 -0.025768 0.058789 -0.005685 -0.007359 -0.006927 0.038930 0.010553 -0.037031 0.038440 -0.050172 0.016432 -0.007460 -0.150176 0.009412 0.090844 -0.059425 -0.015068 0.018304 -0.036655 0.005928 0.034205 0.018496 0.036414 -0.022602 -0.127167 -0.030346 -0.038094 0.039304 -0.021003 -0.055959 0.039900 0.029027 0.005724 -0.008112 -0.035806 0.012504 0.016510
Haecksel -0.017141 0.017690 -0.046142 -0.219318 0.077787 0.103950 -0.017741 -0.020498 0.008882 0.132539 0.004418 0.063205 0.038550 -0.030814 -0.004152 -0.107008 -0.019286 0.016899 0.062698 0.051700 0.007449 -0.018508 0.016878 -0.014171 -0.110318 0.059688 -0.068467 -0.067219 0.042635 0.042512 -0.093905 0.041110 0.046388 -0.022648 0.008198 -0.077385 -0.017233 0.094793 -0.035277 0.083994 -0.059200 -0.040201 -0.074405 0.094281 0.033924 -0.058580 0.009005 -0.032333 -0.144347 -0.025280 -0.002872 -0.011376 -0.060295 0.033122 -0.031298 0.048084 -0.062850 0.007957 0.089140 0.018982 -0.085626 0.049986 -0.072603 0.000162 0.008190 -0.023156 0.035923 -0.090192 0.011339 -0.040050 0.044043 0.014488 0.029130 -0.037466 0.064200 -0.056743 0.025400 0.040256 0.078551 0.046755 0.015428 0.025225 -0.004985 0.075254 0.063426 -0.001178 -0.020862 0.000636 -0.009373 -0.059786 -0.037565 -0.029722 0.067275 -0.005353 -0.007662 -0.003787 0.040748 0.008018 -0.048446 0.044389 -0.055759 0.011625 -0.008626 -0.175846 0.015113 0.098341 -0.069280 -0.016181 0.016038 -0.041990 0.005790 0.038193 0.016293 0.045323 -0.030585 -0.149719 -0.034223 -0.048237 0.041895 -0.023563 -0.064724 0.048394 0.034271 0.001748 -0.015278 -0.035818 0.009680 0.020975
DN63 -0.013852 0.021374 -0.048891 -0.227474 0.082039 0.109232 -0.023416 -0.025202 0.010213 0.146301 0.009953 0.069387 0.043204 -0.034144 -0.010188 -0.122494 -0.022130 0.013421 0.058670 0.050962 0.007386 -0.021839 0.020591 -0.019193 -0.113843 0.067302 -0.073377 -0.070839 0.036920 0.041913 -0.100372 0.035773 0.054629 -0.024002 0.006068 -0.089246 -0.020230 0.103270 -0.033654 0.097251 -0.066517 -0.048373 -0.082241 0.093848 0.032305 -0.058500 0.007566 -0.038017 -0.160572 -0.032526 -0.008243 -0.010251 -0.066038 0.035787 -0.039181 0.052526 -0.065701 0.002062 0.098527 0.020431 -0.086595 0.056468 -0.079830 -0.000385 0.013117 -0.021360 0.042878 -0.100036 0.007772 -0.039421 0.044492 0.020605 0.035378 -0.035112 0.071511 -0.060079 0.027209 0.044645 0.084407 0.044611 0.018404 0.024954 -0.003948 0.086169 0.074362 0.003527 -0.021501 0.001887 -0.017901 -0.062300 -0.034216 -0.025283 0.067514 -0.006829 -0.012986 -0.004533 0.044141 0.012384 -0.044933 0.047810 -0.062835 0.014953 -0.009228 -0.184884 0.015729 0.107392 -0.065896 -0.017490 0.018474 -0.052085 0.005176 0.041645 0.021276 0.050258 -0.035671 -0.151806 -0.039412 -0.053112 0.044191 -0.021715 -0.071766 0.047940 0.032021 0.005245 -0.017652 -0.043220 0.007663 0.030493
SN100 -0.018122 0.015382 -0.049615 -0.222499 0.082770 0.107429 -0.017059 -0.019326 0.010016 0.140290 0.003222 0.059666 0.033530 -0.030489 -0.009440 -0.115276 -0.018693 0.011779 0.062620 0.047666 0.003408 -0.024127 0.016246 -0.020750 -0.109115 0.063159 -0.070977 -0.067819 0.041902 0.041693 -0.096493 0.038347 0.053137 -0.017923 0.011115 -0.081468 -0.019437 0.091974 -0.031050 0.089844 -0.061162 -0.044369 -0.079300 0.094998 0.030100 -0.054735 0.006057 -0.030502 -0.148834 -0.029325 -0.006858 -0.012627 -0.062401 0.035836 -0.035997 0.048902 -0.063964 0.010613 0.095375 0.018808 -0.083966 0.052085 -0.078688 0.002680 0.012381 -0.019658 0.042033 -0.091200 0.013768 -0.037329 0.044351 0.019786 0.035643 -0.036180 0.069354 -0.051634 0.030334 0.039973 0.077174 0.047514 0.018883 0.024847 -0.000510 0.074609 0.066771 -0.003946 -0.016885 0.004325 -0.009323 -0.062015 -0.035638 -0.023034 0.061589 0.000266 -0.007888 -0.006803 0.037918 0.008365 -0.048205 0.045975 -0.056154 0.010854 -0.006933 -0.178050 0.012467 0.100793 -0.067596 -0.016335 0.017863 -0.045660 -0.001112 0.035925 0.015435 0.046670 -0.026243 -0.149439 -0.037133 -0.048388 0.047339 -0.023684 -0.063348 0.050932 0.033735 0.009217 -0.008742 -0.040671 0.007023 0.024700
TR99 -0.011526 0.012154 -0.051684 -0.225289 0.082696 0.109651 -0.016317 -0.023465 0.011260 0.136028 0.007134 0.065991 0.037067 -0.028507 -0.003492 -0.111790 -0.019606 0.012555 0.062439 0.052929 0.005340 -0.019132 0.013521 -0.014576 -0.109005 0.059623 -0.072836 -0.062826 0.036775 0.044054 -0.095568 0.036071 0.054087 -0.021263 0.006997 -0.086359 -0.012697 0.097469 -0.033242 0.092111 -0.058829 -0.046221 -0.073849 0.092152 0.029076 -0.056729 0.004672 -0.028795 -0.154000 -0.028928 -0.005122 -0.011684 -0.061760 0.034884 -0.035513 0.049430 -0.062809 0.002365 0.092558 0.024672 -0.090053 0.049574 -0.081332 -0.002448 0.008969 -0.020622 0.038973 -0.096730 0.008014 -0.044873 0.044919 0.017187 0.030533 -0.035992 0.069547 -0.055855 0.023886 0.044467 0.082588 0.046245 0.016413 0.025508 -0.000998 0.076935 0.071089 -0.004290 -0.020050 0.005819 -0.016781 -0.060287 -0.036954 -0.024166 0.064866 -0.006155 -0.010394 -0.003569 0.044380 0.007833 -0.044011 0.052415 -0.056667 0.012245 -0.009166 -0.182068 0.010384 0.100988 -0.070229 -0.015067 0.018155 -0.042079 0.005865 0.038726 0.018123 0.042598 -0.026481 -0.152534 -0.036985 -0.043870 0.045805 -0.021876 -0.061201 0.048656 0.029262 0.004413 -0.013898 -0.045139 0.014574 0.023921
MN83 -0.015683 0.017400 -0.047425 -0.220285 0.079062 0.104346 -0.019175 -0.023612 0.008580 0.144131 0.007423 0.065986 0.036425 -0.026085 -0.010676 -0.116774 -0.023453 0.014200 0.066153 0.053288 0.007792 -0.018502 0.012485 -0.020299 -0.112387 0.060374 -0.072947 -0.069299 0.041872 0.039740 -0.097936 0.040691 0.056397 -0.015983 0.006540 -0.078464 -0.012907 0.095712 -0.033406 0.091166 -0.062891 -0.042886 -0.081259 0.094462 0.036019 -0.055196 0.004934 -0.031339 -0.155060 -0.028229 -0.004505 -0.007038 -0.057761 0.038137 -0.034036 0.046885 -0.065158 0.009423 0.092119 0.019585 -0.083368 0.054540 -0.079464 0.003042 0.011123 -0.023318 0.043619 -0.096003 0.015494 -0.044019 0.043836 0.013334 0.030381 -0.035025 0.064199 -0.057558 0.030459 0.039556 0.079308 0.050022 0.016262 0.021271 -0.006092 0.081647 0.067553 -0.002727 -0.017486 -0.001420 -0.012888 -0.057269 -0.035793 -0.026007 0.069066 0.001346 -0.013084 -0.008315 0.039820 0.010421 -0.047713 0.046524 -0.062638 0.014628 -0.012425 -0.177898 0.011722 0.103640 -0.070032 -0.015593 0.018808 -0.045454 0.006146 0.034040 0.016092 0.046845 -0.030118 -0.153624 -0.040899 -0.045630 0.046359 -0.019033 -0.061604 0.051160 0.030395 0.004036 -0.013578 -0.043988 0.011284 0.022215
DN16 -0.012814 0.016202 -0.051054 -0.225570 0.082614 0.101543 -0.024766 -0.018757 0.007902 0.142386 0.006900 0.064985 0.039188 -0.031374 -0.010567 -0.119345 -0.019055 0.009585 0.056933 0.052404 0.001304 -0.019521 0.018141 -0.020820 -0.108337 0.060869 -0.073491 -0.063621 0.035858 0.039989 -0.098048 0.043038 0.058080 -0.021543 0.008013 -0.083286 -0.017740 0.093781 -0.027670 0.092615 -0.064787 -0.050022 -0.077549 0.092273 0.031620 -0.056926 0.008134 -0.033237 -0.153817 -0.025472 -0.002663 -0.013084 -0.060552 0.036193 -0.032499 0.049760 -0.063352 0.005411 0.091470 0.019754 -0.084879 0.053891 -0.078380 -0.002843 0.008019 -0.017123 0.038946 -0.100358 0.013086 -0.044039 0.042544 0.015907 0.035424 -0.032026 0.066165 -0.049420 0.027068 0.042406 0.077620 0.046698 0.011239 0.028314 -0.002720 0.083954 0.070910 0.004949 -0.018401 0.000724 -0.012656 -0.062617 -0.033338 -0.031449 0.064343 0.000722 -0.011338 0.000854 0.041372 0.004673 -0.049376 0.052145 -0.060587 0.017109 -0.014599 -0.179830 0.011748 0.104288 -0.071958 -0.019729 0.019599 -0.045098 0.007694 0.031645 0.018996 0.051737 -0.036070 -0.151080 -0.040547 -0.046002 0.048176 -0.024572 -0.068634 0.044093 0.031877 0.007620 -0.016763 -0.040763 0.010419 0.029463
Ripplefluke -0.013395 0.020626 -0.050116 -0.225919 0.086454 0.108047 -0.022079 -0.026098 0.003602 0.137172 0.009277 0.062510 0.040822 -0.028944 -0.003741 -0.117574 -0.019398 0.013906 0.061057 0.056115 0.002033 -0.018189 0.020654 -0.014571 -0.107739 0.065095 -0.074923 -0.068754 0.032996 0.036103 -0.096962 0.041897 0.055392 -0.023649 0.007736 -0.080296 -0.017405 0.091214 -0.027202 0.092867 -0.062881 -0.049324 -0.081537 0.097149 0.036725 -0.051659 0.008589 -0.031356 -0.146777 -0.024850 -0.006294 -0.006603 -0.059675 0.035560 -0.037689 0.049400 -0.060633 0.002630 0.093952 0.022416 -0.087041 0.054249 -0.077765 -0.002299 0.009160 -0.021517 0.032247 -0.103067 0.013779 -0.045030 0.045393 0.017657 0.034465 -0.038033 0.071277 -0.055579 0.027832 0.043579 0.079986 0.048087 0.009965 0.030137 -0.000560 0.079712 0.064239 0.003939 -0.017491 0.003517 -0.015634 -0.058093 -0.032092 -0.024691 0.066235 0.001850 -0.013669 0.002272 0.043943 0.009599 -0.046479 0.051735 -0.055176 0.013477 -0.011749 -0.177369 0.007863 0.109317 -0.073085 -0.020878 0.018887 -0.039953 0.008447 0.034312 0.023769 0.051044 -0.037081 -0.150058 -0.041677 -0.052090 0.047438 -0.018839 -0.063025 0.049225 0.037696 0.012398 -0.011484 -0.044424 0.006061 0.027258
Number1 -0.008934 0.016465 -0.043284 -0.187297 0.068792 0.087734 -0.019265 -0.016914 0.006829 0.115468 0.003318 0.051132 0.035259 -0.025138 -0.003020 -0.099283 -0.018265 0.010086 0.055107 0.042097 0.007852 -0.021432 0.015869 -0.017548 -0.094567 0.051504 -0.058487 -0.057731 0.034279 0.036801 -0.081219 0.031362 0.039979 -0.019865 0.010648 -0.071060 -0.009410 0.076221 -0.027397 0.079609 -0.049039 -0.033663 -0.060417 0.079773 0.027418 -0.043119 0.005406 -0.030530 -0.127841 -0.024304 -0.007231 -0.011746 -0.050133 0.026484 -0.027954 0.038456 -0.052749 0.003161 0.078277 0.016325 -0.071869 0.038598 -0.063316 -0.001605 0.009089 -0.017831 0.033910 -0.083636 0.012737 -0.031866 0.040311 0.013236 0.030619 -0.029930 0.051923 -0.047655 0.026230 0.029975 0.066710 0.038375 0.010500 0.017800 -0.003308 0.068666 0.055626 -0.002239 -0.020003 -0.000406 -0.011686 -0.053853 -0.031053 -0.025837 0.057116 -0.000477 -0.005634 -0.002279 0.033275 0.006794 -0.039775 0.036074 -0.052089 0.016468 -0.010276 -0.146876 0.011088 0.089478 -0.060707 -0.011048 0.015083 -0.040561 0.002158 0.030448 0.012268 0.037269 -0.028511 -0.121975 -0.031578 -0.043849 0.034875 -0.016326 -0.056640 0.042664 0.029574 0.007970 -0.008064 -0.036975 0.006997 0.019724
Hook -0.015545 0.012958 -0.042819 -0.202948 0.079512 0.100150 -0.018745 -0.023377 0.011284 0.132459 0.004017 0.059395 0.032401 -0.027660 -0.007564 -0.108689 -0.021012 0.015496 0.059304 0.043835 0.009452 -0.019486 0.012982 -0.017078 -0.097092 0.057929 -0.068185 -0.057344 0.040330 0.034625 -0.083667 0.032490 0.045730 -0.021995 0.007154 -0.080339 -0.017682 0.093372 -0.031943 0.081890 -0.057316 -0.038363 -0.071885 0.088235 0.032118 -0.053984 0.007869 -0.035103 -0.143272 -0.028536 -0.007133 -0.008731 -0.057784 0.033069 -0.033361 0.049271 -0.053444 0.004688 0.088902 0.016117 -0.083133 0.042905 -0.071078 0.002022 0.006840 -0.024210 0.036451 -0.086326 0.012401 -0.033731 0.035697 0.020154 0.026134 -0.037520 0.061482 -0.052780 0.023889 0.033721 0.072090 0.041495 0.017898 0.021907 -0.001079 0.069811 0.067161 0.000440 -0.015963 0.001318 -0.015938 -0.058591 -0.033931 -0.024624 0.058468 -0.000202 -0.011331 -0.006847 0.038718 0.007873 -0.041838 0.043431 -0.059971 0.011346 -0.006765 -0.168570 0.015870 0.097591 -0.058063 -0.018883 0.016139 -0.046591 0.001111 0.031874 0.016562 0.041547 -0.024517 -0.141510 -0.032280 -0.045946 0.040560 -0.018193 -0.059350 0.045472 0.033406 0.003244 -0.008177 -0.041415 0.006614 0.025767
SN9 -0.020682 0.014236 -0.055972 -0.262619 0.097491 0.122222 -0.026446 -0.021447 0.008744 0.166926 0.009414 0.076719 0.040360 -0.036070 -0.006216 -0.138447 -0.023022 0.018985 0.073332 0.060457 0.008029 -0.024936 0.019566 -0.023686 -0.123457 0.074713 -0.083652 -0.075139 0.042784 0.046408 -0.109388 0.041002 0.058930 -0.022423 0.005059 -0.095633 -0.016018 0.115430 -0.038219 0.104494 -0.072643 -0.054968 -0.090987 0.114057 0.037829 -0.066056 0.004822 -0.038089 -0.172711 -0.029625 -0.005554 -0.014737 -0.069847 0.038623 -0.034871 0.058310 -0.068479 0.011463 0.110253 0.025445 -0.101099 0.061715 -0.086462 0.001571 0.014142 -0.025869 0.048964 -0.109457 0.012776 -0.044452 0.047763 0.021930 0.040209 -0.038935 0.077603 -0.065220 0.034398 0.044213 0.091452 0.053310 0.017322 0.028196 -0.002409 0.092815 0.077469 -0.002888 -0.020780 0.004743 -0.012436 -0.067508 -0.042221 -0.030658 0.072663 -0.002210 -0.015720 -0.002621 0.048425 0.011616 -0.055996 0.056946 -0.072106 0.016044 -0.012624 -0.204260 0.014967 0.122713 -0.079732 -0.017490 0.017772 -0.055167 0.000925 0.042761 0.023563 0.057173 -0.032871 -0.175165 -0.042686 -0.051799 0.049751 -0.021633 -0.075607 0.053925 0.041033 0.009408 -0.015672 -0.043537 0.016139 0.031709
PL -0.013615 0.013495 -0.052067 -0.236339 0.087013 0.113552 -0.024399 -0.020359 0.010551 0.143937 0.008776 0.065688 0.041140 -0.033880 -0.006193 -0.123957 -0.023761 0.013796 0.062879 0.050654 0.007380 -0.021972 0.017957 -0.018303 -0.116354 0.069715 -0.079106 -0.072305 0.036451 0.039431 -0.102720 0.042050 0.059084 -0.020030 0.010199 -0.089737 -0.013661 0.101006 -0.032263 0.099382 -0.061638 -0.046908 -0.082743 0.096701 0.028341 -0.059699 0.003800 -0.036519 -0.158908 -0.028187 -0.003789 -0.009983 -0.061468 0.037976 -0.037336 0.048967 -0.065196 0.008747 0.099660 0.026224 -0.090092 0.053128 -0.081259 0.001802 0.009608 -0.025809 0.043436 -0.102686 0.011323 -0.045725 0.048853 0.016177 0.036964 -0.038987 0.071460 -0.055018 0.027885 0.039727 0.081914 0.046677 0.021022 0.021975 -0.001811 0.084884 0.072733 0.001383 -0.021563 0.003943 -0.013048 -0.063218 -0.033515 -0.027920 0.067140 -0.004933 -0.011612 -0.006966 0.046854 0.007958 -0.043261 0.054263 -0.059313 0.012576 -0.011327 -0.191230 0.014512 0.112232 -0.072661 -0.015185 0.016851 -0.051879 0.002738 0.041496 0.021919 0.045047 -0.032488 -0.156402 -0.039640 -0.052382 0.045962 -0.020902 -0.067394 0.053769 0.032510 0.009662 -0.011822 -0.042163 0.007255 0.024008
Fish -0.011389 0.013706 -0.052563 -0.227647 0.078985 0.106132 -0.019604 -0.025157 0.011663 0.136443 0.006577 0.059781 0.036707 -0.027826 -0.009112 -0.119609 -0.018229 0.016694 0.061910 0.052645 0.010626 -0.020392 0.017200 -0.013900 -0.112812 0.061415 -0.071133 -0.067074 0.041856 0.036909 -0.097977 0.037816 0.052377 -0.024804 0.010801 -0.080359 -0.015022 0.097539 -0.035415 0.095091 -0.059116 -0.044770 -0.078398 0.093162 0.031566 -0.052979 0.004388 -0.036083 -0.150151 -0.024945 -0.002023 -0.013579 -0.064622 0.032396 -0.031914 0.044704 -0.057227 0.005082 0.096490 0.020808 -0.082484 0.050934 -0.080529 0.003040 0.012547 -0.019885 0.042650 -0.101663 0.012052 -0.043676 0.047238 0.018291 0.030067 -0.034824 0.067331 -0.058518 0.029012 0.041963 0.076650 0.044626 0.015010 0.020602 -0.002458 0.075576 0.069102 -0.003308 -0.021350 0.002219 -0.011978 -0.058729 -0.031881 -0.030140 0.066870 -0.007093 -0.008712 -0.000819 0.038892 0.006957 -0.043619 0.048862 -0.057903 0.018708 -0.012846 -0.178472 0.014089 0.100901 -0.065532 -0.018161 0.021360 -0.046591 0.000175 0.039988 0.017224 0.045206 -0.029004 -0.154291 -0.038732 -0.049982 0.047551 -0.023347 -0.069222 0.046204 0.028690 0.004526 -0.012274 -0.038453 0.014480 0.022247
Zap -0.021559 0.016515 -0.061690 -0.273777 0.097231 0.132220 -0.020397 -0.025691 0.012724 0.173642 0.002502 0.076199 0.040603 -0.032407 -0.006920 -0.139541 -0.030289 0.020115 0.080183 0.061515 0.005543 -0.023794 0.017940 -0.021193 -0.135350 0.072819 -0.092038 -0.082975 0.047530 0.045100 -0.114094 0.049056 0.062465 -0.025478 0.006688 -0.100278 -0.022891 0.117791 -0.038410 0.111859 -0.077156 -0.051077 -0.092693 0.118998 0.038324 -0.073703 0.013457 -0.037024 -0.186942 -0.031133 -0.010393 -0.009453 -0.071551 0.046783 -0.037764 0.061141 -0.077694 0.008836 0.117257 0.026283 -0.107901 0.060977 -0.094226 -0.003524 0.010081 -0.022733 0.052382 -0.116481 0.011673 -0.053881 0.048665 0.022734 0.041913 -0.043827 0.079443 -0.064225 0.036661 0.053371 0.101417 0.057741 0.022506 0.031561 -0.008222 0.099812 0.084875 -0.002808 -0.024278 -0.000632 -0.014986 -0.078205 -0.042473 -0.031490 0.078211 -0.005980 -0.016155 -0.007157 0.053513 0.011493 -0.055933 0.054892 -0.071625 0.015700 -0.012028 -0.214617 0.015787 0.129902 -0.085688 -0.022179 0.020856 -0.051361 0.002659 0.039900 0.019702 0.055249 -0.034697 -0.185857 -0.047535 -0.062024 0.052817 -0.024724 -0.082997 0.057016 0.042069 0.007052 -0.018392 -0.049422 0.015221 0.026723
SN96 -0.015520 0.017002 -0.049343 -0.214805 0.072653 0.096489 -0.018252 -0.019855 0.006237 0.127627 0.002672 0.062844 0.033032 -0.024599 -0.009540 -0.109139 -0.018953 0.011896 0.058030 0.049222 0.009915 -0.018140 0.018408 -0.012972 -0.099870 0.054770 -0.063570 -0.059561 0.037626 0.039389 -0.090113 0.037345 0.052236 -0.020266 0.008507 -0.079872 -0.014322 0.094341 -0.030807 0.088728 -0.060623 -0.047021 -0.072586 0.089139 0.029572 -0.051842 0.004495 -0.034541 -0.146425 -0.025361 -0.001842 -0.011004 -0.055957 0.033656 -0.032128 0.047845 -0.054605 0.004553 0.088397 0.022463 -0.080475 0.050330 -0.069382 -0.002430 0.012972 -0.021263 0.037522 -0.091982 0.008121 -0.039982 0.040808 0.013479 0.026431 -0.036787 0.066603 -0.055262 0.027998 0.038072 0.074705 0.039075 0.011299 0.018343 -0.004215 0.074888 0.066492 -0.002987 -0.021460 0.002819 -0.008196 -0.059070 -0.030960 -0.030038 0.064745 -0.005067 -0.008958 -0.005205 0.040219 0.011627 -0.039805 0.045771 -0.052227 0.015663 -0.005992 -0.164089 0.014601 0.095145 -0.063423 -0.019755 0.018747 -0.047923 -0.002047 0.035474 0.018082 0.044937 -0.027636 -0.143419 -0.032960 -0.046348 0.046004 -0.019723 -0.060948 0.045313 0.028615 0.009238 -0.014153 -0.043193 0.010844 0.020086
Zipfel -0.010291 0.011617 -0.040516 -0.197074 0.075628 0.088990 -0.014747 -0.017996 0.009469 0.123122 0.002101 0.056288 0.031445 -0.022254 -0.002300 -0.103754 -0.016195 0.011466 0.056640 0.045014 0.008697 -0.013617 0.012976 -0.012784 -0.094157 0.052079 -0.065916 -0.060211 0.038229 0.037683 -0.076564 0.033729 0.045672 -0.021509 0.005492 -0.074100 -0.011447 0.082352 -0.031320 0.078154 -0.049233 -0.037055 -0.068725 0.085930 0.028027 -0.044586 0.001688 -0.028114 -0.133329 -0.024266 -0.002600 -0.006910 -0.052842 0.026532 -0.024242 0.043753 -0.053190 0.008016 0.086438 0.016943 -0.073297 0.039993 -0.063322 -0.000633 0.012285 -0.017706 0.034841 -0.086405 0.006601 -0.034630 0.040411 0.014139 0.026842 -0.029763 0.054980 -0.048694 0.021238 0.034492 0.069064 0.041462 0.014157 0.020607 -0.003469 0.068570 0.059234 -0.000804 -0.021719 0.004889 -0.013447 -0.051429 -0.032779 -0.025415 0.058887 -0.006542 -0.009861 -0.005721 0.039228 0.005425 -0.041038 0.037730 -0.057491 0.014221 -0.009681 -0.157325 0.010996 0.085666 -0.058366 -0.010828 0.016725 -0.040212 0.001790 0.028222 0.013692 0.043801 -0.031502 -0.131376 -0.036555 -0.041478 0.036462 -0.020461 -0.056283 0.044304 0.031297 0.003074 -0.014047 -0.034424 0.007653 0.019648
Shmuddel -0.012377 0.010729 -0.047808 -0.216089 0.082684 0.105384 -0.020013 -0.024273 0.008146 0.139300 0.001963 0.058618 0.038598 -0.027369 -0.002739 -0.110119 -0.017753 0.015396 0.065325 0.045882 0.007900 -0.019514 0.011676 -0.017329 -0.103794 0.058396 -0.071483 -0.064952 0.040780 0.039990 -0.092624 0.035990 0.054100 -0.020926 0.005657 -0.084497 -0.019025 0.090792 -0.034279 0.090236 -0.055229 -0.041691 -0.077740 0.091647 0.027589 -0.055647 0.008773 -0.033271 -0.146643 -0.031632 -0.008708 -0.010925 -0.063899 0.032749 -0.033249 0.044847 -0.058995 0.009974 0.096394 0.023475 -0.081774 0.044183 -0.072091 0.000421 0.013398 -0.024183 0.037731 -0.092086 0.007746 -0.035956 0.039485 0.014512 0.030849 -0.034664 0.062877 -0.055084 0.027718 0.036830 0.075821 0.047277 0.020862 0.026410 0.000265 0.077775 0.068514 -0.001318 -0.023473 -0.000562 -0.011212 -0.059720 -0.036866 -0.026938 0.060797 -0.000669 -0.005687 -0.005861 0.043410 0.006635 -0.043071 0.049175 -0.062969 0.012431 -0.013768 -0.175737 0.009942 0.096682 -0.070140 -0.019217 0.016806 -0.048957 0.000319 0.031238 0.021079 0.043737 -0.028003 -0.143302 -0.035814 -0.046018 0.041069 -0.016608 -0.066712 0.048511 0.036011 0.007110 -0.014286 -0.039304 0.011016 0.029712
Double -0.014240 0.016220 -0.044198 -0.180875 0.066204 0.088743 -0.013989 -0.020831 0.008536 0.117785 0.002682 0.051624 0.030605 -0.027765 -0.003878 -0.099005 -0.020227 0.009719 0.052753 0.042070 0.004130 -0.020241 0.013630 -0.017391 -0.092961 0.054131 -0.061997 -0.054905 0.030833 0.035863 -0.081589 0.033464 0.041214 -0.017287 0.004775 -0.071897 -0.016136 0.082739 -0.023874 0.074365 -0.052837 -0.039701 -0.059363 0.078462 0.022289 -0.049567 0.005790 -0.024471 -0.127070 -0.019079 -0.003310 -0.006442 -0.050679 0.026283 -0.030142 0.038745 -0.046512 0.005976 0.082253 0.018786 -0.074310 0.041496 -0.061310 0.001824 0.005542 -0.016864 0.031169 -0.077774 0.011333 -0.035346 0.036171 0.014412 0.025801 -0.026984 0.052191 -0.048686 0.021064 0.032632 0.064004 0.038402 0.014334 0.022247 -0.006307 0.068272 0.059962 -0.003490 -0.012492 0.002991 -0.007915 -0.049083 -0.029954 -0.022156 0.051635 -0.003263 -0.005664 -0.000639 0.030659 0.005078 -0.041319 0.042276 -0.046040 0.009105 -0.010339 -0.144939 0.011366 0.087554 -0.057366 -0.015283 0.016819 -0.034006 0.001409 0.027501 0.010865 0.040015 -0.027642 -0.123264 -0.030734 -0.038942 0.039674 -0.014017 -0.054091 0.043012 0.030998 0.007886 -0.007042 -0.037733 0.011964 0.023431
Beak -0.011255 0.014895 -0.039290 -0.195950 0.068707 0.086897 -0.019442 -0.021637 0.007903 0.122481 0.003716 0.055873 0.031304 -0.028916 -0.005331 -0.100196 -0.017798 0.013349 0.050710 0.040839 0.004414 -0.020693 0.017201 -0.017474 -0.093884 0.056504 -0.064866 -0.053257 0.037259 0.031613 -0.079178 0.034936 0.049105 -0.017134 0.009938 -0.069783 -0.015679 0.084213 -0.027770 0.081166 -0.054546 -0.037235 -0.067062 0.083298 0.028784 -0.045432 0.006992 -0.027689 -0.134582 -0.024341 -0.002299 -0.011358 -0.057002 0.032799 -0.030349 0.042092 -0.055396 0.008748 0.085955 0.017562 -0.074294 0.043041 -0.066626 0.000248 0.006867 -0.014076 0.033600 -0.081113 0.006828 -0.032452 0.034074 0.019036 0.027589 -0.030829 0.056937 -0.051034 0.022990 0.035217 0.070631 0.041734 0.011112 0.022509 -0.004701 0.068907 0.058213 -0.000295 -0.015282 0.002112 -0.009191 -0.049602 -0.032985 -0.023688 0.056291 -0.006982 -0.005370 -0.004855 0.034337 0.008892 -0.038351 0.044077 -0.048913 0.014213 -0.005726 -0.153349 0.010213 0.092015 -0.053720 -0.011101 0.013484 -0.040638 -0.000169 0.032325 0.011501 0.039590 -0.027418 -0.131969 -0.030629 -0.038892 0.040883 -0.020921 -0.059761 0.043299 0.027671 0.005281 -0.013835 -0.038833 0.005316 0.022475
Knit -0.014146 0.020185 -0.045641 -0.215578 0.079644 0.102935 -0.016875 -0.019275 0.007703 0.132327 0.004131 0.062520 0.037329 -0.031893 -0.010570 -0.112524 -0.015704 0.008239 0.054281 0.047636 0.004528 -0.021548 0.016922 -0.013442 -0.107452 0.062400 -0.069855 -0.066990 0.040034 0.038479 -0.090609 0.035802 0.053940 -0.017131 0.008945 -0.080292 -0.016702 0.091804 -0.029902 0.083613 -0.059995 -0.043848 -0.072573 0.092878 0.033659 -0.055673 0.002551 -0.031173 -0.148400 -0.026058 -0.007772 -0.009960 -0.060506 0.037629 -0.035665 0.048084 -0.061607 0.006078 0.086752 0.019870 -0.079039 0.052066 -0.074709 0.000241 0.013230 -0.023602 0.039411 -0.094525 0.007530 -0.038771 0.042210 0.020675 0.030311 -0.037643 0.062811 -0.050159 0.028143 0.034746 0.073205 0.045124 0.015177 0.025978 -0.002658 0.075934 0.068098 -0.000360 -0.022357 0.003848 -0.014355 -0.059920 -0.032015 -0.028925 0.066794 -0.002720 -0.014104 -0.002353 0.038029 0.007242 -0.044699 0.048843 -0.055422 0.012378 -0.010744 -0.172240 0.008825 0.097483 -0.065131 -0.012141 0.014208 -0.048782 -0.000199 0.033772 0.014224 0.048295 -0.029139 -0.142155 -0.033537 -0.049329 0.042717 -0.019920 -0.066783 0.045986 0.033609 0.003811 -0.013225 -0.035401 0.012957 0.025926
Bumper -0.015291 0.016407 -0.057911 -0.260940 0.091082 0.116802 -0.026388 -0.023810 0.006180 0.161765 0.003430 0.073098 0.045200 -0.032152 -0.008970 -0.129154 -0.024180 0.020135 0.073578 0.059956 0.005702 -0.026587 0.016702 -0.023043 -0.128157 0.072393 -0.081034 -0.077779 0.046076 0.047560 -0.105944 0.044485 0.064545 -0.026286 0.007276 -0.091605 -0.015237 0.111878 -0.039117 0.101973 -0.068856 -0.054301 -0.090724 0.108481 0.034095 -0.062815 0.010242 -0.034204 -0.172511 -0.034647 -0.003247 -0.015652 -0.073618 0.035446 -0.034274 0.050824 -0.073052 0.004388 0.106303 0.021653 -0.096409 0.056573 -0.087026 -0.005144 0.008819 -0.019854 0.047023 -0.115844 0.010881 -0.048529 0.051196 0.020107 0.036649 -0.040492 0.078728 -0.062272 0.028226 0.048473 0.094956 0.049052 0.015643 0.024915 -0.007801 0.094658 0.082944 -0.003056 -0.026128 0.004376 -0.010540 -0.069508 -0.035691 -0.032775 0.076443 -0.007103 -0.010776 -0.007029 0.045083 0.013275 -0.048050 0.054562 -0.069453 0.019630 -0.012935 -0.206166 0.010241 0.120022 -0.080130 -0.018220 0.023678 -0.052122 -0.000798 0.042421 0.019797 0.050968 -0.039798 -0.173698 -0.043873 -0.055497 0.054196 -0.020452 -0.072189 0.051298 0.038542 0.010113 -0.011982 -0.042547 0.016217 0.030494
Oscar -0.011922 0.018244 -0.048093 -0.232818 0.083333 0.112422 -0.022302 -0.019311 0.009405 0.147898 0.008117 0.061198 0.041880 -0.032804 -0.008481 -0.120761 -0.022507 0.010695 0.063016 0.052159 0.006846 -0.021727 0.017446 -0.019880 -0.115927 0.061534 -0.076340 -0.066211 0.042259 0.041108 -0.099225 0.041787 0.051356 -0.022831 0.004064 -0.084251 -0.016781 0.101292 -0.034673 0.091368 -0.060525 -0.049795 -0.082263 0.099311 0.028252 -0.061832 0.012372 -0.035592 -0.155889 -0.032148 -0.003696 -0.012556 -0.067027 0.033613 -0.036185 0.046262 -0.062894 0.005037 0.098855 0.023789 -0.088773 0.050276 -0.082631 -0.001315 0.013965 -0.025563 0.045238 -0.100290 0.011220 -0.046397 0.043468 0.019074 0.029960 -0.039304 0.072507 -0.057878 0.026575 0.041322 0.084250 0.045628 0.020290 0.023413 -0.000042 0.082226 0.072334 -0.000651 -0.018807 0.000685 -0.016829 -0.065592 -0.036466 -0.028443 0.066863 -0.001213 -0.012588 -0.001907 0.044842 0.009887 -0.050672 0.049829 -0.062301 0.011344 -0.010752 -0.185774 0.017169 0.108092 -0.068509 -0.019076 0.018276 -0.051601 -0.000834 0.041468 0.016268 0.050132 -0.028267 -0.158489 -0.042513 -0.048597 0.048725 -0.019237 -0.070145 0.049400 0.036233 0.008346 -0.010076 -0.046253 0.012927 0.025601
Mus -0.009289 0.013499 -0.046012 -0.213550 0.077832 0.100781 -0.015013 -0.016572 0.004299 0.127935 0.006225 0.056493 0.036605 -0.028688 -0.008721 -0.112316 -0.023185 0.013770 0.058663 0.045482 0.000388 -0.021549 0.017496 -0.015985 -0.100961 0.059317 -0.066135 -0.064298 0.031503 0.038188 -0.086179 0.038502 0.049684 -0.017564 0.004498 -0.074447 -0.012697 0.088553 -0.030366 0.087155 -0.058161 -0.040082 -0.069200 0.086985 0.031818 -0.056895 0.008081 -0.028920 -0.139666 -0.024495 -0.005478 -0.007853 -0.053466 0.028550 -0.032771 0.043722 -0.061206 0.002936 0.084819 0.017371 -0.082731 0.050619 -0.076325 -0.000684 0.007050 -0.019795 0.036651 -0.094607 0.012650 -0.039602 0.044483 0.017496 0.033225 -0.035751 0.058802 -0.052119 0.025373 0.035546 0.075913 0.042349 0.013444 0.026826 -0.003609 0.072429 0.068904 -0.001384 -0.017234 0.002639 -0.012488 -0.054373 -0.031894 -0.030509 0.064450 -0.000508 -0.011797 -0.006484 0.041528 0.007027 -0.041547 0.041687 -0.059094 0.012806 -0.009438 -0.168372 0.013112 0.097316 -0.067620 -0.014794 0.014911 -0.039114 0.003954 0.030587 0.019177 0.046210 -0.027021 -0.138172 -0.036810 -0.044270 0.038832 -0.022630 -0.058509 0.045770 0.029019 0.007367 -0.009491 -0.035052 0.012891 0.022526
TSN83 -0.015011 0.009659 -0.044950 -0.197999 0.076429 0.090226 -0.013397 -0.022641 0.003142 0.121006 0.000938 0.058128 0.035355 -0.027149 -0.008989 -0.100759 -0.020883 0.013073 0.053314 0.042756 0.001735 -0.016641 0.015635 -0.015306 -0.099328 0.056608 -0.065867 -0.055112 0.038213 0.037935 -0.079552 0.038162 0.050051 -0.017392 0.003217 -0.071127 -0.017903 0.084221 -0.027383 0.079166 -0.055852 -0.042679 -0.067757 0.082220 0.030826 -0.046366 0.001812 -0.029879 -0.130041 -0.022116 -0.006003 -0.012549 -0.054191 0.031656 -0.027190 0.040822 -0.052378 0.004926 0.087528 0.020234 -0.076460 0.042579 -0.071132 -0.004221 0.010713 -0.014634 0.034490 -0.090477 0.011630 -0.036983 0.033776 0.012066 0.032236 -0.036046 0.059200 -0.045252 0.024084 0.039512 0.066754 0.037700 0.014199 0.019145 -0.007275 0.069399 0.061920 0.000599 -0.016724 0.002242 -0.007736 -0.058446 -0.028617 -0.027689 0.057632 -0.007093 -0.011883 -0.003964 0.040597 0.006576 -0.043241 0.042583 -0.057289 0.013829 -0.006181 -0.159324 0.007505 0.091870 -0.060445 -0.016248 0.016925 -0.039499 0.005623 0.029455 0.020836 0.044811 -0.032021 -0.131894 -0.035432 -0.039262 0.039345 -0.015578 -0.055133 0.041974 0.032014 0.007638 -0.014756 -0.036250 0.012919 0.026622
Thumper -0.014494 0.008852 -0.038907 -0.192440 0.068106 0.088110 -0.017497 -0.020438 0.004992 0.120305 0.003662 0.051281 0.028099 -0.026765 -0.004010 -0.099321 -0.018429 0.015520 0.055495 0.043488 0.002719 -0.016150 0.013536 -0.017315 -0.092538 0.049297 -0.057496 -0.054349 0.037974 0.031497 -0.079937 0.035028 0.043840 -0.016576 0.002518 -0.068172 -0.017431 0.082084 -0.031938 0.081281 -0.050097 -0.037394 -0.064911 0.085285 0.029971 -0.044953 0.008639 -0.030679 -0.131113 -0.025018 -0.005096 -0.007263 -0.052371 0.026427 -0.023880 0.043888 -0.054706 0.005523 0.082458 0.020945 -0.077616 0.040647 -0.067329 0.002824 0.010985 -0.019935 0.032756 -0.086556 0.010592 -0.034373 0.036772 0.013352 0.028212 -0.031100 0.060185 -0.046699 0.022512 0.035168 0.070476 0.037351 0.018118 0.021965 -0.003806 0.069013 0.060548 -0.000092 -0.016448 0.004025 -0.008405 -0.056360 -0.033935 -0.022876 0.059653 -0.005968 -0.008177 -0.004080 0.033801 0.004152 -0.042690 0.042224 -0.055065 0.015176 -0.006730 -0.155355 0.009062 0.087853 -0.053961 -0.017986 0.014295 -0.036914 0.006521 0.026296 0.014897 0.042910 -0.030102 -0.127291 -0.035612 -0.043030 0.036372 -0.020318 -0.059726 0.041805 0.029078 0.006064 -0.010462 -0.035340 0.007204 0.022906
Notch -0.005220 0.010594 -0.029356 -0.138078 0.052135 0.060173 -0.010477 -0.010961 0.007945 0.088146 0.006809 0.039024 0.024974 -0.022213 -0.004756 -0.072090 -0.011046 0.004291 0.038064 0.030098 0.000247 -0.011717 0.011417 -0.007158 -0.062972 0.039023 -0.039699 -0.043542 0.018792 0.027971 -0.059545 0.020635 0.029239 -0.011688 0.005910 -0.051297 -0.011005 0.061297 -0.019468 0.058557 -0.037423 -0.027686 -0.044112 0.058161 0.020333 -0.036080 0.001019 -0.021859 -0.093968 -0.021270 -0.001867 -0.010555 -0.032702 0.019792 -0.017580 0.032196 -0.039871 0.006821 0.055443 0.014861 -0.052586 0.034740 -0.049906 0.002220 0.009825 -0.016051 0.020819 -0.059870 0.010667 -0.028429 0.026632 0.011322 0.023352 -0.021520 0.041571 -0.033564 0.016387 0.025828 0.046873 0.026702 0.012383 0.016684 -0.002604 0.051483 0.044022 -0.000200 -0.014093 0.001856 -0.005834 -0.039269 -0.025187 -0.016901 0.041523 -0.004011 -0.007631 0.000055 0.023230 0.007860 -0.026342 0.031204 -0.035397 0.009746 -0.009733 -0.106989 0.004309 0.065877 -0.043402 -0.012889 0.006663 -0.032752 0.002756 0.018236 0.009191 0.027420 -0.021782 -0.091300 -0.023969 -0.027863 0.023123 -0.013245 -0.038853 0.027041 0.017310 0.007807 -0.006008 -0.024916 0.003205 0.012480
TR120 -0.017672 0.019746 -0.048130 -0.243471 0.091673 0.109339 -0.025894 -0.028167 0.003879 0.153685 0.004032 0.071560 0.044126 -0.031482 -0.005695 -0.126836 -0.024995 0.011039 0.071265 0.052203 0.008113 -0.025844 0.019635 -0.018835 -0.116148 0.069008 -0.079431 -0.074782 0.042014 0.046444 -0.105092 0.043600 0.059656 -0.017233 0.003858 -0.093437 -0.013759 0.099533 -0.036461 0.098530 -0.064375 -0.050153 -0.084541 0.103168 0.036616 -0.063434 0.009300 -0.034795 -0.157768 -0.029661 -0.004058 -0.012962 -0.067490 0.037142 -0.038657 0.048681 -0.062924 0.007969 0.108939 0.020249 -0.096975 0.056101 -0.080995 -0.003506 0.015855 -0.018997 0.045593 -0.103258 0.016263 -0.040867 0.042501 0.017528 0.039704 -0.037736 0.074119 -0.053842 0.029616 0.044781 0.088164 0.053114 0.015784 0.028033 -0.008599 0.089021 0.078916 0.003618 -0.019459 -0.000499 -0.012287 -0.071239 -0.035751 -0.034196 0.068420 -0.003920 -0.006745 -0.003980 0.046596 0.007903 -0.051649 0.051574 -0.071734 0.021633 -0.011930 -0.196250 0.018157 0.108657 -0.075898 -0.021302 0.018141 -0.054076 0.003747 0.034677 0.024620 0.051811 -0.036198 -0.158662 -0.039297 -0.052615 0.048940 -0.016919 -0.068406 0.048462 0.033315 0.004165 -0.013779 -0.047690 0.016807 0.033419
MN60 -0.009544 0.016275 -0.043038 -0.177479 0.066182 0.081988 -0.015613 -0.015878 0.003329 0.116003 0.005867 0.053248 0.026267 -0.024855 -0.007193 -0.091584 -0.016167 0.010250 0.049795 0.040786 0.000863 -0.018703 0.016641 -0.015128 -0.089250 0.047369 -0.054051 -0.056918 0.032976 0.033642 -0.075621 0.031319 0.044033 -0.013116 0.007469 -0.066090 -0.014044 0.080579 -0.021796 0.071814 -0.050394 -0.037848 -0.065541 0.075162 0.027256 -0.043197 0.003427 -0.026728 -0.126017 -0.024104 -0.005126 -0.008715 -0.044275 0.030612 -0.026523 0.041458 -0.050015 0.004631 0.078398 0.020201 -0.070037 0.044296 -0.063165 -0.002121 0.004444 -0.016857 0.031458 -0.077086 0.011945 -0.033965 0.031342 0.013312 0.027061 -0.029847 0.054088 -0.047328 0.024957 0.029935 0.061040 0.039311 0.018366 0.019601 -0.001410 0.067114 0.059627 -0.003292 -0.020023 -0.001381 -0.012646 -0.048683 -0.029627 -0.021722 0.049844 -0.002919 -0.011828 -0.000042 0.035771 0.006741 -0.038382 0.035322 -0.046878 0.008129 -0.010279 -0.141346 0.011016 0.082201 -0.050797 -0.014324 0.014984 -0.031967 0.005214 0.032592 0.016032 0.037368 -0.020951 -0.123141 -0.033322 -0.038452 0.039156 -0.015749 -0.051090 0.041567 0.025272 0.003087 -0.006556 -0.031433 0.006312 0.016573
TR88 -0.013307 0.016355 -0.046881 -0.228622 0.087102 0.109967 -0.018960 -0.023594 0.008556 0.145542 0.004595 0.070051 0.040698 -0.034277 -0.008523 -0.119579 -0.023286 0.010841 0.062320 0.055517 0.002565 -0.022941 0.013331 -0.014859 -0.108439 0.068454 -0.072617 -0.072503 0.044857 0.043058 -0.095209 0.038694 0.057243 -0.019318 0.010913 -0.085418 -0.015940 0.098390 -0.034039 0.090487 -0.060628 -0.044639 -0.076691 0.098364 0.030566 -0.061373 0.007138 -0.034099 -0.156605 -0.024388 -0.007030 -0.010911 -0.060926 0.033740 -0.031758 0.045695 -0.059682 0.009888 0.101871 0.024014 -0.085973 0.050308 -0.073464 0.001101 0.016042 -0.021890 0.045427 -0.095553 0.012365 -0.037374 0.043387 0.021296 0.037041 -0.040964 0.063997 -0.055124 0.024871 0.037941 0.081195 0.049195 0.016950 0.026760 -0.006046 0.076667 0.071122 0.002914 -0.025509 -0.003195 -0.017041 -0.063561 -0.036644 -0.032089 0.062906 -0.003260 -0.010897 -0.002875 0.043458 0.004341 -0.046714 0.048089 -0.067505 0.019434 -0.009975 -0.185632 0.016260 0.101626 -0.070791 -0.021168 0.021030 -0.053227 0.001135 0.037804 0.023705 0.052211 -0.037464 -0.155568 -0.040604 -0.048186 0.047872 -0.016788 -0.071767 0.043600 0.037373 0.008999 -0.015560 -0.045264 0.017015 0.027172
Wave -0.008952 0.012666 -0.028439 -0.152790 0.054580 0.072596 -0.015676 -0.015037 0.003203 0.093257 0.004199 0.043089 0.026261 -0.024075 -0.008406 -0.078997 -0.014956 0.010918 0.042716 0.033757 0.000916 -0.012966 0.008135 -0.014048 -0.072816 0.040937 -0.053620 -0.041896 0.024561 0.024517 -0.066662 0.030551 0.036018 -0.013023 0.007156 -0.051089 -0.012222 0.066021 -0.018354 0.062527 -0.043814 -0.031634 -0.050371 0.063201 0.024832 -0.037436 0.004147 -0.021216 -0.100730 -0.017171 -0.001248 -0.005490 -0.044901 0.025044 -0.025174 0.030290 -0.040281 0.003361 0.068026 0.010506 -0.058701 0.032757 -0.049087 0.001716 0.005918 -0.013589 0.024680 -0.066292 0.006582 -0.028357 0.032875 0.010049 0.022550 -0.027167 0.042774 -0.035612 0.018052 0.029876 0.052720 0.032603 0.008577 0.014471 -0.005554 0.054135 0.043312 0.000970 -0.013207 0.003135 -0.010422 -0.037997 -0.023864 -0.020683 0.042499 -0.004592 -0.003183 -0.004961 0.026486 0.004089 -0.033577 0.036444 -0.041568 0.012812 -0.008286 -0.122222 0.010985 0.070204 -0.049203 -0.010035 0.009920 -0.026622 0.006307 0.023509 0.010844 0.031675 -0.022609 -0.103896 -0.023959 -0.034063 0.029577 -0.016167 -0.044913 0.033656 0.022137 0.003805 -0.012013 -0.023896 0.006778 0.015190
TSN103 -0.015029 0.013830 -0.054849 -0.246910 0.088832 0.120756 -0.018953 -0.022322 0.010410 0.156026 0.003547 0.069444 0.043599 -0.031061 -0.005992 -0.125887 -0.023105 0.014055 0.068894 0.053142 0.008135 -0.025858 0.021662 -0.020113 -0.121209 0.066892 -0.076521 -0.071680 0.042094 0.048540 -0.105474 0.043492 0.062142 -0.024844 0.008319 -0.091813 -0.021155 0.107483 -0.033796 0.097232 -0.064367 -0.049417 -0.082923 0.103212 0.036055 -0.058860 0.005883 -0.034913 -0.167824 -0.032612 -0.008162 -0.008508 -0.064499 0.040185 -0.033898 0.050693 -0.071695 0.006123 0.105054 0.026151 -0.095414 0.057454 -0.088009 0.002713 0.014629 -0.023238 0.044582 -0.103935 0.012790 -0.046848 0.043869 0.022410 0.039779 -0.039887 0.075227 -0.057671 0.032478 0.046027 0.089459 0.050595 0.018009 0.027750 -0.005599 0.084948 0.077020 -0.001569 -0.026212 0.005005 -0.014139 -0.065653 -0.037837 -0.028577 0.075272 -0.002979 -0.014916 -0.008797 0.047601 0.011570 -0.052673 0.050954 -0.063455 0.014262 -0.014554 -0.198165 0.011207 0.117572 -0.074944 -0.022838 0.017864 -0.052903 0.001896 0.040641 0.017041 0.053511 -0.036669 -0.162843 -0.041519 -0.049006 0.045224 -0.023131 -0.075761 0.051382 0.038350 0.004182 -0.014111 -0.046178 0.014999 0.031179
Vau -0.006345 0.008479 -0.031441 -0.141413 0.052965 0.063723 -0.012253 -0.016121 0.003014 0.089013 -0.000144 0.038873 0.019566 -0.014461 -0.002940 -0.074218 -0.015429 0.009628 0.038765 0.028204 -0.000370 -0.014965 0.008138 -0.014506 -0.069912 0.040832 -0.044016 -0.043603 0.027863 0.024438 -0.061881 0.024456 0.033041 -0.010155 0.002476 -0.049102 -0.007997 0.058996 -0.020761 0.056687 -0.035508 -0.025698 -0.052400 0.061399 0.024305 -0.038144 0.007423 -0.018461 -0.092328 -0.017156 -0.003962 -0.005390 -0.033823 0.019232 -0.023808 0.031067 -0.035105 0.008259 0.059250 0.014207 -0.058484 0.035349 -0.050115 -0.002121 0.004193 -0.009566 0.029310 -0.057822 0.011020 -0.023452 0.023775 0.011675 0.019164 -0.019041 0.044719 -0.037683 0.015544 0.024177 0.053404 0.026653 0.013224 0.011110 0.000892 0.048224 0.041987 -0.002797 -0.016523 -0.001417 -0.007131 -0.035853 -0.025915 -0.013324 0.045074 0.002582 -0.009923 -0.003425 0.026763 0.003347 -0.027849 0.026251 -0.040685 0.010856 -0.003250 -0.113117 0.005108 0.062683 -0.046999 -0.014590 0.013426 -0.025700 -0.000312 0.024604 0.014920 0.027265 -0.018965 -0.093666 -0.023195 -0.029107 0.030608 -0.017290 -0.042915 0.029122 0.016994 0.002913 -0.005472 -0.022844 0.011287 0.013304
CCL -0.012502 0.011102 -0.035013 -0.145929 0.053324 0.068302 -0.008211 -0.012045 0.007918 0.088202 -0.000139 0.040358 0.020515 -0.018299 -0.005103 -0.071188 -0.013364 0.010061 0.038517 0.032009 0.000381 -0.017094 0.013479 -0.010611 -0.070897 0.037344 -0.049016 -0.045763 0.028259 0.021956 -0.058901 0.027579 0.032934 -0.010426 0.007680 -0.056096 -0.010691 0.061953 -0.020135 0.053895 -0.036052 -0.024367 -0.048290 0.061335 0.021541 -0.037401 0.005448 -0.018974 -0.095680 -0.018391 -0.006716 -0.009407 -0.034656 0.023647 -0.021250 0.029983 -0.035591 0.003255 0.058005 0.011258 -0.052327 0.030020 -0.051575 0.002909 0.009954 -0.016955 0.024797 -0.061540 0.003565 -0.027485 0.026747 0.008328 0.023283 -0.023559 0.043402 -0.037132 0.014312 0.022014 0.053700 0.029976 0.007579 0.015269 0.000921 0.046129 0.047087 -0.003792 -0.014705 -0.003009 -0.008124 -0.042563 -0.018921 -0.018805 0.041845 0.001907 -0.007022 -0.001830 0.023653 0.003874 -0.032844 0.032115 -0.040343 0.008317 -0.010810 -0.116021 0.007971 0.061549 -0.047055 -0.007589 0.007682 -0.024094 0.001223 0.021128 0.013411 0.026125 -0.020836 -0.091401 -0.025644 -0.033213 0.030926 -0.011228 -0.043316 0.026764 0.019792 0.007799 -0.008425 -0.026045 0.006618 0.013062
SN89 -0.008045 0.014544 -0.035092 -0.163129 0.056511 0.078171 -0.014796 -0.019431 0.001323 0.104942 0.001676 0.048058 0.023763 -0.020527 -0.009351 -0.086232 -0.013036 0.005717 0.043587 0.035488 0.000822 -0.020022 0.011422 -0.015509 -0.079693 0.047131 -0.054327 -0.048843 0.023751 0.025820 -0.070531 0.028314 0.042301 -0.010130 0.006767 -0.056669 -0.009019 0.069414 -0.017992 0.067422 -0.048101 -0.030545 -0.056684 0.067823 0.020714 -0.044271 0.008286 -0.024133 -0.108093 -0.022409 -0.004973 -0.011312 -0.045774 0.023972 -0.028007 0.032768 -0.041853 0.007792 0.069830 0.017805 -0.063976 0.040698 -0.053739 -0.003564 0.003980 -0.015874 0.027575 -0.072688 0.004471 -0.027480 0.027932 0.013114 0.023534 -0.022728 0.045599 -0.041915 0.021071 0.031274 0.059143 0.031590 0.013505 0.017791 -0.002854 0.061697 0.054077 0.004685 -0.016752 0.000888 -0.012535 -0.041309 -0.027823 -0.023416 0.050810 -0.003207 -0.009538 0.000419 0.027177 0.009389 -0.035201 0.036073 -0.042106 0.009292 -0.006380 -0.134058 0.009384 0.073874 -0.050098 -0.008829 0.011063 -0.029225 0.001017 0.023997 0.012059 0.033950 -0.024046 -0.108874 -0.031262 -0.036534 0.034539 -0.018221 -0.049604 0.031476 0.027222 0.004282 -0.011709 -0.030798 0.007321 0.019057
Zig -0.011853 0.016813 -0.038036 -0.169532 0.061479 0.082865 -0.018293 -0.019842 0.005629 0.103201 0.004593 0.053147 0.028157 -0.023195 -0.006337 -0.091173 -0.018703 0.007582 0.043934 0.042188 -0.000715 -0.020319 0.013417 -0.015190 -0.085804 0.045586 -0.056743 -0.046995 0.025137 0.027449 -0.069951 0.033822 0.037474 -0.012981 0.001934 -0.064349 -0.017692 0.071720 -0.022248 0.072092 -0.049792 -0.033175 -0.059480 0.070687 0.029344 -0.046819 0.000710 -0.020559 -0.112336 -0.022234 -0.002350 -0.007275 -0.049408 0.030837 -0.027572 0.039690 -0.046842 0.003796 0.074123 0.011749 -0.070965 0.038344 -0.058290 0.001291 0.010571 -0.018002 0.024016 -0.079444 0.005026 -0.031212 0.032322 0.013542 0.027967 -0.029041 0.052137 -0.043003 0.023764 0.035059 0.059002 0.037858 0.010829 0.023787 -0.003424 0.058475 0.051252 0.005635 -0.016106 -0.000413 -0.013921 -0.050173 -0.027531 -0.024432 0.046448 -0.003013 -0.004030 -0.001519 0.030442 0.003421 -0.030570 0.039664 -0.041418 0.010687 -0.005314 -0.139183 0.007680 0.083430 -0.055879 -0.014463 0.011416 -0.032318 0.008671 0.024500 0.016071 0.034236 -0.023711 -0.116531 -0.027865 -0.035986 0.029348 -0.013367 -0.049215 0.035211 0.029304 0.010944 -0.010752 -0.035419 0.006714 0.022536
TR82 -0.012147 0.014776 -0.044616 -0.189730 0.070724 0.089935 -0.018484 -0.020363 0.007614 0.115406 0.005667 0.056163 0.032580 -0.029175 -0.006778 -0.099004 -0.015890 0.014438 0.051209 0.045021 0.000311 -0.019066 0.017581 -0.014859 -0.095129 0.052697 -0.066810 -0.056673 0.027478 0.036539 -0.082504 0.034402 0.044959 -0.015906 0.007344 -0.069490 -0.012624 0.081359 -0.026641 0.077245 -0.052351 -0.041948 -0.069860 0.078199 0.023355 -0.045116 0.009945 -0.031149 -0.126842 -0.022932 -0.002570 -0.012664 -0.052486 0.027702 -0.027233 0.037921 -0.054661 0.002801 0.084117 0.019834 -0.071771 0.043337 -0.067991 0.002314 0.005300 -0.015196 0.030357 -0.079564 0.011754 -0.034234 0.037470 0.016010 0.029641 -0.028335 0.060510 -0.046884 0.020495 0.036505 0.067040 0.042420 0.009878 0.025237 -0.004450 0.069708 0.061953 0.000745 -0.013507 0.002339 -0.009692 -0.051292 -0.031175 -0.024113 0.053716 -0.003731 -0.009122 -0.000894 0.036272 0.007157 -0.042834 0.040581 -0.053614 0.017338 -0.009266 -0.152269 0.008355 0.090863 -0.057886 -0.016737 0.013412 -0.039157 0.000465 0.031567 0.019960 0.038103 -0.024339 -0.129000 -0.033915 -0.039630 0.039957 -0.021331 -0.057857 0.041137 0.031513 0.007376 -0.010335 -0.033911 0.009534 0.023949
Whitetip -0.013281 0.006378 -0.034140 -0.149036 0.058039 0.071856 -0.017036 -0.017551 0.005870 0.092478 0.004667 0.038996 0.028755 -0.018724 -0.006887 -0.076591 -0.013856 0.009001 0.039346 0.033098 0.008218 -0.013902 0.008813 -0.010885 -0.071349 0.038977 -0.046341 -0.046562 0.025770 0.029509 -0.064528 0.022100 0.035855 -0.013570 0.003012 -0.058247 -0.011065 0.064077 -0.024972 0.064522 -0.036897 -0.031280 -0.052326 0.066778 0.022583 -0.039624 0.004432 -0.022589 -0.101224 -0.023511 -0.003009 -0.007200 -0.038664 0.023531 -0.020527 0.034260 -0.040889 0.002906 0.067905 0.015299 -0.059402 0.032152 -0.054089 -0.003430 0.008783 -0.012371 0.023412 -0.067457 0.007933 -0.026256 0.029539 0.014936 0.020204 -0.027292 0.042006 -0.031373 0.017211 0.026822 0.055626 0.031315 0.012677 0.016482 -0.003625 0.049345 0.049998 -0.003346 -0.016070 0.000072 -0.011072 -0.045234 -0.020085 -0.018709 0.043731 0.000301 -0.009553 -0.006520 0.023182 0.003507 -0.029097 0.029124 -0.044270 0.006334 -0.006598 -0.122973 0.010612 0.071813 -0.042229 -0.014698 0.014219 -0.034742 0.000079 0.021560 0.015090 0.027792 -0.018750 -0.100550 -0.023470 -0.031140 0.032417 -0.015049 -0.045674 0.033529 0.021568 0.007577 -0.009943 -0.025693 0.010944 0.014704
Cross -0.011499 0.011929 -0.029138 -0.136053 0.053762 0.067840 -0.014690 -0.014244 0.003106 0.089057 0.002913 0.038280 0.019701 -0.015271 -0.008745 -0.069576 -0.014571 0.004987 0.040484 0.030588 0.006534 -0.008559 0.010513 -0.012739 -0.068231 0.038119 -0.043685 -0.038254 0.028812 0.022372 -0.061832 0.021777 0.036068 -0.015100 0.000565 -0.054095 -0.006513 0.060987 -0.023123 0.058151 -0.040015 -0.032254 -0.050557 0.060171 0.022954 -0.034957 0.001225 -0.015867 -0.096269 -0.021154 -0.007808 -0.004474 -0.033731 0.022897 -0.019669 0.032097 -0.041208 0.003952 0.061561 0.015717 -0.058235 0.030715 -0.050034 -0.001906 0.002649 -0.015400 0.022788 -0.057669 0.004707 -0.025684 0.025719 0.014528 0.020829 -0.020781 0.045235 -0.036999 0.021409 0.029707 0.050881 0.027869 0.014054 0.010736 -0.001389 0.044902 0.040819 -0.003328 -0.016289 0.001510 -0.009555 -0.037845 -0.018710 -0.015073 0.044780 -0.000896 -0.005301 -0.000095 0.022299 0.003764 -0.031491 0.027876 -0.039401 0.007696 -0.005101 -0.108903 0.005382 0.067099 -0.039078 -0.007562 0.015412 -0.026366 0.001519 0.025591 0.010371 0.029824 -0.021885 -0.091091 -0.020684 -0.028495 0.027404 -0.016998 -0.042309 0.031103 0.022968 0.003549 -0.009894 -0.026947 0.006954 0.013840
Five -0.009083 0.010330 -0.026887 -0.135403 0.049857 0.068907 -0.012994 -0.012173 0.001614 0.083949 0.002503 0.041766 0.023074 -0.022021 -0.008117 -0.071107 -0.014032 0.007249 0.035734 0.030748 0.003778 -0.012281 0.013964 -0.015023 -0.071319 0.033809 -0.048160 -0.037193 0.025745 0.028376 -0.061716 0.024283 0.035658 -0.010331 0.002385 -0.053960 -0.009091 0.060079 -0.022949 0.057115 -0.036400 -0.026075 -0.050532 0.058128 0.021061 -0.036104 0.001848 -0.019112 -0.094341 -0.016284 -0.006812 -0.009465 -0.034232 0.025984 -0.018876 0.026885 -0.038920 0.005506 0.059441 0.011235 -0.056473 0.033700 -0.043801 0.003493 0.007804 -0.011649 0.022388 -0.063477 0.009452 -0.029412 0.026230 0.014133 0.017654 -0.020437 0.037437 -0.038837 0.017523 0.023084 0.048636 0.028322 0.012937 0.013591 -0.002494 0.051231 0.044867 -0.003566 -0.012607 0.003437 -0.008861 -0.034484 -0.018070 -0.015462 0.037345 0.002964 -0.003332 -0.001774 0.022678 0.005798 -0.025930 0.027512 -0.038894 0.009362 -0.006584 -0.114996 0.010938 0.061952 -0.043726 -0.013992 0.009802 -0.025310 0.005826 0.022899 0.011805 0.024891 -0.018641 -0.092365 -0.021633 -0.026773 0.026560 -0.015254 -0.041909 0.033218 0.022513 0.001565 -0.012397 -0.024614 0.009996 0.018724
Fork -0.007931 0.012482 -0.031272 -0.142629 0.052896 0.067173 -0.015174 -0.015357 0.001506 0.092001 0.001805 0.036637 0.023440 -0.022602 -0.007868 -0.069330 -0.010877 0.009006 0.040117 0.031631 -0.000044 -0.010874 0.007057 -0.014667 -0.071537 0.040840 -0.041627 -0.039614 0.028804 0.028805 -0.058258 0.022729 0.028751 -0.014613 0.001189 -0.050391 -0.013242 0.056514 -0.023235 0.056249 -0.040771 -0.026338 -0.049840 0.062377 0.023473 -0.038968 0.001057 -0.024582 -0.096607 -0.020231 -0.003864 -0.007691 -0.039490 0.026803 -0.017176 0.033877 -0.040455 0.004392 0.061426 0.016434 -0.051932 0.027860 -0.049044 0.002734 0.006830 -0.017844 0.025057 -0.059479 0.006458 -0.028919 0.024187 0.014287 0.022897 -0.025173 0.038392 -0.030213 0.019057 0.028000 0.051054 0.028966 0.014497 0.014258 0.000027 0.052108 0.040930 -0.002514 -0.015942 -0.002444 -0.010159 -0.036160 -0.018831 -0.016622 0.043859 -0.001069 -0.004324 -0.003449 0.023568 0.008948 -0.026955 0.034242 -0.040679 0.005195 -0.010133 -0.110873 0.005370 0.062456 -0.040272 -0.007693 0.007642 -0.026616 0.002902 0.018733 0.007684 0.029610 -0.020597 -0.094965 -0.024431 -0.025899 0.027137 -0.011678 -0.039034 0.029732 0.016986 0.000524 -0.007322 -0.025307 0.004044 0.015644
MN23 -0.014792 0.014643 -0.037792 -0.184042 0.070118 0.081681 -0.016767 -0.018515 0.004477 0.109810 0.006433 0.052952 0.033567 -0.029069 -0.006177 -0.094296 -0.016021 0.013522 0.053282 0.038836 0.002722 -0.017151 0.014497 -0.016922 -0.088002 0.053079 -0.061493 -0.050517 0.028701 0.032863 -0.080212 0.035650 0.040118 -0.011538 0.006943 -0.067221 -0.011120 0.075289 -0.022837 0.073009 -0.053803 -0.036095 -0.064863 0.073798 0.030047 -0.041600 0.003702 -0.029604 -0.122699 -0.019267 -0.002153 -0.007198 -0.052100 0.029204 -0.025942 0.037423 -0.050740 0.002370 0.079122 0.018804 -0.071797 0.044231 -0.063690 -0.000994 0.011509 -0.014706 0.031604 -0.079993 0.009943 -0.031343 0.037934 0.016861 0.025476 -0.027005 0.051941 -0.039729 0.021196 0.027976 0.065279 0.040792 0.008144 0.023613 -0.001048 0.064066 0.057536 0.000530 -0.018487 0.003400 -0.007591 -0.052821 -0.023654 -0.024516 0.053945 -0.003466 -0.011209 -0.001097 0.034012 0.010657 -0.036726 0.040519 -0.049516 0.009975 -0.010906 -0.142355 0.007411 0.082200 -0.059158 -0.017294 0.017448 -0.036215 -0.000079 0.028346 0.010730 0.035186 -0.027590 -0.116253 -0.031121 -0.040536 0.031984 -0.016457 -0.053004 0.037310 0.027520 0.002400 -0.010771 -0.033333 0.012166 0.021143
Quasi -0.009864 0.012887 -0.025824 -0.139713 0.050658 0.062667 -0.015359 -0.016112 0.003788 0.088170 0.004552 0.037566 0.019638 -0.022387 -0.003992 -0.072034 -0.013688 0.008892 0.034858 0.032796 0.003695 -0.016765 0.009672 -0.014690 -0.069512 0.041661 -0.049360 -0.037016 0.022107 0.022829 -0.060375 0.020973 0.028640 -0.011603 0.006256 -0.048560 -0.010365 0.054773 -0.020721 0.057551 -0.039945 -0.030603 -0.044311 0.056435 0.021708 -0.034560 0.002881 -0.017134 -0.095733 -0.013717 -0.000103 -0.008739 -0.037580 0.020730 -0.017285 0.030794 -0.041916 0.004682 0.054233 0.011233 -0.052817 0.032914 -0.046884 -0.001533 0.005323 -0.015223 0.019798 -0.061627 0.002438 -0.023024 0.027322 0.006572 0.023540 -0.020537 0.036451 -0.029924 0.020650 0.027031 0.049091 0.025963 0.006102 0.013765 -0.004922 0.051362 0.042805 0.003114 -0.012495 -0.001862 -0.007772 -0.036682 -0.018573 -0.016078 0.039314 -0.003011 -0.006743 0.002788 0.020894 0.008293 -0.024676 0.026624 -0.039985 0.012803 -0.008373 -0.111134 0.011083 0.066022 -0.044956 -0.009153 0.014971 -0.025152 0.001887 0.017828 0.013966 0.032290 -0.018828 -0.086174 -0.025902 -0.029437 0.022519 -0.010218 -0.040035 0.026589 0.021542 0.002699 -0.009689 -0.027789 0.005181 0.017591
SMN5 -0.010206 0.011760 -0.025220 -0.130174 0.047270 0.059929 -0.008912 -0.016295 0.003170 0.083925 0.003756 0.037484 0.017431 -0.020694 -0.004780 -0.063060 -0.014304 0.004035 0.039199 0.026278 0.006496 -0.011477 0.010695 -0.009841 -0.064281 0.037569 -0.043630 -0.041674 0.025752 0.027012 -0.052720 0.026119 0.027288 -0.011300 0.002231 -0.049694 -0.008684 0.051317 -0.017989 0.055530 -0.032303 -0.027208 -0.041993 0.056436 0.021970 -0.029594 0.003496 -0.022722 -0.083974 -0.017009 0.000709 -0.002599 -0.037731 0.022348 -0.017194 0.028870 -0.037419 0.006847 0.051549 0.013031 -0.049807 0.028566 -0.048354 0.002676 0.007971 -0.015624 0.023174 -0.058679 0.007739 -0.024415 0.022738 0.005852 0.020733 -0.023521 0.042355 -0.029558 0.017446 0.024689 0.044758 0.029961 0.005711 0.016014 -0.001735 0.049128 0.042199 0.001240 -0.008143 0.003512 -0.003775 -0.037960 -0.016438 -0.014822 0.038242 0.001833 -0.005434 -0.006496 0.026393 0.006848 -0.029515 0.024749 -0.033326 0.011183 -0.005474 -0.099920 0.005978 0.062066 -0.040832 -0.009326 0.012869 -0.026408 -0.001624 0.019101 0.011930 0.026814 -0.014305 -0.084371 -0.023939 -0.029708 0.026313 -0.013276 -0.034348 0.026936 0.018712 0.001464 -0.004521 -0.019754 0.010548 0.010338
